W1:
[[-4.4983e-01 -7.8299e-01  8.9346e-01 -4.5071e-01 -9.6447e-01 -9.3126e-01
  -9.3033e-02 -9.6927e-02  4.4422e-01 -6.8705e-01  9.8253e-01  4.4542e-01
  -8.1251e-01  2.9172e-01 -1.6116e-01 -2.6600e-01  7.4539e-01  6.4749e-01
  -2.2780e-01 -7.7972e-01  8.4997e-01  3.1595e-01 -8.3783e-01  8.0882e-01
   9.2726e-02 -6.0569e-02  4.8279e-01  1.5420e-01 -1.7958e-01 -2.3607e-01
  -2.6284e-01  9.2990e-02  7.6742e-01 -9.6602e-01  6.4017e-01  6.1021e-01
  -3.6753e-01 -2.1045e-01  2.8075e-01 -5.9687e-01  2.1083e-01  3.7158e-01
   5.2906e-01 -3.9965e-01 -7.5879e-02 -1.5130e-01  3.4239e-01 -6.6136e-01
   9.7381e-01 -9.9114e-02  9.6963e-01 -6.5641e-01 -5.6182e-01  7.0532e-01
   4.1049e-01  3.4822e-01  2.9683e-01  7.6144e-01  1.7293e-01 -7.4827e-01
   2.2586e-01  3.0855e-01 -3.5451e-01  7.8041e-01]
 [ 2.2902e-01 -7.2480e-01 -2.0346e-01  3.3066e-01 -6.4664e-01  2.9255e-02
   2.6363e-01 -3.8962e-01 -2.4356e-01 -1.8189e-01 -9.9476e-02 -3.8298e-01
   6.1479e-01  5.2895e-01 -6.0965e-01  1.9747e-01 -5.3023e-01  1.5014e-01
   9.9575e-02  3.7451e-03 -4.3004e-01  1.7317e-01  9.8414e-01  9.8631e-01
   7.2292e-01  4.9151e-01  6.3015e-01 -4.3760e-01 -2.3601e-01 -8.8882e-01
   4.0551e-01 -7.3488e-01 -4.2729e-01  3.8924e-01 -3.4539e-01 -8.8509e-01
  -6.0518e-01  3.9589e-01 -2.8332e-01 -5.2754e-01 -2.3374e-01 -4.9889e-01
   7.9732e-01  3.6187e-01 -1.7621e-02 -1.8126e-01  2.4216e-01 -8.5609e-02
  -2.0617e-02 -9.7767e-01  6.3974e-01 -3.7516e-01  6.4023e-01  3.6760e-01
   9.9086e-01  7.7350e-01  8.9436e-01 -9.4123e-01  1.1012e-01 -2.3099e-01
   1.2233e-01 -4.3541e-01  6.9083e-02 -8.2680e-01]
 [ 5.3388e-01 -7.6728e-01  5.4005e-01 -4.3160e-01  7.1061e-01 -3.2698e-01
   6.6146e-01  3.4391e-01 -7.9169e-02 -4.4910e-01 -6.2414e-01  5.8956e-03
   7.5372e-01  7.4044e-01  6.2329e-01  8.8302e-01 -6.8960e-01 -8.4340e-01
   6.9551e-01 -9.4670e-02 -2.1747e-01 -8.6776e-01  6.1280e-01 -2.2490e-01
   9.7164e-01 -9.5424e-01  6.1280e-01  4.7216e-01  2.5909e-01 -3.5223e-01
   4.1663e-01  9.1179e-02 -5.4691e-01  1.1648e-01  3.7319e-01 -8.6507e-01
   1.6365e-01 -2.6414e-01  5.2145e-02  4.3621e-01  5.0827e-01  8.8930e-01
  -9.4994e-01 -8.6659e-01  1.2992e-01  5.7065e-01  4.6781e-01 -9.3725e-01
  -4.6503e-01  7.1296e-01 -4.9559e-01  4.7569e-01  2.5643e-01  1.9551e-01
  -6.1723e-01 -8.6301e-01  4.1307e-01 -7.6309e-02  3.6061e-01 -7.5527e-01
  -8.3775e-01  2.1572e-01  5.4478e-01  3.7126e-02]
 [-3.1285e-01  2.5406e-01 -7.6396e-02  5.9535e-01 -8.7219e-01  8.3384e-01
  -4.5686e-01  1.1437e-01 -4.4035e-01  4.1360e-01 -4.8178e-01  3.2090e-02
   4.4254e-01 -8.9435e-01 -8.6322e-01 -5.6843e-01  4.8599e-01 -8.4644e-01
  -7.5630e-02  2.6113e-01  1.7070e-01  6.5404e-01 -2.5652e-01 -7.1096e-02
  -8.0238e-01  3.7099e-02 -1.1714e-01  7.1407e-01 -7.5281e-01 -1.5446e-01
   9.1657e-02 -7.9682e-01  1.9804e-01  9.5591e-01  3.1416e-01 -9.5881e-01
  -7.8437e-01 -6.5222e-01  5.0063e-01  5.7207e-01  6.3635e-01  3.4435e-02
  -3.2069e-01 -3.0865e-01 -2.9151e-01 -4.1357e-01  9.8333e-01 -9.9627e-01
   5.9602e-01  8.7033e-01 -1.4668e-01 -9.0808e-01  1.6371e-01  6.3019e-01
   6.3553e-01 -1.7099e-02 -8.5059e-01 -7.3875e-01  3.7087e-01 -4.1466e-01
   7.8455e-01 -8.9372e-01  3.5682e-01 -2.8838e-01]
 [ 2.7061e-01  3.5481e-01 -5.2441e-01  6.9324e-01 -8.4161e-02 -3.1947e-01
   6.2526e-01 -1.5749e-01 -1.8832e-02 -2.2150e-01 -3.7761e-01 -3.9614e-01
  -9.2106e-01  5.9623e-01  8.7316e-01  4.5854e-02  2.5797e-02 -3.6759e-01
   6.3157e-01  1.5496e-01  9.4474e-01  5.9517e-01 -5.8578e-01  5.8255e-01
  -2.4274e-01 -2.7571e-01  5.3007e-01 -3.5738e-01  7.5848e-01  1.9672e-02
   7.9586e-01  4.0276e-01 -3.1923e-01  5.9160e-01 -6.5834e-01 -1.1438e-01
  -9.4633e-01  8.2846e-01 -8.0162e-01 -4.4533e-01 -5.3199e-01 -5.1484e-02
   3.1365e-01 -3.1473e-01 -6.0581e-01  7.4152e-02 -3.8843e-01  5.4724e-01
  -3.7156e-02 -7.3216e-01 -3.2357e-01 -5.2110e-02  8.8997e-01 -2.2291e-01
   4.7839e-01  5.3983e-01 -6.7323e-01 -8.9549e-01  8.5120e-01  9.4569e-01
  -3.8336e-01  5.7629e-01 -3.0289e-01  2.4540e-01]
 [-2.6370e-01  8.6857e-01  8.6538e-01  9.3684e-01  3.9588e-01  2.7728e-01
   6.4180e-01  8.5270e-01 -8.7856e-01 -6.2066e-01 -2.3850e-01 -5.1997e-01
   5.0446e-01  6.5206e-01  3.8990e-01 -7.1072e-01  7.3736e-01  6.7529e-01
  -7.4159e-01  1.5628e-01 -9.6139e-01 -4.6756e-01 -2.8439e-01 -9.8944e-01
   4.8792e-01 -5.2696e-02  7.0471e-01 -5.3753e-01 -2.7223e-01  1.8340e-01
   9.1786e-01 -8.0758e-02  3.8286e-01 -2.0295e-01 -4.9798e-01 -1.7177e-01
  -3.7098e-01  9.4801e-01 -5.7968e-01 -7.7011e-01  6.2601e-01 -9.9014e-01
  -4.4179e-01  4.2523e-01 -5.1914e-01  9.9443e-01  8.9023e-01 -7.3600e-01
  -7.5757e-01 -2.0584e-01 -6.7732e-01 -4.9089e-01 -4.9265e-01  1.4665e-02
  -3.5044e-01 -1.3483e-01 -8.6668e-02 -8.0460e-01  5.9418e-01 -7.4535e-01
  -9.4697e-01  1.9861e-01 -7.4676e-01 -3.8116e-01]
 [ 2.6808e-01 -7.1607e-01  4.3665e-01 -5.6613e-01 -5.1494e-01 -3.6845e-01
  -1.2265e-01 -2.8196e-01  7.2494e-01 -4.2472e-01 -8.2896e-01 -3.1564e-01
   5.1656e-01 -6.4163e-01  8.1821e-01  2.7606e-01 -8.6113e-01  8.6466e-01
  -1.9400e-01 -4.7390e-01 -3.1236e-01 -2.2957e-01  8.9079e-01 -4.5249e-03
   1.4160e-01 -7.4809e-01 -7.2500e-01  3.1524e-01 -4.1043e-01  4.1731e-01
   5.9147e-01 -4.8336e-01 -3.7282e-01  3.8412e-01 -1.2586e-01  3.8257e-01
   2.4543e-01 -9.5995e-02  4.9979e-01 -1.1584e-01  6.2999e-01 -8.9086e-01
  -1.7521e-02  7.1754e-01 -9.3997e-01  9.4391e-01 -2.1936e-01  1.1623e-01
  -2.7776e-01 -3.2172e-01 -5.3060e-01 -3.7173e-01  1.1529e-01 -9.6504e-01
   5.6860e-01  1.5089e-01 -6.8677e-01 -9.9942e-01  2.8660e-01  7.6627e-01
   8.1927e-01  1.3542e-01  4.6034e-01  4.0230e-01]
 [ 4.3970e-01  4.0511e-01  1.2265e-01  9.9483e-01 -8.8896e-02 -6.0354e-02
   2.3896e-01  8.2833e-01  1.1608e-01  8.8845e-01 -2.5840e-01  7.6499e-01
   2.7206e-01 -4.7885e-01  4.3845e-01 -1.9287e-01 -4.3546e-02 -4.7397e-02
   7.5124e-01 -3.5071e-01 -4.5878e-01 -8.0494e-01 -8.3294e-01 -7.8709e-01
  -5.2347e-01 -8.6388e-01 -3.5043e-01 -4.0200e-01  2.8563e-02  4.7747e-02
  -4.1794e-01  1.6830e-01 -9.3347e-01  3.8605e-01  4.9177e-01  5.9019e-01
  -8.7358e-01 -5.2851e-01  7.7076e-01 -5.6366e-01 -8.5054e-01 -4.2131e-01
   7.4823e-02 -5.7488e-01 -8.7509e-01 -3.2175e-02  8.3889e-01 -8.8664e-01
   5.1939e-01 -8.3945e-01 -1.9620e-01  9.3369e-02  8.0552e-01  2.7146e-01
  -1.5854e-01 -6.1629e-01  7.8891e-01  6.4967e-01 -4.4597e-01  9.8716e-01
   6.3139e-02 -9.3906e-01  3.9607e-01  1.8938e-01]
 [ 3.1332e-02 -8.8462e-01 -3.2395e-01  6.2587e-01 -8.9900e-01  1.9531e-01
   1.9708e-01  1.5087e-01  4.3831e-01  3.1835e-01 -3.5699e-01  7.4537e-01
  -9.3783e-01 -6.5401e-01 -6.5683e-02  8.7219e-02  5.8079e-01  8.3386e-01
   4.5675e-01 -5.7821e-01 -4.0848e-01  3.6189e-01  9.7640e-01  7.3783e-01
  -8.9706e-01  2.5609e-01  8.1414e-01 -5.0962e-01  4.3228e-02  9.9028e-01
  -2.0076e-01 -2.9532e-01  6.0702e-01 -7.3569e-01  5.4152e-01  5.3500e-02
  -4.1166e-01  4.1292e-01 -2.9689e-01 -5.0247e-01  8.1756e-01 -2.3674e-01
  -2.0789e-01  8.6692e-02  5.2500e-01 -9.5577e-01 -6.2629e-01 -9.6923e-01
   6.1035e-01 -3.9039e-01 -3.5790e-01  6.4948e-01 -7.4957e-01  9.7737e-01
   7.4618e-01  1.5629e-01  7.7776e-01  3.3713e-01 -3.3475e-01  9.5997e-02
   6.5778e-01 -3.0656e-01  6.0548e-01 -9.6235e-01]
 [-6.1367e-01  7.3412e-01 -8.5479e-01 -2.8581e-01 -6.5759e-01 -2.9838e-01
   4.2132e-01  3.3660e-01 -9.5668e-01 -2.0759e-01  3.8680e-01  2.1368e-01
  -4.3507e-01 -9.4746e-01 -4.9618e-01  3.0139e-01  4.7857e-01 -2.3546e-01
   8.1064e-01  3.4761e-01 -2.9679e-01 -7.6472e-01  5.9764e-01 -6.9934e-01
  -4.3853e-01  8.1263e-01  5.2736e-01 -1.1988e-01  4.0361e-02  2.9265e-01
   3.9262e-01  2.8024e-01 -7.4187e-01  9.8647e-02 -8.4987e-01 -7.4613e-01
   7.9257e-01 -9.2383e-01  8.4239e-01 -7.5315e-01 -9.5137e-01 -8.8318e-01
   3.9759e-02 -2.3608e-01 -7.4633e-01  2.2531e-01 -6.5701e-01 -5.2105e-01
  -9.8403e-01 -2.3347e-01  5.2503e-01 -1.3424e-01 -8.7441e-01  5.8607e-01
   2.8255e-01  1.0624e-01 -6.8072e-01  8.6056e-01 -6.8712e-01  9.7201e-01
   2.5133e-01 -3.7965e-01  5.5800e-01 -1.6907e-01]
 [ 3.0668e-02 -5.6206e-01 -2.9908e-01  1.6263e-01 -7.3757e-01 -2.8216e-01
  -7.3109e-01 -2.8505e-01 -6.9190e-01 -6.0780e-01 -8.8110e-01  6.0388e-01
  -8.8059e-01 -6.5230e-01  8.8905e-01 -5.9331e-01 -4.2692e-01 -2.8152e-01
   7.5353e-01 -2.4298e-01 -8.0490e-01  2.9184e-02 -3.1768e-01  8.1219e-01
   7.8362e-01 -1.1654e-01  9.7071e-01 -2.4417e-01  9.5594e-01 -8.5745e-01
  -4.5878e-01  7.6339e-01  6.8011e-01  4.0240e-01  5.2080e-01 -4.3171e-01
  -5.4267e-01  3.3150e-01 -1.7563e-01 -6.6747e-01  4.8122e-01 -5.6717e-01
   2.7375e-01 -2.5687e-01 -9.6440e-01  7.5429e-01 -5.8495e-02 -6.3350e-01
   3.1080e-01  5.0250e-01 -9.3364e-01  2.3743e-02  9.0978e-01  3.6331e-01
   8.0423e-01  2.5657e-01 -6.2431e-01 -2.7279e-01 -3.6092e-02  6.3131e-01
   9.0060e-01 -2.8094e-01 -5.0967e-01 -8.1347e-01]
 [ 1.5229e-01  4.9554e-01  8.7074e-01 -2.1187e-01  6.5261e-01  8.6553e-01
   2.9627e-01  5.2476e-01  4.9251e-01  2.8345e-01 -5.7632e-01  9.5414e-01
   2.7062e-01  4.5814e-02 -6.1863e-01 -5.5707e-01 -1.0409e-01  6.9975e-01
  -7.9650e-01  9.4484e-01  6.3654e-02 -3.4276e-01  3.9340e-01  5.9535e-01
  -8.2845e-01  8.2918e-01  5.1162e-01 -8.2795e-01  6.5872e-01 -1.4850e-01
   1.6112e-01 -1.8242e-01  7.2912e-01  3.8766e-01  8.1800e-01 -3.8028e-01
   7.7757e-01  4.0132e-01 -6.4891e-01 -6.9726e-01  4.5590e-01 -6.6131e-01
  -3.7950e-01  1.9410e-01 -8.7381e-01  5.3946e-01  6.3951e-01 -1.1429e-01
   5.6860e-01  9.6171e-02 -2.9380e-01 -4.6847e-01  3.2642e-03 -8.7465e-01
  -1.3326e-01 -1.8764e-01 -4.6062e-01 -1.6885e-01  1.3694e-02 -5.2471e-01
   6.2259e-01  5.4919e-01 -6.3114e-01  5.7054e-01]
 [ 3.5299e-01 -5.4594e-01  8.8256e-01 -9.2332e-01 -9.9059e-01 -1.5889e-01
  -5.9726e-01  5.3437e-01  9.2460e-01  3.7907e-01 -1.2720e-01  2.2527e-01
   6.1161e-01  8.3047e-01  7.0300e-01  5.0594e-01 -3.9172e-01 -5.8208e-01
  -7.0617e-01  6.6906e-01 -7.1238e-01  8.9639e-01  8.1787e-01 -9.9585e-01
   2.5149e-02 -7.5581e-02  7.4616e-01  7.5157e-01 -7.0605e-01  9.3311e-01
  -6.8724e-02 -9.9829e-01  9.5361e-01  6.6667e-01 -6.2195e-01 -8.1983e-01
   2.0201e-01 -3.2976e-01 -1.8638e-01  5.1233e-01  9.2887e-01  4.8649e-01
  -2.4789e-01  1.1397e-01 -3.0996e-01 -2.1757e-01  8.6116e-01 -7.5861e-01
  -6.0024e-01 -4.2297e-01 -8.5069e-01 -6.6363e-01  5.7411e-01  3.7185e-01
   6.5759e-01  4.4940e-01 -4.5607e-01  2.1829e-01  9.5411e-01  7.9294e-01
   8.9811e-01 -9.4842e-01 -1.8751e-01  6.1165e-01]
 [-8.9158e-01 -7.1237e-01 -5.8937e-01 -2.0654e-02 -9.4659e-01  1.2563e-01
   3.0186e-01  4.9905e-01 -1.4753e-02  3.3722e-01 -6.5522e-01  9.5294e-01
  -3.0609e-01 -8.9893e-01 -5.2773e-01  5.0066e-01  5.6355e-01  7.5407e-01
   2.4940e-01 -7.4472e-01 -5.9725e-01 -2.2859e-01 -9.2881e-01 -1.3366e-01
   8.0060e-01  5.2935e-01 -8.2279e-01 -6.4566e-01  1.6893e-01  5.0447e-01
  -6.9254e-01 -5.3438e-01  2.1707e-01 -7.1325e-01  9.3834e-01 -6.6121e-01
   1.7369e-01 -7.8223e-01  6.8653e-01  4.0193e-01 -4.1030e-01  7.3054e-01
  -4.2449e-01  2.2771e-01  8.1550e-01  5.4469e-01  1.6775e-01 -5.3711e-01
  -8.6589e-02  2.5481e-01  2.8107e-01 -9.1894e-01  7.7097e-01 -1.0701e-02
   5.3496e-01 -5.7426e-01 -4.3816e-01  4.5255e-01  8.9643e-01  5.0117e-01
   1.2445e-01 -8.8358e-02 -3.7409e-01 -2.0164e-01]
 [-3.9533e-01 -4.1804e-01  4.9714e-01 -4.5322e-01  9.6273e-01 -3.4393e-01
  -8.2282e-01 -7.8726e-01  9.1842e-02  8.8428e-01  4.4000e-01 -6.3945e-02
   1.5160e-02 -6.5889e-01 -2.9021e-02 -2.6842e-02  7.5275e-01  1.4600e-01
   3.6785e-01  5.1892e-01 -3.2965e-01 -6.2367e-01  1.4367e-01  6.4192e-01
   9.5187e-01 -3.5502e-01 -4.1872e-01  2.1958e-01 -2.7972e-01  7.9662e-01
  -6.7987e-01  2.6932e-01 -2.0101e-01 -3.6943e-01  1.2737e-01  8.8380e-01
   3.9087e-01  4.6199e-01 -7.2101e-01  5.3702e-01  2.7122e-01 -6.0137e-02
  -9.9947e-01 -4.1010e-01  3.4746e-01  1.7530e-01  9.5250e-01  9.2316e-01
   8.5853e-02 -2.4308e-01  7.3165e-01 -9.7700e-01 -9.8325e-01  5.7525e-01
   3.7127e-01 -4.0109e-01  9.5164e-01 -1.9131e-01 -4.6310e-01  1.1065e-01
  -7.7140e-01  2.1948e-01 -9.6044e-01 -8.7126e-01]
 [ 8.5444e-01 -4.6964e-01  6.8537e-02 -9.4596e-01 -9.6585e-01 -1.8005e-01
   2.1247e-01 -2.7117e-01 -9.1903e-01  7.3238e-01  2.7154e-01 -7.0385e-01
   3.9109e-01 -5.8749e-02 -6.8890e-01  5.1547e-01 -7.1197e-01 -8.2510e-01
  -6.8200e-01 -6.5718e-01 -9.2630e-03 -4.9409e-01  9.5080e-01  8.5701e-01
  -7.3396e-01  1.6988e-02  9.0364e-01 -3.0828e-01 -7.9294e-01 -2.8795e-01
  -8.3993e-01  2.7539e-01  5.5558e-01  2.4539e-01 -8.7666e-01 -4.8243e-01
   5.3554e-01 -5.8321e-01 -2.9510e-01  5.1695e-01 -1.7345e-01  3.4942e-01
  -1.6271e-02  4.2846e-02  4.4793e-01  7.4244e-01 -8.5540e-01  5.7407e-01
   6.5357e-01  8.1385e-02  7.8191e-01  5.1830e-01 -6.0561e-01 -3.5808e-01
   4.7633e-01 -4.6879e-01 -3.4300e-01 -4.4776e-01 -5.7798e-02  9.7499e-01
  -9.2688e-01  7.7152e-01 -5.1521e-01  7.4834e-01]
 [-4.8700e-01 -9.9797e-01  3.2929e-01  2.0178e-01  3.1714e-01  3.4422e-01
  -6.5695e-03 -5.8472e-01  9.3722e-01 -4.1246e-01 -2.2123e-01 -6.3793e-01
   4.0434e-01 -5.8097e-01  1.5628e-01 -6.6576e-01  8.5965e-01 -8.3313e-01
  -4.1297e-02  4.5371e-01  4.8163e-01 -1.8496e-01  8.2801e-01  3.5912e-01
   9.4327e-01  5.5060e-01  4.0517e-01  3.6861e-01 -1.6382e-01 -9.3830e-01
  -6.7082e-01 -7.6136e-01  6.3527e-01 -5.0219e-01  3.4510e-01 -8.7049e-01
  -2.4062e-01 -1.1683e-01  3.2870e-01 -1.7991e-01  1.2333e-01  5.4642e-01
   2.1777e-01 -5.6868e-01  8.9907e-01 -2.5640e-01 -3.2662e-02 -4.0644e-01
   7.6204e-01 -8.8523e-01 -4.2418e-02 -7.7056e-01 -3.1042e-01 -7.7525e-01
   8.0912e-01  2.8045e-01 -5.3942e-01 -5.9829e-01 -5.3008e-03  2.5888e-01
   2.9510e-01 -2.1032e-01 -6.5132e-01  6.5642e-01]
 [ 4.9566e-01 -6.2532e-01 -3.0274e-01 -1.4667e-01 -2.3848e-01 -6.6940e-01
   6.4258e-01 -7.5110e-01  8.0881e-02  3.2509e-01 -7.1657e-01 -4.6408e-02
  -4.2268e-01  5.9277e-01  7.6643e-01  6.9928e-01 -1.1063e-02 -5.7312e-01
   2.8692e-02 -5.4213e-01  5.0194e-02 -3.2791e-01 -9.6153e-01 -6.9039e-01
   5.7353e-01 -4.5352e-01  8.0704e-01  9.0769e-01  9.8536e-01 -1.6021e-01
  -4.8224e-01 -2.8600e-01 -2.1738e-01 -5.1512e-01 -2.3231e-01 -8.1611e-01
  -8.6943e-01 -3.0488e-01  3.5240e-01  5.9612e-01  4.1781e-01  6.6408e-01
  -4.1757e-01  9.7960e-01 -6.7860e-01  5.7929e-01  2.4262e-01  3.9653e-01
   8.5385e-01 -1.4797e-03  4.5949e-01 -6.7847e-01 -9.6144e-01 -5.0208e-01
   3.1606e-01  5.2829e-01 -1.9482e-01 -8.7529e-01  6.4383e-01  1.2712e-01
   4.0324e-01 -5.4743e-01  8.8302e-01  7.4194e-01]
 [-8.4529e-01  8.1242e-01  6.6859e-01 -2.4371e-01  3.5890e-01  8.3023e-01
   2.4578e-01  2.2052e-01  8.1916e-01 -8.0084e-01 -4.2272e-01  9.1494e-01
   9.2195e-01 -3.9462e-01 -1.8109e-01  4.5955e-01 -7.6467e-01 -6.2017e-01
   7.3627e-01  3.3272e-01  5.3891e-01  1.7257e-01  1.5833e-01  7.8803e-01
  -8.9808e-01  9.2889e-01  3.3527e-01  3.8273e-01 -3.0216e-01 -3.8492e-01
   1.4025e-01 -2.1727e-01 -7.2796e-01  9.4730e-01  8.9333e-01 -8.8445e-01
   5.9409e-01  6.0003e-01 -4.1805e-01 -5.1181e-01 -2.8385e-01  7.7896e-02
  -8.5204e-01  4.7983e-02  1.7879e-02 -7.5248e-01 -1.0624e-01 -7.5164e-01
  -2.6221e-01  3.7340e-01 -4.9421e-01  8.0293e-01  4.8771e-01 -7.0320e-01
  -1.4562e-01 -5.7496e-01 -4.0915e-01 -2.5872e-03 -5.9755e-01 -5.9529e-01
   6.9487e-01  8.3864e-01  7.2174e-02 -1.6881e-01]
 [-3.4041e-01 -4.8599e-01  5.0673e-01  8.8271e-01 -3.3054e-01  2.4915e-01
   3.9675e-01  8.0358e-01 -6.2896e-01  1.6341e-01  7.2732e-01 -9.3342e-01
   7.0049e-01  7.0287e-01  7.2242e-01  7.7017e-01 -5.6219e-01 -2.2512e-01
  -5.3399e-01  4.1847e-01 -7.9361e-01  1.8819e-01 -8.8474e-01  7.5670e-01
  -4.1738e-01 -2.8235e-01 -2.1817e-02 -4.4900e-01  7.6960e-03  8.5651e-01
  -3.0792e-01  7.9431e-01  1.1301e-01 -4.6905e-01  6.2936e-01  4.0151e-01
  -4.6637e-01 -7.4215e-01  9.8408e-01 -5.5827e-01 -1.6306e-01  8.0603e-01
   5.6865e-01 -5.5477e-01  6.8997e-02  2.2347e-01 -9.0496e-01 -2.9722e-01
  -1.2745e-01  2.8581e-02  9.3897e-01  3.3491e-01  2.4838e-01 -6.5299e-01
   8.6792e-01  9.9344e-02  6.6674e-01 -5.7198e-01  1.7715e-01 -5.5188e-01
   4.6635e-01 -8.5761e-01  5.7886e-01 -2.7124e-01]
 [-2.3794e-01 -1.8839e-01 -6.8563e-01  2.9165e-01  6.8395e-01 -2.4977e-02
  -7.6401e-01  2.0058e-01  8.9225e-01 -9.6206e-01 -1.4462e-01  8.3291e-01
   9.5216e-01  3.4941e-01 -8.5509e-01 -2.0138e-01 -7.6466e-01 -7.0772e-01
  -6.3898e-01 -4.8425e-02  4.0224e-01  1.0398e-01  1.0169e-01  1.9767e-01
   8.7311e-01  6.3891e-01  4.5995e-01  7.6103e-01  4.3984e-01 -5.4846e-01
  -6.5978e-01 -6.3462e-01  6.2150e-01 -5.6747e-01  1.6647e-01 -9.5240e-01
  -4.9547e-01 -6.5223e-01  2.7754e-01 -2.7952e-01  9.7266e-01 -3.4771e-01
  -1.4086e-03 -6.7052e-01  6.3211e-02 -6.2056e-02 -8.7698e-01 -1.8258e-01
   2.5894e-01  7.8364e-01  9.0569e-01  9.9863e-01  9.9050e-01  2.0056e-01
   5.6091e-01 -9.3092e-02 -8.9118e-01  2.3153e-02 -9.8589e-01 -9.2497e-01
   1.7085e-01  5.1664e-02  5.5362e-02  2.0257e-01]
 [-6.8933e-01  9.3093e-01  1.6039e-01  3.5623e-01  6.0345e-01 -3.8741e-01
   1.9573e-02 -9.2073e-01 -3.2456e-01  6.3425e-01  4.2732e-01 -2.4556e-01
   1.7763e-01 -7.3951e-01 -8.9691e-01 -2.5874e-01 -8.9378e-01 -4.9110e-01
  -8.1313e-01  7.9804e-01 -5.4429e-01  5.6869e-01 -6.8908e-01 -7.1448e-02
  -9.9547e-01  6.8090e-01 -5.4564e-03 -3.3523e-02 -4.1448e-01 -6.0739e-02
  -9.1873e-01  7.4649e-01 -2.9034e-01 -5.2260e-01 -4.7083e-02  1.4660e-01
  -6.0843e-01  7.4524e-01 -1.5397e-02  8.9478e-02  4.5154e-02  7.6699e-02
  -4.7019e-01 -5.2939e-01  7.7964e-01 -3.7746e-02  4.3235e-01  3.0758e-01
   1.4938e-01  1.3975e-01  9.9882e-01 -7.7154e-01 -1.7324e-01 -8.8854e-01
  -9.4480e-02 -2.1272e-01 -2.2135e-01 -6.2867e-01  7.1794e-01  7.7753e-02
   9.6713e-01  7.1863e-01  4.7977e-01  8.5154e-01]
 [-5.5750e-01  6.3782e-01 -2.8118e-01  1.4585e-01 -3.2230e-03  9.3076e-01
  -9.3148e-01 -5.2915e-01  8.7742e-02 -1.3900e-01 -2.7478e-01 -7.9248e-01
  -8.0843e-01  6.3000e-01  6.4884e-01 -6.7543e-01  9.7572e-01 -9.6875e-01
   7.9648e-01 -8.0305e-01  4.0428e-01  7.5824e-01 -2.7275e-01 -3.6515e-01
   7.3412e-01 -6.7069e-01 -2.1049e-01  6.9946e-01  8.4648e-01  1.9339e-01
  -2.2476e-01 -4.3532e-02  4.3383e-01 -2.5705e-01  1.7683e-01  8.4720e-01
   1.8993e-01 -8.6344e-02  6.0725e-01  9.1006e-01 -9.5328e-01 -1.5010e-01
   6.1453e-01  1.8343e-01  8.0991e-01  3.5785e-01  9.0009e-01  9.8584e-01
   8.5143e-02 -4.0408e-01  3.9283e-01 -7.9645e-01 -8.9361e-01  5.8990e-02
  -7.9985e-01  2.4879e-01 -2.4444e-01 -1.0913e-01 -9.0237e-01 -4.5026e-02
   7.4607e-01  4.4461e-01  1.0114e-01 -1.4629e-01]
 [ 7.2446e-01 -9.5855e-01 -6.2312e-01  1.0218e-01 -5.1281e-01  4.2516e-01
  -6.8037e-01  3.2482e-01  3.2616e-01  9.0447e-01 -4.3482e-01 -4.0245e-01
   5.6108e-01 -4.0833e-01  4.5643e-01 -9.5407e-01 -9.2271e-01 -6.0304e-01
  -6.4530e-01 -4.6021e-01 -3.9071e-01 -2.7071e-01  6.1336e-01  1.7052e-01
   3.2058e-01 -9.1721e-01  3.7949e-01  8.4071e-01  7.0300e-01  9.9602e-02
  -7.4455e-01  2.5154e-01 -9.9256e-01 -9.6329e-01 -5.2912e-01  3.3149e-01
  -6.9927e-01  1.8301e-01  2.1364e-01  3.4054e-01 -7.4986e-01 -7.7445e-01
   8.2772e-01  3.3012e-02 -8.2422e-01 -9.8339e-01  8.7444e-01  4.8937e-01
   7.7555e-01  3.0529e-01  5.6840e-01 -9.1208e-01  8.4647e-01  8.1640e-01
   4.6818e-01  9.9742e-01 -5.1283e-01 -7.1954e-01  1.7060e-01 -7.9250e-01
   3.5277e-01  2.9512e-01  2.4734e-01 -9.3385e-01]
 [-1.1821e-01  3.7933e-01  4.7480e-01  9.2255e-01 -4.3092e-01  4.4321e-01
   1.9332e-02  9.2822e-01  9.5725e-01  6.9931e-02 -5.9565e-01 -3.4174e-01
   6.3519e-01 -9.3735e-01 -7.6387e-01  6.1041e-01 -3.3298e-01  2.7769e-01
  -8.6806e-01 -2.7220e-01  2.7439e-01  7.4605e-02  3.6008e-01  3.2890e-01
  -8.8784e-01 -2.2061e-01  4.6041e-01 -4.9366e-01  4.6888e-01  8.4133e-01
   5.4087e-01  7.5668e-01 -9.1924e-01  9.2241e-01  2.0252e-01  7.2160e-01
   2.3024e-01  6.0185e-01  3.6202e-01 -5.7814e-01 -2.6683e-01  7.4698e-01
  -9.9095e-02 -5.1816e-01  6.9591e-01  6.6299e-01  1.4034e-01 -7.9718e-01
  -8.1680e-01 -9.4685e-02  2.1219e-01 -7.0993e-01  7.0463e-02 -7.3780e-01
  -8.5116e-01 -5.4800e-01 -9.9136e-01 -2.8693e-01  9.9592e-01  8.0574e-01
   4.4947e-01  6.4379e-01 -3.5124e-02  9.1986e-01]
 [-2.4890e-01  3.4444e-01 -6.5227e-02 -4.7408e-01 -7.3430e-01 -8.7651e-01
  -3.3799e-01 -3.2201e-01 -2.4807e-01 -4.7723e-01 -3.7638e-01 -1.1794e-01
  -8.1891e-01 -7.3377e-02  3.1053e-01 -8.3264e-01  1.8216e-01 -1.6964e-01
  -6.1545e-01  3.8942e-01  8.6066e-01  5.3049e-01 -5.4609e-01  4.0774e-01
   3.0689e-01  8.8650e-01  4.2509e-01 -2.2267e-01  2.9469e-01  3.0931e-01
   2.1952e-01 -5.9969e-01 -9.1869e-01  2.9438e-01  4.3806e-01  2.7374e-01
   8.7488e-01  5.1374e-01 -8.6386e-01 -9.1904e-01  8.0708e-01  3.0788e-01
   2.0580e-01 -3.6221e-01  4.3973e-01  3.3361e-02 -5.9428e-01  2.5952e-01
   8.7513e-02  8.7563e-01 -7.4060e-01  1.2896e-01 -1.0626e-01  1.5249e-01
   3.6537e-01  7.6280e-01  8.6313e-01  8.7874e-01  3.9038e-02 -7.1326e-01
   7.8626e-01 -1.9291e-01  5.2193e-01  8.1232e-01]
 [-2.0718e-01 -4.7601e-01  4.0531e-01  7.6241e-01 -5.2428e-01 -4.0509e-01
  -3.7152e-01 -6.8885e-02 -6.4507e-01  2.9275e-01  5.3718e-02 -5.8586e-01
   4.6902e-01 -4.0334e-01 -1.7368e-01 -1.0893e-01 -7.3055e-01  8.6696e-01
  -3.9313e-01 -2.0758e-01 -4.5040e-02  2.9047e-02  4.7061e-01 -6.1506e-01
  -1.3310e-01  1.0608e-01 -4.5435e-01 -6.2508e-01 -8.9870e-01 -6.9535e-02
   6.9692e-01  6.9458e-01  9.4754e-01  7.9685e-01  3.3993e-01 -9.2579e-01
   8.6117e-01 -5.4929e-02  1.4182e-01  4.4258e-01 -9.4081e-01 -5.0718e-01
   2.2441e-01 -1.0377e-01  2.6035e-01 -9.6817e-01 -7.1277e-01  7.9956e-01
  -7.5593e-02 -1.6092e-01 -1.8765e-01 -4.1254e-01  6.3659e-01  8.8738e-01
  -5.4151e-01  6.5728e-01 -1.3433e-01  3.2301e-01  4.0080e-01 -6.4865e-02
  -5.1905e-02  6.1267e-02 -4.6581e-01  1.0071e-01]
 [-7.3762e-01 -6.8644e-01  2.0960e-01 -8.2347e-01  3.2823e-02 -8.1784e-01
  -9.6833e-01  4.9522e-01  6.3889e-01 -8.3988e-01 -2.5373e-01  1.2771e-01
  -9.3561e-01 -1.4656e-01  1.8862e-01 -1.4418e-01  5.3826e-01 -6.3717e-01
  -2.8890e-01 -3.1997e-01  4.4141e-01  9.0048e-01 -2.1914e-01  5.6450e-01
   1.5351e-01 -7.6614e-01 -2.0495e-01 -5.8032e-01 -9.7485e-02 -5.3504e-01
   4.6511e-02 -7.1861e-02  2.9021e-01  3.4657e-01 -4.1479e-01  8.1389e-01
   2.7493e-01  1.4008e-01 -8.0065e-01  8.5467e-01 -6.3521e-01  3.6758e-01
   1.1587e-01 -8.3826e-02 -4.6520e-01 -4.8246e-01  7.9131e-01 -9.5467e-01
  -7.0558e-01 -3.1607e-01  3.9356e-01 -8.4223e-01  2.8016e-01  3.5014e-01
  -3.5291e-01  1.4104e-02  3.7025e-02  9.3940e-01  2.7427e-01  1.2844e-01
   2.6214e-01 -9.4396e-01  4.8263e-01 -5.6851e-01]
 [ 9.6010e-01  4.8243e-01  2.3136e-01  8.6830e-01 -3.7681e-01 -9.7569e-01
   7.6721e-01  2.1777e-01  7.9712e-01 -8.5069e-02  2.0577e-01  4.4679e-01
  -3.5443e-01  5.9323e-01  2.0660e-02 -3.7037e-01  6.7608e-01  4.4136e-01
  -9.7527e-01 -7.6408e-02 -6.0014e-01  4.4759e-02  9.1698e-01 -8.4202e-01
  -3.5027e-01  6.1388e-01 -7.1659e-01 -1.5879e-01 -5.1353e-01 -7.2876e-01
  -1.4201e-01  8.9127e-01  2.4716e-01 -5.2884e-01  6.9148e-02 -9.9420e-01
  -9.4652e-01 -2.3080e-01 -2.0393e-01 -7.7285e-01  6.6225e-01  8.9889e-01
   5.8120e-01  9.2657e-01 -7.2100e-01 -7.5798e-01  5.2617e-01 -5.7899e-01
   6.4856e-02 -5.1927e-01  5.2596e-02  7.0150e-01 -4.4576e-01 -7.2953e-02
   6.6937e-01 -8.0675e-01 -1.6642e-01  1.9696e-01  4.5123e-01 -4.2619e-01
  -9.5741e-01  2.8339e-01 -7.1441e-01 -5.9994e-02]
 [ 7.4985e-02 -5.3023e-01  4.3501e-01  4.9379e-03 -2.2829e-01  7.5227e-01
  -6.1920e-01  2.9025e-01  4.1625e-01  5.9407e-01 -7.1944e-01  3.9377e-01
  -1.9260e-01 -8.8986e-01  5.8794e-01  8.6622e-01  1.4989e-02  8.2588e-01
   3.3079e-01 -5.5129e-01 -6.1605e-01 -5.1310e-01  7.8005e-01  6.4513e-01
  -3.2335e-01  1.7649e-01 -2.7207e-01 -5.1382e-01 -4.8248e-01 -5.8915e-01
  -9.5423e-01 -8.0452e-01  7.0156e-02  7.5070e-01  9.3069e-01 -7.4643e-01
   7.0869e-01  4.1377e-01  5.3599e-01 -4.2061e-01 -5.6167e-01 -4.1266e-01
   9.4339e-01 -4.0964e-01 -8.8723e-01 -4.7027e-01  9.3995e-01 -5.6881e-02
   3.9740e-01 -2.7288e-01 -2.7719e-01 -1.5494e-01  2.7014e-01  1.4212e-02
   6.3804e-01  4.4276e-01 -2.0458e-01 -1.0720e-02  4.1584e-01  7.6030e-01
  -7.3564e-01  5.8055e-02 -2.8300e-01  4.0758e-01]
 [-6.1978e-01 -6.6600e-01  1.8460e-01 -7.4277e-01  7.9468e-01 -9.7505e-01
  -9.6282e-01  1.3160e-01  8.2111e-01 -7.2488e-01  2.6560e-02  7.4040e-02
  -2.6710e-01  2.5571e-01  9.2486e-01  6.1137e-01 -9.8715e-01  7.3496e-01
   5.9198e-01 -5.7834e-01 -2.9015e-01 -4.2299e-01  2.9803e-01 -9.9898e-01
   9.4340e-01  3.5234e-01 -3.2351e-01 -5.3864e-01  5.4658e-01  2.0690e-01
   3.3080e-01 -9.3158e-01  5.9365e-01 -4.1946e-01  7.2911e-01  5.3232e-01
  -6.0985e-01 -1.4858e-01  8.4243e-01  9.1789e-01 -4.5245e-01  1.8914e-02
   1.9840e-01 -8.0299e-01 -6.0498e-01 -2.3472e-01  7.6741e-01  9.7301e-01
   8.8245e-01  1.0271e-01 -4.9889e-01  3.2026e-01  4.4199e-01 -6.8028e-01
   7.6592e-01 -8.9612e-01  3.1895e-01  4.9108e-01 -1.4397e-01  1.0896e-01
  -5.2174e-01 -4.0266e-01  1.8751e-01 -8.9258e-01]
 [-1.1661e-01  4.2049e-01 -1.4287e-02 -7.6258e-01  2.3396e-01  1.3096e-01
  -6.3788e-01 -8.8632e-01 -8.9403e-01 -6.7601e-01  5.3856e-01 -7.3818e-01
  -2.5303e-01 -3.3554e-01  3.9618e-01  3.7573e-01 -7.7458e-01  2.1595e-01
   9.4777e-01  9.3342e-01  3.7190e-01 -8.5270e-01  4.4756e-01 -5.0874e-01
   9.5605e-01  6.0663e-01  6.7364e-01  1.4935e-02 -7.3569e-01  1.7318e-01
  -6.5132e-01  7.7551e-01  4.9472e-01 -5.9937e-01  2.2658e-01  2.4405e-01
   6.5604e-01  4.1667e-02  9.9945e-01  9.4426e-01 -5.6177e-01  8.2477e-04
   9.4208e-01 -8.5179e-01  9.3223e-01  1.9568e-01 -6.6461e-01  7.8389e-01
  -4.8644e-01 -6.9107e-01 -2.0808e-01 -7.1030e-01 -9.6335e-01  5.0729e-01
   1.4483e-01 -3.3670e-01 -7.0772e-01  8.0839e-01 -4.9709e-01  1.0919e-01
   4.9195e-01  4.5677e-01 -1.2172e-02 -8.4469e-01]
 [-6.3712e-02  7.2764e-01  8.1546e-01 -1.0673e-01 -1.4082e-01  4.8812e-01
   6.8646e-01  3.7433e-01 -3.3965e-01  6.6179e-01 -1.2452e-01  7.5581e-01
   1.8501e-01 -2.0095e-01  4.2992e-01  9.2900e-01 -9.6576e-02 -3.1378e-01
   6.6591e-01  1.9344e-01 -7.9020e-01 -7.8613e-01  4.3838e-01  4.3524e-01
  -4.0796e-01  6.8213e-01  1.5150e-01 -3.1866e-02 -5.7053e-01 -7.3885e-01
   2.6748e-01  9.6293e-01 -8.7830e-01  9.5624e-01 -4.6144e-01 -5.0922e-01
  -6.0647e-01  9.5211e-01  2.4746e-01  7.5161e-01  4.7376e-02  2.8569e-01
   6.7665e-01  9.1733e-01  3.7520e-01  7.4111e-01  4.9926e-01 -4.8188e-01
  -9.8427e-01  1.0329e-01 -2.3281e-02 -8.1027e-01 -6.7860e-01  2.9191e-01
  -4.5137e-01  9.2335e-01 -8.6759e-01 -5.6219e-01 -1.8421e-02  6.8244e-01
   4.4565e-01  5.9456e-01 -8.8884e-01 -8.8745e-01]
 [ 3.2491e-01  2.7349e-01 -1.2790e-01  5.9380e-01 -5.6461e-01  8.0201e-01
  -2.3364e-01 -6.8953e-01  4.4658e-01  8.6619e-01  3.8233e-01 -8.5306e-01
  -9.7960e-01 -1.7038e-01  9.6506e-01 -9.4639e-01 -5.5018e-01  7.7595e-01
   9.4668e-01 -1.5671e-01 -1.4786e-01 -2.3275e-01 -9.8571e-02  8.9981e-01
  -5.1333e-01 -1.1354e-01  3.2451e-01 -8.9510e-01 -2.2192e-01 -9.3992e-01
  -1.1195e-01  3.7724e-01  4.7724e-01  1.1637e-01  1.1713e-01  6.1279e-02
  -2.5429e-01 -5.9790e-01  4.3338e-01 -8.8903e-01 -2.1461e-01  7.7155e-01
  -3.5173e-01  3.4320e-01  3.7390e-01 -1.6621e-01 -7.0779e-01 -8.9477e-01
  -7.5512e-01 -1.1251e-01  2.4789e-01  3.4758e-01 -7.9766e-01 -5.3410e-01
   6.3588e-01 -6.7171e-01 -3.9196e-01  5.4544e-01 -5.2663e-01 -2.6328e-02
   8.7632e-01  6.7850e-01  4.5249e-01 -3.6156e-01]
 [-1.1365e-01  6.5450e-01  8.0211e-02  4.7792e-02  4.9362e-01 -1.2236e-01
  -7.8280e-01 -5.6366e-01  2.4245e-01  6.6087e-01 -4.9708e-01  3.6873e-01
   3.9741e-01 -9.9612e-01  5.8510e-01  6.2951e-01  7.0081e-01  2.2889e-01
  -5.1526e-01  7.6723e-01 -7.2019e-01 -9.4268e-01 -5.6108e-01 -1.5170e-01
  -4.3522e-01  4.9243e-01 -9.0966e-01 -7.5217e-01 -5.1312e-01  4.6281e-01
  -2.8725e-01  3.8018e-01 -2.4045e-01 -5.0069e-01  1.5128e-01  9.4376e-01
  -5.9941e-01 -9.8547e-01 -9.9565e-01 -5.1589e-01 -2.1256e-01  6.8993e-01
   2.3905e-01  2.6828e-01 -5.4306e-01 -5.6958e-01 -4.0891e-01  3.2425e-01
   8.2637e-01  8.7342e-01 -6.5699e-01 -4.7770e-01  1.9952e-01 -7.2232e-01
  -4.1866e-01  6.6659e-01 -4.6808e-02  2.8112e-01 -5.9069e-01  1.5039e-01
   2.9310e-01  4.8612e-01 -9.7510e-01 -3.9616e-01]
 [ 4.8678e-01 -9.5931e-01  4.1211e-01 -1.2377e-02  5.4124e-01  5.7396e-01
   3.4604e-01 -5.6305e-01 -4.1914e-01  9.7826e-01  4.2949e-02 -8.3802e-01
  -5.8976e-03 -2.9336e-01 -1.3211e-01 -9.3163e-01  9.5507e-02  5.0731e-01
  -3.2215e-01 -5.5491e-01  9.5296e-01 -2.7395e-01 -7.2016e-01  7.6788e-02
  -8.7947e-01  3.4649e-01 -2.3329e-01  9.7596e-01 -9.0716e-01  3.1425e-01
  -6.9938e-01 -9.6849e-01 -5.6645e-01 -4.9745e-01 -9.8711e-01  7.4971e-01
   2.5669e-01 -3.6488e-01 -7.4716e-01 -3.7903e-02  4.8182e-01 -6.8785e-01
  -1.3426e-01  5.7074e-01 -8.3753e-01  6.9897e-01 -2.2129e-01 -1.6381e-01
   9.2096e-01 -6.4419e-01  6.7489e-02  5.6775e-01  9.0980e-02 -9.9615e-01
   6.5925e-02  8.8142e-01  7.8457e-01  6.6925e-01  2.0276e-01  5.9343e-01
  -6.3479e-01 -6.6763e-01 -8.5518e-01  8.6298e-01]
 [ 6.0385e-01  8.0336e-01  7.4093e-01  6.9361e-01 -3.8943e-01 -5.6022e-01
  -4.4280e-01  9.5028e-01  7.4493e-01 -6.8349e-01 -3.5302e-02  1.3642e-01
   2.4567e-01  7.5373e-01  1.6840e-01  9.1981e-01  7.6551e-01  1.9365e-02
  -4.3734e-01  5.3986e-01  8.2489e-02  4.2551e-01 -9.6769e-01 -7.9392e-01
  -8.8008e-01 -7.5733e-01  6.3300e-01 -6.4371e-01 -9.9847e-01 -8.6796e-01
  -3.5714e-01  4.4603e-01 -2.8220e-01  8.9153e-01 -6.8613e-02 -4.2430e-01
   1.4301e-02 -8.3188e-01  1.3587e-01 -5.8386e-01  2.7210e-01 -9.8602e-01
  -5.3042e-01 -4.9888e-02 -9.0459e-01 -4.7063e-01 -8.2897e-01 -2.3025e-01
   2.0525e-01 -2.8408e-01 -5.8322e-01 -5.4336e-01 -2.5357e-01  7.4066e-01
  -8.4421e-01 -6.3098e-01  5.3007e-01  8.8515e-01 -3.6908e-01  2.3857e-01
   8.3963e-01  2.4500e-01  2.6603e-01 -1.8539e-01]
 [-1.1162e-01  5.7690e-01  1.6775e-02 -2.6713e-01 -9.0535e-01 -8.7987e-01
  -7.1322e-01 -2.2946e-02 -2.9836e-01  4.9301e-01  1.0887e-01  9.0211e-01
   7.8687e-01  2.3668e-01 -6.2372e-01 -9.8176e-01 -3.4408e-01 -3.1190e-01
   5.8816e-01 -6.2576e-01  1.3666e-01  8.1889e-01 -8.5553e-01 -4.1341e-01
   6.8903e-01  7.4204e-01 -5.4049e-01 -5.4214e-01  6.3167e-01  3.9823e-02
  -8.6433e-01  2.7137e-01  4.1582e-01  8.9107e-01 -8.6570e-01  1.2195e-01
  -7.6449e-01 -7.3148e-01  9.5908e-01 -7.3256e-01  1.3816e-01 -9.8210e-01
   8.1269e-01  2.4485e-02 -7.8568e-01  4.5177e-01  5.4380e-01 -5.8787e-01
   7.8161e-01  5.4560e-01 -2.4172e-01  2.9336e-01 -9.1380e-01  4.6361e-01
   3.6436e-01 -7.8645e-01  8.1168e-01  2.2859e-01 -7.6153e-01  9.6586e-01
   6.2971e-01  7.8068e-01 -3.0881e-01  1.2503e-01]
 [-5.3190e-01 -3.8105e-01  4.2869e-01 -1.8006e-01 -4.3305e-01  9.1034e-01
   1.9060e-01  7.7970e-01  9.7014e-01  5.9375e-01  2.8667e-01 -8.1103e-02
   9.6930e-01 -5.4183e-01  5.5121e-01  1.6114e-01 -1.7040e-01 -2.8164e-01
   3.0038e-01  8.7247e-01 -5.7977e-01 -6.5762e-01 -6.0005e-02 -2.3837e-01
   2.3936e-01 -1.3059e-01 -4.2321e-01 -1.7790e-01 -3.6079e-01  4.8899e-01
   7.4707e-01 -5.3518e-01  3.4027e-01 -9.7903e-01  3.0242e-01 -7.1997e-01
   2.0189e-01  7.7302e-01 -6.5685e-01  7.7983e-01 -2.4865e-01  8.3489e-01
  -1.7806e-01  7.3105e-01 -5.3666e-01  2.8924e-01  1.4386e-01  1.8285e-01
  -7.0996e-01  4.2936e-01  7.4546e-01  6.3735e-01 -5.6371e-01  6.9249e-01
   5.9093e-01 -1.4534e-01 -7.8008e-01  5.8865e-02  5.4480e-01 -4.3201e-01
   5.0315e-01 -2.6586e-01  2.1248e-01  6.1451e-01]
 [ 7.2101e-01 -3.4732e-01 -1.4352e-01 -1.1094e-01  9.3683e-01 -6.2757e-01
   8.5343e-01  3.4100e-01  4.9578e-01  2.2389e-01  3.3977e-01  5.6882e-01
  -8.0757e-01  4.4222e-01 -3.4605e-01  9.5567e-01 -1.2332e-01  9.3067e-01
   1.1086e-01  5.8174e-01  6.5155e-01  1.0752e-01 -6.4408e-01  2.3132e-01
   5.6874e-01  3.3333e-01 -1.3240e-01 -5.0635e-02  8.7503e-01 -7.5153e-01
  -8.4976e-01 -3.5362e-01 -9.1396e-01  4.4109e-01 -9.8656e-01  5.0198e-01
   9.1857e-01 -1.4454e-01  1.0310e-01  2.7779e-01 -4.0373e-01 -6.8068e-01
  -8.7056e-01 -3.4394e-01  1.3465e-01  3.9564e-01  8.1082e-02  1.5224e-01
  -2.9533e-01  4.5094e-01  8.2887e-01 -9.2291e-01 -5.5887e-01 -8.2051e-01
   2.9847e-01 -5.9743e-01 -1.1868e-01  1.3394e-01  6.6463e-02 -7.4790e-01
   7.9915e-01  2.8226e-01 -5.8990e-02 -7.8015e-01]
 [ 4.0464e-01 -8.2812e-01  7.4524e-01 -2.6249e-01  8.4038e-01  7.8037e-01
   1.4048e-02 -2.0394e-01  2.7329e-01 -3.0103e-01  6.9962e-01  2.7305e-01
   1.6615e-01 -8.9807e-01 -6.5144e-01 -3.5531e-01  8.7273e-01  2.6431e-02
   3.6211e-01  5.4302e-01  6.1987e-01  7.6595e-01 -8.3499e-01 -4.2436e-01
   8.9718e-01  1.8961e-01  6.9232e-01 -6.0703e-03 -3.4983e-02 -5.2326e-01
  -7.7649e-02 -5.1832e-01  5.3876e-01 -6.3608e-01 -9.7163e-01  6.5533e-01
  -7.1606e-01 -4.6807e-01  5.6975e-01  4.4269e-01 -8.7161e-01 -3.6438e-02
  -9.4288e-01 -8.3453e-01  9.4132e-01  2.7491e-01 -4.7989e-01 -7.5202e-02
   9.4191e-01  2.0543e-01  9.2547e-01  2.6840e-01  6.2080e-01  1.9817e-01
  -9.4079e-01  1.3643e-01 -4.0914e-01 -4.2926e-01 -2.5179e-01 -6.8462e-01
   1.2278e-01 -7.3055e-02 -2.3084e-01  3.0427e-01]
 [ 3.6626e-01 -2.1540e-01 -3.1730e-01  2.0072e-01 -1.0834e-01  2.9900e-01
   9.8085e-01  1.8590e-01  9.3518e-01 -3.8458e-01  1.2313e-01 -9.8484e-01
  -1.7916e-04 -5.3115e-02 -4.6780e-01 -2.7469e-01  2.0345e-01  6.7987e-01
   9.7727e-01  6.1285e-01 -4.2936e-01 -3.9134e-01  8.1590e-01 -7.5806e-02
   3.6225e-01  6.9199e-01  5.9547e-01  3.3431e-01  2.0933e-01 -8.2018e-02
   4.8130e-01  7.9187e-01 -5.3805e-01 -8.3890e-01 -8.3532e-01  7.4036e-01
   6.2807e-01  4.7014e-01  8.4926e-01 -8.6994e-01  8.8364e-01 -4.1298e-01
   6.2800e-01  8.9012e-01  5.8972e-01 -5.8460e-01 -8.7983e-01  3.2560e-01
   1.6865e-01 -5.4863e-01 -1.6694e-01  3.0559e-01  5.8576e-01  9.5052e-01
  -2.9818e-01 -4.5949e-01 -5.6181e-01  4.2098e-01  2.0563e-03 -1.2748e-01
  -2.2326e-01  7.8633e-01 -9.3879e-01 -2.5712e-01]
 [ 8.8388e-01  4.4188e-01  3.2318e-01 -5.6830e-01 -5.8666e-01  1.9397e-01
   2.8451e-01 -9.5384e-01  2.6651e-01 -1.2046e-01  3.4183e-01  6.1558e-01
  -6.9828e-01  1.2852e-01 -4.0610e-01  8.3404e-02  9.6098e-01 -9.2990e-01
  -9.3239e-01  5.5880e-01  6.4198e-01 -8.6073e-01 -2.7364e-01  8.7040e-01
   3.5327e-01 -2.2410e-01 -7.0151e-03  4.8298e-02  2.1069e-01 -3.1536e-02
  -2.7252e-01 -5.4609e-01 -7.9608e-01 -5.5556e-01  3.6952e-01  3.4536e-01
  -1.5393e-01  3.5367e-01  2.8392e-01  3.5295e-02  8.2306e-01 -1.6676e-01
  -5.9301e-01  2.8882e-01  8.9138e-01 -4.3902e-01  6.7672e-01 -6.7972e-01
  -6.2129e-01  6.8275e-01 -3.3663e-01 -8.9163e-01  7.8954e-01  7.0124e-01
   4.5909e-01 -8.0448e-01 -7.4970e-01 -5.7181e-01 -5.6328e-01  6.4229e-01
  -3.3481e-01  9.4615e-01 -8.2875e-01 -9.3945e-02]
 [ 9.5665e-01 -5.8548e-01 -5.0230e-01  8.8197e-01 -1.7348e-01  3.1437e-01
   1.6965e-01  2.1665e-01  9.9627e-01  5.5464e-01  8.2695e-01 -8.6664e-01
   4.2028e-01  3.5154e-01 -2.1286e-01  4.6167e-01 -7.3336e-01  5.7883e-01
  -6.1396e-02  8.5114e-01 -2.4913e-01 -9.5721e-01 -7.0366e-01  4.9688e-01
   2.8466e-01 -2.2311e-01  2.5856e-01 -2.4785e-01  4.4756e-01  3.1176e-01
  -7.1272e-01  6.6745e-01  6.3355e-02 -6.5354e-01  4.4315e-01  2.5318e-01
  -7.2388e-01 -1.9558e-01  5.7615e-01  7.1781e-01 -5.2864e-01 -8.4501e-01
  -4.4639e-02  3.3789e-01  3.4367e-02 -6.5085e-01  8.8075e-01  3.1207e-01
  -6.1048e-01  8.8490e-01 -2.7569e-01  9.5456e-01  1.5812e-01 -5.2475e-01
   1.0190e-01  4.5185e-01 -8.6098e-01 -2.3083e-02  3.9344e-01 -1.0523e-01
  -5.2423e-02 -6.2067e-01  5.1892e-01 -3.4119e-01]
 [-6.2674e-01  7.0411e-01  5.3644e-01 -2.7765e-01  2.7055e-01 -4.7896e-03
   4.2162e-01 -8.3498e-01  3.4953e-01  8.2333e-01 -9.5416e-01  2.7983e-01
   3.0128e-01 -1.8009e-02 -1.1529e-01  1.8716e-01  1.9594e-01 -7.2407e-01
   5.1844e-01  1.8435e-01  6.5584e-01  5.9885e-01 -2.7277e-01 -4.9464e-01
   6.3772e-01  2.5181e-01 -4.6845e-01  2.0627e-01  9.5777e-01 -3.3240e-01
  -9.7078e-02 -3.5366e-01 -8.4983e-02  5.2972e-01 -7.6638e-01 -5.9898e-01
   3.3804e-01  4.6245e-01  7.4389e-01 -2.8832e-02 -3.4728e-03 -6.5039e-01
  -3.4174e-01 -6.2904e-01  8.0202e-03  8.4591e-01  9.3157e-01 -9.5248e-01
  -7.1078e-01 -9.0556e-01 -9.2018e-02 -8.5006e-01 -2.6981e-02 -1.9910e-01
  -4.8829e-01  4.6393e-01 -1.2937e-01 -9.7560e-01 -1.1417e-01 -9.4756e-01
   3.6685e-01 -4.4961e-01  9.3010e-02 -4.5621e-01]
 [ 4.1120e-01 -9.2133e-01  5.2756e-01  6.3449e-01  2.7801e-01  8.8426e-01
  -5.6245e-01  7.9421e-01 -3.5999e-01  6.1176e-01 -2.3872e-01  7.6058e-01
  -1.0242e-01 -3.7243e-01  5.3783e-03 -5.1223e-01 -2.2039e-01 -3.1480e-01
   2.6037e-01 -7.5020e-02  9.4788e-03 -4.4894e-01 -4.4322e-01 -1.6230e-02
  -3.4390e-01 -3.3110e-01  2.5015e-01 -2.0204e-01 -2.2733e-01 -3.1144e-01
  -9.3651e-02 -4.3979e-01  4.6444e-01  1.6420e-02  4.7948e-01  5.4333e-01
  -2.1707e-01  2.1833e-02  9.5563e-01  3.2353e-01  4.5757e-01 -5.7116e-01
   7.0210e-01  3.1081e-01 -7.6977e-02 -5.3418e-01 -3.8598e-01  7.8991e-01
  -7.8561e-01 -1.0472e-01 -9.9261e-01 -6.8517e-01  6.9766e-01  5.7565e-01
  -4.7961e-01 -3.6162e-02 -9.2505e-02 -9.3155e-01 -5.1830e-01  7.6283e-01
  -7.8531e-01 -5.9751e-01 -1.8337e-01 -2.4163e-01]
 [ 3.3174e-01 -2.5674e-02 -4.4905e-01  9.2618e-01 -9.4525e-01  5.4842e-01
  -7.5049e-01  8.2645e-01 -3.9842e-01 -5.0860e-01 -5.1905e-01  8.8128e-01
   4.8294e-01  4.1857e-01  6.8565e-01  8.4183e-01  1.6275e-01 -8.7815e-01
   6.8734e-01 -8.4515e-01 -8.0084e-01  3.1338e-01  1.9739e-01  8.2754e-01
   8.3230e-02 -2.0086e-01  1.3340e-01 -2.4184e-01 -8.0858e-01  3.9559e-01
  -8.4457e-01  1.6626e-01 -2.7950e-01 -5.0355e-01 -8.4348e-01  6.0041e-01
  -4.0646e-01  3.5914e-01  7.4338e-01 -3.9999e-01 -4.6126e-01 -9.4189e-01
  -8.8895e-01  2.0891e-01 -1.6383e-01 -9.0380e-01 -8.4532e-01  8.9418e-01
  -5.1187e-01  7.7466e-01 -1.7323e-01  3.7493e-01 -1.6926e-01  7.0070e-01
  -8.6472e-01  6.9840e-01 -7.4687e-01  7.6297e-01 -8.9878e-01  6.5897e-01
   9.8764e-01 -4.1551e-01  7.9883e-01  4.3146e-01]
 [ 9.5271e-01 -1.5933e-01  8.1470e-01  6.9654e-01 -3.3796e-01  3.5347e-01
   4.6858e-01 -5.4876e-01 -3.1114e-01 -5.9359e-02 -8.7839e-01  6.7014e-01
   9.6432e-01  3.7562e-01 -4.1290e-01  4.1173e-01  3.7311e-01  7.6852e-01
  -8.1967e-01  6.8344e-01 -5.2488e-02  6.8018e-01  7.1955e-01 -1.5513e-01
   4.4781e-01 -4.2241e-02 -7.5230e-01  2.3214e-01 -9.2039e-01 -3.6420e-01
   1.5689e-01 -9.8920e-01 -3.4536e-01 -8.6255e-01 -3.3871e-01  7.5242e-01
  -5.8292e-01  4.7893e-01  9.1040e-01  1.5712e-01  6.3349e-03  1.1453e-01
   3.5043e-01  4.7242e-01 -6.5748e-01  1.6866e-01  2.1522e-02 -6.7815e-01
  -9.1491e-02  8.3387e-01  1.7299e-01 -7.1268e-01 -4.3186e-02 -5.6238e-01
  -8.4337e-01  6.9528e-01  7.5468e-01  5.4782e-01  9.2706e-01  3.2456e-01
  -9.4683e-01  2.7150e-01 -9.0183e-01 -5.0851e-01]
 [ 9.5026e-01 -6.0118e-01  7.6486e-01  7.0318e-01 -1.2694e-01 -9.0078e-01
   3.2975e-01 -9.4559e-01 -8.2365e-01  5.4314e-01 -5.5555e-01  8.7261e-01
   6.6473e-01 -9.0726e-01 -9.0689e-01 -5.3408e-02  1.9351e-01 -4.4961e-02
   9.4987e-01  1.0899e-01  6.0855e-01  2.8939e-01  6.0090e-01 -2.5303e-01
   6.8200e-01 -8.9271e-01  2.5255e-01 -9.7877e-01 -7.7853e-02 -2.4506e-01
  -1.7246e-01  6.6597e-01 -4.9395e-01 -6.6297e-01 -4.6133e-01 -6.9704e-02
  -6.1963e-02  8.1312e-01  6.1213e-02  5.5346e-01  9.5551e-01  9.7129e-03
   8.7261e-01 -8.5250e-01  3.7235e-01 -6.8530e-01 -9.5358e-01 -3.0679e-01
  -2.1332e-01 -4.5248e-01  1.5938e-02 -5.0181e-01  1.5243e-01 -5.2452e-01
   8.1019e-01  9.4999e-01  9.8194e-01  9.0679e-01  5.6559e-01 -8.2906e-01
   8.8194e-01 -3.7354e-01  7.3346e-01 -8.8348e-01]
 [ 6.7904e-01 -6.9111e-01 -5.4273e-01  4.9042e-01 -1.9940e-01  7.2071e-01
   8.6513e-01 -2.9066e-01 -8.8571e-01  3.8856e-01 -7.6554e-01  7.9768e-01
  -5.9630e-01  7.3157e-02 -1.8309e-01  8.8401e-03 -4.7814e-01 -2.6995e-01
  -9.0302e-01  7.8119e-01 -5.8686e-01 -8.5090e-01 -8.5801e-02 -1.7584e-01
   1.5157e-01  2.0156e-01  7.2811e-01  7.4859e-01  1.9426e-01 -8.4882e-01
   3.4381e-01  2.0800e-01  6.3884e-02 -5.2383e-01 -3.3392e-01  4.6653e-03
  -9.5962e-01  1.1842e-01  3.8041e-02 -2.4851e-01  8.5269e-01  2.3296e-01
   2.2719e-01  8.6899e-01  9.1740e-01  9.1147e-01 -6.0304e-01  9.2311e-01
  -2.2784e-01 -6.9877e-01  1.1638e-01  8.1697e-01 -4.2369e-01 -2.7179e-01
   2.1938e-01  1.8619e-01  9.5203e-01 -8.5918e-03  4.5072e-01  7.0224e-01
   2.8754e-01  4.4412e-01 -9.5379e-01 -4.2278e-01]
 [-7.8451e-01 -4.7894e-01  5.3917e-01 -6.9416e-02  8.4627e-01 -4.5461e-01
   7.5915e-01  3.7980e-01 -3.2279e-01 -4.0026e-01 -4.6537e-01 -1.0547e-01
   2.4791e-01 -3.7733e-01 -6.8979e-01  6.4026e-01 -9.9724e-03 -6.4617e-01
   9.5452e-01 -6.4608e-01  7.4282e-01  4.3912e-01  6.6409e-01 -7.6319e-01
   6.1433e-01  8.4580e-01  4.2548e-01  2.5175e-01  7.0643e-01  6.7173e-02
   5.6873e-02 -3.6295e-01 -7.8173e-01 -6.3120e-01  4.1451e-01  5.5172e-01
   7.3219e-01 -7.1113e-01 -7.8449e-01 -5.4182e-01  7.0384e-01 -4.1053e-01
   4.3376e-01  9.9458e-01 -1.0812e-01  6.4043e-01 -3.7411e-01 -9.9981e-01
   1.4960e-01  8.9026e-01  2.2607e-01 -9.7546e-01 -4.7845e-01 -5.1175e-01
   1.7740e-01  2.8146e-01 -4.2157e-01  1.6215e-01  6.9643e-01  1.3628e-01
   8.9130e-01  5.1990e-02 -2.4883e-01  7.1871e-01]
 [-1.2292e-01 -7.7153e-01 -5.8645e-01 -8.2832e-01  1.5579e-01 -2.2682e-01
   5.3724e-01 -8.7196e-01  3.7872e-01 -8.2117e-01 -9.0764e-01  9.8441e-01
  -7.1213e-02 -3.7580e-01 -2.4064e-02  1.0578e-01  7.6740e-01  2.7320e-01
  -1.0997e-01  6.7409e-01 -7.6327e-01 -2.8137e-02 -1.3072e-01 -9.0520e-01
  -5.6231e-01 -1.5384e-01  3.4796e-01  2.2067e-02  4.7144e-01  1.4980e-01
  -1.4595e-01  5.4135e-01  5.6468e-01 -8.0528e-01 -2.1755e-01  6.1835e-01
  -5.8735e-01 -9.3566e-02 -4.6524e-01 -9.8628e-01  7.3764e-01  5.4825e-01
   4.1139e-01 -6.9599e-01  3.9311e-01  4.3365e-01 -7.9656e-01 -7.4464e-01
  -9.4959e-01 -5.1957e-01 -3.8089e-01 -4.7422e-01 -6.5368e-01 -3.8730e-01
  -9.8420e-01 -2.2444e-01 -7.5481e-01  6.3449e-01  6.5236e-01 -1.5520e-01
   3.1186e-01  7.7924e-01 -9.2667e-01  1.6871e-01]
 [-1.3223e-01  2.8471e-01 -8.4432e-02  7.9067e-02  4.1653e-01  4.8677e-01
  -7.1567e-01  5.6490e-01 -5.2537e-01  6.4671e-01 -8.6571e-01  1.7400e-01
  -4.5986e-01 -4.8722e-01  9.9630e-01 -6.4224e-01  1.0706e-01 -8.8214e-01
  -4.7020e-01 -9.1212e-01  1.3620e-01  5.4359e-01 -4.7900e-01 -3.8260e-01
  -2.9088e-01 -2.3657e-02  2.1345e-02  1.1700e-02  3.0321e-01  2.6138e-01
   2.3555e-01  3.2351e-01  5.0021e-01  7.9576e-01  9.2968e-01 -8.9622e-01
  -3.4524e-01  1.6124e-01  8.4255e-01  6.2101e-01  6.6624e-01  7.0750e-01
  -4.3611e-01 -8.9151e-01  2.6870e-01  1.2520e-01 -5.2835e-01  6.4243e-01
  -5.6968e-01 -6.5036e-01 -9.9360e-01 -9.8788e-01  7.0341e-01 -5.7957e-01
   9.7402e-01 -7.9942e-01  6.4542e-01  3.7873e-01 -9.3605e-01 -7.7824e-01
   1.4575e-01  6.2267e-02  2.1520e-01  7.0626e-01]
 [ 5.5343e-01  7.4750e-01  4.2241e-01  7.1076e-01 -3.7721e-01 -8.6781e-01
   5.3440e-01 -7.1101e-01 -9.3671e-02 -7.4384e-01 -2.4591e-01 -6.7974e-01
   8.8450e-01  5.9314e-01 -6.2465e-01 -8.0671e-01 -5.2615e-01  9.7172e-01
   1.6386e-01 -5.1287e-01 -2.2772e-01  1.3331e-01 -5.9841e-01 -8.4367e-01
  -4.5535e-01  8.2860e-01 -3.9268e-01 -1.4944e-02 -2.4847e-02  9.7097e-01
  -9.5778e-01  5.4656e-01 -8.8810e-01 -6.6911e-01  7.5316e-01  8.1413e-01
   3.2196e-01  4.6375e-01 -3.3810e-01 -3.7645e-01 -1.5295e-01 -5.9698e-01
  -5.5372e-01 -1.4909e-01 -4.0528e-01  9.1692e-02 -9.0545e-01 -8.6168e-01
   6.6456e-01 -8.2229e-01  8.2856e-01  2.3367e-01  9.6488e-01 -6.4179e-01
  -8.0525e-01 -6.8611e-01 -7.4520e-02  9.3236e-01  1.3230e-02  7.0875e-01
  -2.0295e-01 -4.3210e-01  3.0520e-01  4.0422e-01]
 [ 3.4192e-01  9.3402e-01  3.2026e-01 -7.3513e-01  6.9977e-01  1.3618e-01
  -6.5476e-01  8.4270e-01 -9.3480e-01  1.7580e-01 -7.4138e-01 -1.9741e-01
   2.4176e-01  8.3630e-01  6.4829e-01  2.9472e-01  7.0433e-01 -9.1684e-01
  -8.0927e-01  5.9397e-01  1.7328e-01  7.8027e-01 -4.7665e-01  2.5653e-01
   4.4087e-01 -3.3444e-01  4.0632e-02 -5.1036e-01  1.0389e-01 -5.6709e-01
  -6.5890e-01 -9.1249e-01  3.8381e-01 -6.2783e-01  7.4976e-02  3.2077e-01
  -3.8757e-01  7.4092e-01 -9.5025e-01 -7.7682e-01 -2.1096e-01  5.3414e-02
   4.8441e-01 -1.5246e-01 -5.1924e-02 -1.4783e-01  9.4748e-01 -2.5456e-01
  -8.6859e-01  7.4362e-01 -9.5738e-01  6.9011e-02  2.1835e-01  7.6142e-01
   4.8364e-01 -7.9779e-01 -3.9991e-01  6.6801e-02 -8.9392e-01 -9.5464e-01
  -1.9008e-02 -4.4646e-01  8.4959e-01  8.8535e-01]
 [ 6.5376e-01 -6.2681e-01 -6.0939e-01  7.6820e-01 -9.2946e-01  7.9801e-01
  -3.5423e-01 -5.4354e-01  2.0603e-01 -9.1433e-01  9.6606e-01  1.2136e-02
   2.9610e-01  5.7659e-01  1.6944e-02 -1.1026e-01  3.6972e-01 -7.8535e-01
  -2.3425e-01  4.9582e-01 -1.2836e-01  1.7964e-01 -1.1050e-01 -3.6340e-01
  -1.1104e-01 -7.9926e-01 -2.1997e-01  1.1216e-01 -9.3196e-01  5.1890e-01
   5.0899e-01  3.0574e-01  8.5739e-02 -5.6355e-01  1.9032e-01  7.5999e-01
  -5.1132e-01 -6.9442e-01 -2.8993e-01  1.3506e-01 -1.4498e-02  2.2095e-02
   9.8600e-03 -1.4735e-01 -8.9251e-01 -9.2882e-01 -9.0011e-01  8.4688e-01
   6.2692e-01  5.3202e-01 -6.4166e-01  4.8502e-01 -9.1903e-01 -4.2632e-01
   6.0467e-01 -5.4038e-01 -4.2221e-02 -3.9763e-01  7.6975e-01  6.1182e-01
   2.2091e-01 -5.4591e-01 -9.1044e-01  5.2320e-02]
 [ 7.9642e-01 -2.0166e-01 -2.3856e-01  6.5438e-01  9.2722e-01 -5.5138e-01
   1.7208e-01  6.2165e-01 -6.4504e-01 -6.0305e-01  5.1442e-01  5.4754e-02
  -5.3712e-01 -5.8818e-01 -2.9440e-01  2.5290e-01  1.6078e-01  8.5505e-01
   9.8856e-01  2.4228e-01  3.1659e-02 -6.4894e-01 -9.3481e-01 -5.3807e-01
  -7.6632e-01 -8.8819e-01 -7.8014e-01 -1.4185e-01  9.1693e-01 -8.0150e-01
  -7.4457e-01  8.5854e-01  9.2310e-01 -3.6398e-01 -1.2008e-01 -8.3850e-01
   1.9738e-01  1.2052e-01 -2.3993e-01  2.9374e-01  8.8928e-01 -1.0995e-01
  -1.0375e-01 -4.7389e-01  8.4664e-02 -1.2431e-01  3.1298e-01 -3.4631e-01
   3.2500e-01 -3.8271e-01 -6.7983e-02 -7.1100e-01 -1.5281e-01  5.8574e-01
  -4.0398e-01 -8.1292e-01 -3.2230e-03  3.4853e-01 -8.5914e-01 -5.8187e-01
   2.2027e-01  4.5479e-01 -8.4680e-01 -6.9657e-01]
 [-2.9300e-01 -9.4977e-01 -2.3189e-01  4.0911e-01  9.6656e-01  5.9272e-01
  -7.0512e-01 -5.5322e-01  8.4486e-01  8.6432e-01 -1.7606e-01 -2.4375e-02
  -4.7704e-01  2.9874e-01  8.7244e-01 -5.2760e-01 -4.9570e-01 -9.6544e-01
   6.8948e-02  4.6538e-01  9.4997e-01 -9.4528e-01  5.6762e-01 -5.1186e-01
  -5.2662e-01 -8.5990e-01  5.1976e-01 -4.3164e-01 -8.1215e-01 -7.0543e-01
  -6.4643e-01  1.9774e-01 -7.1210e-01  6.8032e-01 -5.4913e-01 -6.9204e-01
   2.9679e-01  3.4156e-01 -2.7863e-01  6.8780e-01 -1.3093e-01  4.3415e-01
   9.9712e-01 -1.4971e-01 -5.8304e-01  6.4929e-01  5.6807e-01 -6.9922e-01
  -9.7905e-01 -7.5698e-01  9.0872e-01  7.1952e-01  4.1777e-01 -5.4720e-02
  -8.3399e-01  8.3937e-01  4.8387e-02  8.7101e-01  4.4106e-01 -5.7460e-01
  -9.5238e-01  6.8971e-01  3.6620e-01  7.2097e-01]
 [ 8.1228e-01 -5.1778e-01 -4.4488e-01  9.5213e-01 -5.9274e-01  7.7944e-01
   9.1766e-01 -6.3862e-01 -4.8120e-01 -5.7283e-01 -9.7833e-01  6.1980e-01
   1.8843e-01  8.9593e-02 -7.2881e-02  9.7806e-01  2.7218e-01  4.9821e-01
   1.7777e-01  3.6618e-01 -5.4010e-01  3.7430e-01 -1.6791e-01 -5.4747e-03
   5.0458e-01 -1.1486e-01  7.0632e-01  2.9140e-01 -8.5405e-01 -5.0222e-01
  -1.1398e-01  9.3982e-01  1.3241e-01  8.8013e-01 -1.0449e-01  8.0405e-01
   2.4966e-01  2.9214e-01  4.9839e-02 -1.2516e-01  7.4123e-01 -7.0879e-01
   4.3875e-01 -9.6488e-01  8.0683e-01 -3.8845e-01  2.5925e-01 -4.2313e-01
  -4.4908e-01  7.6559e-01  8.0422e-01 -6.2212e-01 -4.8202e-01 -4.3124e-01
   3.7163e-01  9.3840e-01  5.1785e-01 -3.7590e-01 -3.5147e-01  4.6723e-01
  -4.5119e-02  2.8739e-01  1.3809e-01  2.4202e-01]
 [-5.0905e-01  7.9897e-01 -3.0663e-01  9.5941e-01  7.5074e-01  9.7288e-01
  -8.2631e-01 -6.9667e-01  1.2294e-02 -5.3680e-01 -7.4021e-01 -6.4893e-01
   6.9187e-01 -9.0320e-01 -3.3927e-01 -9.5152e-01 -8.5298e-01  1.9445e-01
  -2.2690e-01  3.0173e-01  2.3208e-02  2.9696e-01  8.8208e-02  5.9677e-01
   5.8291e-02 -8.1260e-01  8.4271e-03 -9.0108e-01 -9.6624e-01  1.1546e-01
   3.9326e-01  7.8815e-01  3.4855e-01  3.4431e-01  5.6691e-01  4.0767e-02
  -2.0425e-01 -9.6489e-01 -3.9552e-01  3.6146e-01 -2.7477e-01 -1.4544e-01
   4.0456e-01 -1.1126e-01 -7.3664e-01 -2.5191e-01  7.2233e-01  5.6168e-01
  -3.9052e-01 -7.7521e-01 -4.9816e-01  6.3499e-01 -1.3581e-01 -5.4406e-01
   5.3559e-01 -7.6663e-01 -4.7691e-01  3.4212e-02 -6.7190e-02 -1.9366e-01
  -7.6625e-01  2.5662e-02 -8.9689e-01 -3.7275e-01]
 [ 9.9607e-01 -1.0195e-01  4.3262e-01 -5.2259e-01  8.4421e-01 -7.6415e-01
   9.3268e-01  9.6014e-01 -2.5714e-01 -9.1165e-01  5.7808e-01  3.7412e-01
   4.2978e-01  2.5676e-01 -7.7500e-02 -4.6730e-01  2.3498e-01  7.6000e-01
  -1.0821e-01 -5.8798e-02  2.9228e-01  4.5583e-01  3.4437e-01  3.6132e-01
   3.9378e-01 -3.0887e-01 -5.5085e-01  2.3174e-01 -3.8501e-02 -5.3826e-01
  -4.9005e-02  3.8513e-01  4.2939e-01 -5.6545e-02 -2.4745e-01 -8.3655e-01
   5.0746e-01 -9.2370e-01 -3.4525e-01 -1.9807e-01  8.8870e-01 -8.2836e-01
   9.7802e-01 -7.6094e-01 -1.4799e-01  2.9559e-01 -3.9422e-01  5.4147e-01
   1.4764e-01 -1.8008e-01  2.8561e-01 -6.2186e-01 -6.1655e-01 -2.2358e-01
  -5.6605e-01 -9.5231e-01 -3.3288e-01  8.4217e-01  2.6571e-02 -9.7657e-01
  -6.1296e-01 -1.7556e-01  3.0675e-01 -3.6395e-01]
 [-6.4464e-01  3.2971e-01 -4.3215e-01  1.2600e-01  8.9959e-01 -2.0508e-01
  -3.0527e-02 -8.6288e-01 -5.6389e-01 -2.5350e-01  8.2435e-01  6.5029e-01
  -3.7703e-02 -9.4507e-01 -8.2104e-01  7.6910e-01 -3.9353e-01  2.4907e-01
   7.0708e-01  2.4335e-01  4.5337e-01 -7.0820e-01 -1.9015e-01 -4.9347e-01
   3.8785e-01 -1.7715e-01  6.1174e-01 -3.3451e-01 -9.0413e-01 -1.8015e-01
  -3.9292e-01 -8.5862e-01 -9.0060e-01  5.8466e-01  7.5355e-01  6.5166e-01
  -2.3820e-01  6.9517e-01 -4.9256e-01  8.8727e-02 -8.9676e-01 -9.6714e-02
  -3.9654e-01 -3.3310e-01 -6.2568e-01 -4.2521e-01  3.0182e-01 -4.4382e-03
   3.8561e-01 -4.3425e-01 -3.5241e-01  4.0956e-01 -8.5910e-02  7.1544e-02
  -6.9007e-01  2.5060e-01 -4.4568e-01 -4.4502e-01  3.5785e-02  9.1289e-01
  -8.7609e-01 -5.8879e-01  2.2109e-01 -4.0264e-02]
 [-1.4206e-01 -1.2916e-01 -1.8248e-01  1.3571e-01 -2.5109e-01 -2.3042e-01
  -2.6585e-02  7.9310e-01 -5.1515e-01 -2.3535e-01 -3.8109e-01 -4.8123e-02
  -2.5560e-01 -9.7630e-01 -2.2442e-01  2.2235e-01  7.3108e-01  1.5602e-01
  -1.8579e-01 -1.0528e-01  4.7979e-01  6.1572e-03 -3.2347e-01 -2.6680e-01
  -3.2440e-01  5.3232e-01 -3.9939e-01 -4.3950e-01  9.9654e-01 -5.4252e-01
  -4.5635e-01  3.9998e-01  4.4562e-01  7.0683e-01 -3.2096e-01  5.1696e-01
   6.2414e-01 -8.5121e-01 -5.6492e-01 -1.6285e-01  8.1792e-01 -8.9958e-01
  -3.2717e-02 -4.2343e-01 -3.5396e-01 -5.5125e-01  2.3366e-01  2.3933e-01
  -7.1207e-01 -7.1544e-01 -4.6014e-01 -4.8146e-01 -6.0590e-01  9.4662e-01
  -2.8856e-01  9.0137e-01  7.3319e-02 -5.8790e-02 -7.4178e-01  8.7076e-01
  -5.4544e-01  3.7464e-01 -8.3708e-01 -1.8294e-01]
 [-9.6630e-02  3.2442e-01  2.7147e-01 -9.3316e-01  8.0799e-01  4.3411e-01
   9.7302e-01 -8.6162e-01 -7.4309e-01 -7.8739e-01 -5.9358e-01  4.5444e-01
  -7.3828e-01 -3.7009e-01  6.2205e-01 -9.3966e-01  6.9584e-01  7.3859e-01
   2.2194e-01 -1.9425e-01 -6.8843e-01  4.7488e-01 -8.3064e-01 -8.6867e-01
   6.7939e-01 -2.7795e-01 -3.1213e-01  8.8182e-01 -9.3271e-01 -1.5244e-01
   3.4813e-01 -8.6427e-01  9.5769e-01 -9.1301e-01 -2.6465e-01  7.2004e-01
   6.0126e-01 -9.5366e-01 -2.7998e-01  8.4622e-01  9.1285e-01  6.9720e-01
   1.2945e-01  5.8428e-01 -5.5130e-01  9.6607e-01  1.7300e-01  3.8251e-01
  -9.9074e-01 -7.9023e-01 -5.6859e-01 -3.2084e-01 -5.0532e-01 -6.3945e-01
  -1.1534e-02 -5.6604e-01  5.8680e-01 -3.7948e-01  5.5447e-01 -6.9528e-01
   5.7725e-01 -5.2206e-01  6.3187e-01  2.4695e-01]
 [ 3.5258e-02  4.5310e-01  1.5245e-01  8.2169e-02  1.1506e-01 -6.0573e-01
  -9.1290e-01 -7.4381e-01 -7.8479e-01 -4.6538e-01  9.3340e-01 -2.3918e-01
  -2.8610e-01 -5.7084e-02  1.8275e-01 -9.9270e-01 -2.8149e-01 -5.9995e-01
   3.4796e-01 -6.4678e-01 -8.6785e-01 -3.3374e-01  1.5072e-01 -5.7634e-01
  -1.1199e-01 -5.9029e-01 -7.1958e-02 -7.3130e-01 -5.1969e-01 -4.0908e-01
   6.6864e-01 -1.9023e-01  5.9995e-01 -5.4906e-01  6.6728e-01  6.5303e-02
  -4.6985e-01 -4.4492e-01 -8.9062e-02  5.8712e-02  5.6980e-01  6.1721e-02
  -6.0703e-02  5.5674e-01  4.7203e-01  2.6861e-01 -2.9107e-01 -2.3564e-01
  -5.5152e-01  9.7189e-01 -1.1975e-01 -5.3586e-01 -5.0629e-01 -4.6208e-01
  -2.8821e-01 -1.7382e-01 -9.1308e-01 -3.7550e-01  8.7959e-01  8.6379e-02
  -6.7969e-02  9.2939e-01 -3.9703e-01  1.0165e-02]
 [-9.4322e-01  6.1528e-01  5.4931e-01 -3.9626e-01 -4.1934e-01  7.6079e-01
  -7.8031e-01  2.5852e-01  6.6414e-01  6.0896e-01  6.2841e-01  7.1576e-01
  -1.2661e-01  9.5764e-01 -2.4679e-01  8.4778e-01 -9.9134e-01  6.1092e-01
   8.1415e-01 -2.8722e-01  8.0687e-01 -7.4794e-01 -2.4274e-01  7.9442e-01
  -5.6936e-01 -3.5893e-01  3.4878e-01  1.8513e-02  4.4519e-01 -8.4999e-01
   3.8189e-01 -6.4360e-01 -7.7950e-01 -5.6698e-01  1.9943e-01  9.4460e-02
  -8.1193e-01  2.4755e-01  7.5900e-01 -7.2781e-01 -1.8082e-01  6.2686e-01
  -4.9999e-01  5.6030e-01 -6.8947e-01  4.0155e-01 -2.7947e-01  7.1652e-01
  -2.1775e-01 -5.6673e-01 -7.3892e-01  8.7448e-01 -5.2345e-01 -2.5101e-01
   4.3267e-01  2.4510e-01  7.6352e-01 -2.1798e-01  5.7780e-01  4.8685e-01
  -1.5112e-01  7.9249e-01 -9.8823e-01  8.2719e-01]
 [ 2.1272e-01  1.5626e-01 -9.8863e-01 -7.4396e-01 -9.2952e-01 -6.8247e-05
   3.5971e-01  5.0594e-01  4.8500e-01  2.9747e-01 -2.0646e-01 -9.3765e-01
   1.3629e-01 -3.9783e-01 -2.7640e-01  2.2352e-01 -3.1428e-01 -3.8712e-01
   6.0850e-01 -4.1786e-01  8.1708e-01 -8.1919e-01  6.6857e-01  3.3851e-01
  -9.8387e-01  5.8530e-01 -7.7772e-01 -3.2337e-01  8.6257e-01 -2.5831e-01
  -8.4753e-01  9.2626e-01 -7.8309e-03 -5.0013e-01 -8.1863e-01 -8.4336e-02
  -8.0270e-01 -2.6663e-03  9.9923e-01  6.6085e-01 -4.4016e-01 -9.1889e-01
   2.9787e-01  2.4782e-01  5.2508e-01 -6.0803e-01 -7.4789e-01  2.5684e-01
   3.1303e-01 -2.0623e-01  2.3507e-01  5.1434e-02 -9.5059e-01  2.3596e-01
  -8.6849e-01  1.6944e-01  1.3521e-01 -9.0920e-01 -5.1695e-01  8.0173e-01
  -8.7356e-01  3.3809e-01  2.5337e-01 -6.2472e-01]
 [ 9.5005e-01 -9.6612e-01  9.8327e-01  5.0753e-01 -3.3742e-01  2.8510e-02
  -4.0353e-01  8.7768e-01 -9.9996e-01 -2.7519e-01  3.3277e-01 -5.5071e-01
  -2.1411e-01  5.0428e-01  4.6820e-02  5.3754e-01  2.6294e-02  1.3860e-01
   4.5018e-01 -7.8611e-01 -1.4843e-01  2.7699e-01 -2.9327e-01  6.4111e-01
  -5.7879e-01 -1.3576e-01  1.2012e-01 -5.6370e-01  4.3447e-01  3.0150e-01
   4.2710e-02  4.8672e-01  6.9141e-01  7.4827e-01  4.3156e-02 -9.7896e-01
  -1.2667e-02 -9.0467e-01 -4.5007e-01  5.5868e-01 -5.1210e-01 -5.4935e-01
   7.2542e-02 -4.6598e-01 -2.8361e-01  9.5179e-01  8.0109e-01  7.4123e-01
   1.1659e-01  6.6046e-02 -9.0024e-02 -8.5174e-01  4.3897e-01  1.2372e-01
   1.5287e-01 -2.3592e-01 -8.4289e-01 -9.7535e-01  5.4392e-01  1.5869e-01
  -5.9611e-01 -6.2699e-01  7.1441e-01 -9.9310e-01]
 [ 2.0191e-01  8.2471e-01  2.4369e-02  9.5602e-01  4.9729e-01 -8.1464e-01
   4.0738e-02  8.4291e-01  9.8926e-01 -2.7919e-01  4.4669e-01 -8.3529e-01
  -8.9334e-01  1.6945e-01  2.0759e-01  6.0756e-01  5.7751e-01  3.0545e-01
   8.2905e-02  2.6351e-01 -9.4003e-01 -2.7193e-01 -5.4631e-01  3.9937e-01
  -8.4358e-01  8.7319e-01  8.9634e-01  4.1741e-01 -4.9228e-01  1.7917e-01
  -1.7236e-02 -2.1339e-01  5.5689e-01  3.7398e-02 -1.5119e-01  5.7674e-01
   3.5548e-01 -9.6616e-01  1.8002e-01  9.1333e-01  2.5034e-01 -9.1996e-01
  -9.3370e-01 -7.0428e-02 -3.8071e-02  3.0841e-01 -9.2095e-01  7.7287e-01
   3.6142e-01  9.0933e-01  3.8416e-01  9.3365e-01  6.5004e-01  8.9091e-01
   5.3762e-01 -7.3118e-01  4.3421e-01  7.4632e-01  4.0181e-01  5.7744e-01
  -2.8954e-01 -1.7363e-01  8.2267e-01  7.0073e-01]
 [ 9.9904e-01  2.7399e-01  9.4669e-01 -8.1916e-01 -2.1806e-01 -3.0339e-01
  -1.6126e-01  5.1617e-01  2.8860e-01  7.3700e-01  6.5126e-01  6.0350e-01
  -1.8637e-01  3.1248e-01 -4.1035e-01  9.7835e-01  5.9384e-01 -5.2843e-01
  -1.1819e-02 -8.6473e-01  6.8028e-01 -6.6119e-01 -4.9475e-01  1.6597e-01
  -5.0941e-01  2.0413e-01  8.9738e-01  2.5008e-01 -4.2532e-01  1.3976e-01
  -7.2542e-01  7.8102e-01  5.0014e-01  8.8974e-01 -7.3335e-02 -2.1421e-02
  -5.1041e-01 -6.9760e-01 -3.7555e-01  6.6600e-01 -5.3836e-01  7.9931e-01
   1.6064e-01  9.7460e-01 -5.9905e-01  7.9149e-01 -4.1262e-01  4.4397e-02
  -3.4218e-01  4.2379e-01  3.9412e-01  8.2176e-01 -5.5180e-01  6.2001e-01
  -2.0193e-01 -1.9190e-01  5.7792e-01  6.7993e-01 -4.9060e-01  7.0024e-01
   6.2993e-01 -2.1511e-01  4.1468e-01 -3.5652e-01]
 [-4.9901e-01 -9.8079e-01  4.7588e-01 -5.8816e-01  9.6179e-02  8.8914e-01
  -5.9856e-01  6.5175e-01 -6.6970e-01  3.9691e-01 -9.2227e-01  4.7646e-01
   6.5968e-01  3.3980e-01 -4.7956e-01 -5.7789e-01  3.3818e-01 -6.7784e-01
  -8.5023e-01 -5.1313e-01  4.6529e-01  4.2699e-01 -6.7385e-01  1.0397e-01
   8.5725e-01  5.7598e-01  3.5808e-02  4.3453e-02 -2.6220e-01  7.5326e-01
   9.6322e-01 -7.8540e-01  9.3251e-01 -8.8465e-01 -5.3870e-01  1.4644e-01
  -5.3446e-01  3.5779e-01 -8.5982e-01  7.2300e-01 -5.0556e-01 -8.9194e-01
  -9.3347e-01 -4.0307e-01  3.8993e-01 -6.9064e-01  5.3298e-01  2.9039e-01
   2.9964e-01  4.1477e-01  3.5924e-01  5.6809e-01  9.7453e-02 -4.1595e-01
  -3.6838e-01 -1.2175e-01 -8.1544e-01 -7.5050e-01  9.2668e-01  3.1753e-01
  -1.5964e-01 -8.9848e-02 -6.2740e-01  2.8315e-01]
 [ 1.8061e-01 -4.2183e-01 -6.6104e-01 -9.0284e-01 -7.5334e-01  5.2334e-01
  -7.2643e-02  1.0899e-01 -6.4409e-01 -3.3078e-01 -2.9244e-01  2.6884e-01
   4.4279e-01  1.6844e-01  3.8065e-01 -2.4591e-02 -6.0553e-02  9.7665e-01
   4.6045e-01  6.0791e-01  7.0469e-01 -6.7553e-01  1.6676e-01 -5.1572e-01
   9.0506e-01 -7.5167e-01  7.7750e-01  5.8360e-01 -4.5395e-01  3.1827e-02
  -6.7551e-01  6.8967e-02  6.6988e-01 -4.8695e-01 -6.1405e-01  4.1749e-01
   1.8946e-01  1.2470e-01  4.2760e-01  7.4149e-01  6.1154e-01 -4.8951e-01
   6.2923e-01 -4.3424e-01  2.2056e-01  1.9823e-01  4.8438e-01  3.3097e-01
   5.1093e-01  6.9324e-01 -7.7617e-01 -7.9168e-01 -2.8039e-01  1.5487e-01
  -8.7932e-01 -4.8942e-01 -3.4797e-01 -6.6523e-01  5.4245e-02  2.1928e-01
   5.5715e-01  6.8435e-01  5.8855e-01  3.7885e-01]
 [ 1.5735e-01 -4.5668e-01  9.7152e-02 -8.4349e-01 -3.4527e-02  8.7580e-01
   5.0215e-01  1.4548e-01  2.8899e-01 -2.4181e-01  3.5044e-01  8.2272e-01
   8.2377e-01  7.4580e-01  1.8690e-01  6.4079e-01  4.8946e-02  2.5310e-01
  -8.9628e-02  7.1518e-01 -1.3107e-01  8.9620e-01  9.8750e-01  6.0140e-01
  -3.8579e-01 -9.2427e-02 -8.0880e-02  7.2776e-01 -9.4305e-01  4.3405e-01
  -9.3211e-01  1.1454e-01 -4.4274e-01  3.4901e-01  2.7659e-01  1.9874e-01
  -2.2253e-01  5.2700e-01  7.1876e-01 -5.1632e-01  2.2142e-01  6.0545e-01
  -6.8628e-01  1.7529e-01 -9.5528e-01 -2.7783e-01  7.2399e-01  4.1065e-01
  -9.9977e-01  3.0338e-01  1.8193e-01  1.4460e-01 -8.4103e-02 -8.8725e-01
  -1.9545e-01 -6.4378e-01 -7.9637e-02 -6.9627e-01 -5.6464e-01  7.3224e-01
   7.9262e-01  6.2172e-01 -8.7543e-01  8.8731e-01]
 [ 1.5689e-01 -9.4609e-01 -8.7808e-01  4.8090e-01  1.3626e-01 -1.2442e-01
  -6.0653e-01  1.1063e-01 -2.1492e-01 -5.9017e-01 -6.6209e-01 -4.2222e-01
  -8.9420e-01 -2.3163e-01 -3.3553e-02  7.2118e-01  4.8660e-01 -1.9157e-01
   6.6410e-01  9.0119e-01  8.7207e-01 -3.4204e-01  2.8929e-01 -8.9810e-01
  -5.4587e-01 -7.0658e-01 -6.3289e-01 -6.8639e-02  8.3326e-02  7.3453e-01
   4.2308e-01  3.5128e-01  5.4743e-01 -9.4806e-01 -9.6886e-01  4.6528e-02
   8.0493e-01 -6.0606e-01  3.6319e-01 -2.5444e-01  3.2091e-01 -7.2996e-01
   2.1204e-01  4.2560e-01 -6.2157e-01  2.3085e-01 -9.8158e-01 -3.8499e-01
   6.5153e-01  4.6892e-01  2.1154e-01 -8.1229e-01 -5.7123e-01  5.3629e-01
   9.3959e-01  2.4749e-01 -2.3309e-01  5.2918e-01  3.4889e-01  9.3476e-01
   2.4951e-01 -6.1721e-01  8.3236e-01  6.3297e-01]
 [-1.7649e-01 -3.7389e-01 -4.2281e-01  2.0599e-01 -8.5665e-01  9.4104e-02
   9.5987e-01  1.5139e-01  3.8788e-01 -6.4659e-01 -9.9577e-01  8.1522e-01
   3.7827e-01  9.6428e-01 -3.1418e-01  7.9128e-01  5.0691e-01 -1.0617e-01
  -2.6880e-01  2.1207e-01 -9.2841e-01 -2.9663e-01  3.0222e-01 -9.7246e-01
  -2.7802e-01  7.9033e-01 -2.6591e-01 -9.9766e-01  5.4926e-01 -8.5059e-01
   5.7276e-01 -5.4179e-01  9.0964e-01  8.8523e-01 -1.4673e-01 -3.6187e-01
   9.2264e-01 -6.2411e-01  9.7541e-02 -6.0348e-01 -8.4214e-02 -9.3905e-01
   3.8098e-01  5.4210e-01 -7.9170e-01 -8.0891e-01  6.9494e-01  9.1095e-01
  -6.2950e-01  5.6956e-01 -9.2714e-01  4.6460e-01 -6.9133e-01 -4.8937e-01
  -8.1784e-01  7.2876e-02  6.9074e-01  2.1827e-01  8.0211e-01  3.7207e-01
   3.0311e-01 -6.4540e-01 -9.9905e-01  4.1904e-01]
 [ 5.8546e-01 -9.3697e-01 -6.0036e-01 -6.8884e-01  3.2539e-01 -2.5287e-01
   7.7757e-01 -2.3120e-01  8.7701e-01 -1.9982e-01 -9.3124e-01  1.6428e-01
   9.7887e-02  1.7228e-01  1.8579e-02  5.5168e-02  4.1828e-01 -2.2461e-02
   5.7315e-01  7.3291e-01  5.3346e-01  1.4279e-01 -1.1393e-01 -9.6109e-01
  -8.4279e-02  4.2232e-01  4.5451e-01 -2.6590e-01  3.8817e-02  9.2440e-01
  -6.1650e-02 -4.6457e-01  2.3564e-01 -7.5277e-01  5.7476e-01 -6.9770e-01
  -2.8266e-01  7.0776e-01 -7.3830e-01  4.8085e-01  6.9210e-01 -2.1262e-01
   9.0239e-01  1.8012e-01 -9.8170e-01  7.7446e-01 -5.6422e-01  9.1012e-01
  -9.3073e-01  6.9781e-01  2.1779e-01  9.8890e-01 -2.0093e-02  3.2353e-01
  -9.2437e-01  7.7808e-01  1.2630e-01  4.6630e-02  3.1663e-01 -3.9496e-01
   2.5705e-01 -7.3279e-01 -3.1765e-01  6.2733e-01]
 [ 5.6077e-01 -9.9719e-01  1.9743e-01 -8.8581e-01 -5.6488e-01  9.9076e-01
   9.2953e-01 -8.1726e-01  8.2138e-01  6.8023e-01 -8.9928e-01  9.3854e-01
   7.0024e-01  9.6932e-01 -7.1885e-01 -2.5400e-01 -9.7385e-02  3.1251e-01
  -8.3987e-01 -5.1298e-01 -2.9909e-01 -7.4158e-01  9.9674e-01  1.7844e-01
  -7.5780e-01  4.5283e-01  9.9173e-01  6.1917e-01  9.9769e-01  1.0694e-01
  -8.0837e-01 -1.4663e-01 -2.3130e-01 -6.9618e-01  7.7427e-02  5.1019e-01
   3.4472e-01  8.6576e-01  1.1927e-01  9.9558e-01  8.4225e-01  4.7626e-01
  -2.2442e-01  7.2968e-01 -3.5029e-01  8.4412e-01  2.1820e-01 -1.5067e-02
   3.1467e-01  8.5993e-02  9.9508e-01  5.7482e-01  3.3992e-01 -1.2541e-01
   6.4767e-01 -9.5003e-03 -9.8640e-01  8.1578e-01 -5.4834e-02 -3.4986e-01
  -1.3479e-01 -9.2660e-01  7.5466e-01 -7.4141e-01]
 [-6.3037e-01 -7.7105e-01 -8.3364e-01  1.4368e-01 -6.0957e-01 -6.1041e-01
   3.4320e-01  2.7761e-01 -1.1158e-01 -3.6218e-02  6.5701e-01 -3.9073e-01
   1.5214e-01  2.7208e-03 -3.6099e-01  3.9238e-01 -6.6471e-01 -8.2822e-01
   6.9899e-01 -9.5355e-01  7.2677e-01  2.9806e-01  7.8529e-01  7.3963e-01
   3.7693e-01  2.0745e-01  8.9327e-03  1.2010e-01 -4.9960e-01 -7.4562e-01
   4.5373e-01 -6.9261e-01  4.4053e-01 -4.6852e-01  7.3512e-01 -6.9218e-01
  -4.1335e-02  9.7867e-01 -5.2851e-01  4.4764e-01 -7.6330e-01 -2.0480e-01
   8.1746e-01  7.3864e-01 -4.8643e-01  5.6620e-01  6.4455e-01  7.4570e-01
  -3.1811e-01  3.2870e-01 -8.0825e-01 -2.3659e-01  7.9460e-01  2.1049e-01
  -9.9673e-01 -6.6030e-01  9.2461e-01  1.0209e-01  9.9169e-01  8.7188e-02
   5.9308e-03  3.8709e-01  5.9958e-01  8.9105e-01]
 [-3.4313e-01 -2.4011e-01  8.0015e-01 -1.9097e-01 -7.7421e-01  8.6557e-01
  -1.6399e-01 -6.1220e-01 -8.7281e-01  2.0621e-01 -3.3360e-01 -5.9782e-01
  -4.0147e-01 -4.5117e-01 -9.7262e-01 -9.6985e-01  5.2366e-01 -4.2146e-01
   8.8556e-01 -2.2053e-01 -3.6336e-01  4.7724e-01  4.1220e-01  3.7210e-01
  -6.6239e-01  3.8748e-01  5.9470e-02 -2.1348e-01 -8.3963e-01  6.9522e-01
  -2.6920e-01 -8.6272e-01 -9.9524e-02  9.8484e-02 -7.0241e-01 -8.2269e-01
   9.1370e-01  4.1508e-01 -5.5056e-01  9.6156e-01 -2.0912e-01  2.1531e-01
  -8.8448e-02 -3.5792e-01 -5.9321e-01 -3.4030e-01  4.8048e-01 -5.4234e-01
   1.6215e-01  6.0159e-01 -6.0510e-01  8.6446e-01 -3.0585e-01 -1.8752e-01
  -8.4561e-01  6.2885e-01 -2.9886e-01  4.6139e-01  2.6056e-02  5.4922e-01
   3.6174e-01 -8.7527e-01  5.7166e-01 -1.1536e-01]
 [ 4.0654e-01 -4.3747e-01 -9.0748e-01  1.3652e-01  7.0182e-01  3.2476e-01
  -3.0836e-01 -7.8307e-01  1.3780e-01 -3.0974e-01  8.9260e-01 -2.3011e-02
   1.4759e-02  7.5730e-01 -1.5812e-01 -8.3049e-01  1.1441e-01 -4.3395e-01
   5.9066e-01  6.8639e-01 -4.3233e-01  7.4524e-01  7.6505e-01  9.1603e-01
   1.4586e-01  5.9494e-01  5.8595e-01 -6.3166e-01  6.8549e-01 -6.1425e-01
  -4.1650e-01 -4.0181e-01  8.9688e-01 -6.1182e-01  4.4925e-03  4.0686e-01
  -9.6889e-01 -3.9213e-02 -8.4612e-01 -1.8410e-01  4.2618e-01  2.2004e-01
  -7.6017e-01 -6.5892e-01  1.0605e-01  9.1401e-02 -2.8194e-01 -7.7510e-01
  -8.9115e-01 -7.6020e-01  8.8639e-01  6.4037e-02 -4.5290e-01  9.6762e-01
  -1.2284e-01  1.4139e-01  6.5557e-01  9.0371e-01 -9.7079e-01 -5.1852e-01
   5.3299e-01  2.1577e-01  4.3313e-01  3.6543e-01]
 [-2.0923e-01 -1.3646e-01  1.0006e-01  1.9447e-01  3.5288e-01 -3.7460e-01
   3.6521e-01  3.8364e-01  6.1795e-01 -6.4319e-01 -9.0121e-01  3.9610e-01
  -6.0973e-01 -1.3255e-01 -9.9326e-01 -5.1821e-01 -5.8415e-01 -6.8576e-01
   1.7610e-01 -3.9105e-01  7.2256e-01  9.6349e-02  3.2582e-01  9.3502e-01
  -3.0602e-01  7.5203e-01 -3.2266e-01 -6.1205e-01  7.4985e-01 -4.3942e-01
   6.9682e-01 -3.4606e-01 -1.3042e-01  5.4340e-01 -1.0483e-01  5.2501e-02
   7.8959e-01  1.3765e-02  1.1350e-01  2.4915e-01 -7.6753e-01  1.7325e-01
   2.4297e-01  1.1113e-01  1.4847e-03 -9.9618e-01  3.2419e-02  5.4785e-01
  -9.7761e-01  2.0709e-01  8.3139e-01 -9.7802e-01 -6.1668e-01  6.6686e-01
   4.5807e-01 -1.0242e-01  8.3086e-01  3.1545e-01 -9.7837e-01  2.0973e-01
  -6.7159e-01 -2.1251e-01  2.8221e-01  1.2436e-01]
 [ 6.0144e-02 -6.0257e-01 -6.9667e-02  1.2645e-01  7.2284e-01 -7.3795e-01
   8.4203e-01 -7.5248e-01  3.9238e-01  5.4872e-01 -7.0248e-01 -1.6197e-01
   6.5144e-02  3.2519e-01  3.9826e-01  1.6121e-02  4.6954e-01  7.5265e-01
   2.4814e-01 -6.2605e-01 -6.1679e-01  3.8309e-01  4.2639e-01  6.0859e-01
   1.5744e-01 -1.1782e-02 -5.5597e-01  3.5861e-01  2.6756e-01 -3.8059e-01
   3.8911e-01 -5.2871e-01 -7.3602e-01 -2.5502e-01  1.8363e-01 -3.8293e-01
   1.6429e-01 -2.1677e-02  9.4118e-01 -5.5439e-01  1.5550e-01 -5.6028e-01
   1.3929e-01 -8.4917e-01  6.5321e-01  2.8202e-01 -4.7534e-01 -9.1431e-01
  -5.7825e-01 -1.5291e-02 -4.4866e-01  9.5536e-01  8.8290e-01  7.9192e-01
  -3.8996e-01 -2.9552e-02  5.4766e-01  2.3309e-01  2.5316e-01  9.7809e-01
   2.7232e-01  4.4053e-01  7.8643e-01 -6.8840e-01]
 [ 3.0253e-01  3.9789e-01  6.8737e-01  8.6644e-01  6.3669e-01 -2.7461e-01
   9.9441e-01 -3.3116e-01 -6.3735e-01  4.6149e-02  2.9570e-02 -6.2659e-01
   4.3371e-01 -9.1943e-01 -9.5791e-01 -6.9279e-01 -1.0577e-01  3.2644e-01
  -6.6629e-01 -4.4852e-01  8.0915e-01 -8.8791e-01  9.5302e-01 -4.0655e-01
  -6.7156e-01 -3.0333e-01 -9.9159e-01 -9.4908e-01  8.3156e-01  1.1622e-01
  -4.0201e-01 -5.5388e-02  6.0934e-01 -1.9827e-01  1.9771e-01  3.2744e-01
   3.3930e-01  8.8075e-01  5.7808e-01  5.1734e-01  7.2322e-02  9.0629e-01
  -1.5023e-01  7.7812e-01  6.7780e-01 -1.0575e-01  7.9354e-01 -6.1286e-01
   1.8130e-01 -6.1059e-02 -8.2599e-01  7.2856e-01  4.8687e-01  3.8040e-01
  -2.2777e-01 -6.7907e-01 -7.5491e-01  7.5560e-01  5.3830e-02 -8.0873e-01
  -8.5018e-01  6.3159e-01  3.4310e-01  6.5276e-01]
 [ 1.8986e-01  4.3939e-01 -5.3897e-01  1.9688e-01 -3.4956e-01  8.2575e-01
   7.1034e-01 -9.1243e-01 -4.9048e-01  2.8228e-01 -7.7292e-01  8.0417e-01
   9.2352e-01 -8.7113e-01 -2.0511e-02  6.9593e-01 -5.9859e-01 -7.2356e-02
   7.7240e-02  2.0978e-01  5.6294e-01 -4.9601e-01  1.6536e-01 -6.2364e-02
   5.1626e-01  1.7971e-01 -2.2339e-01 -7.4338e-01  4.2686e-01  2.6382e-01
  -9.3751e-01  2.4930e-01 -2.0228e-01 -4.9951e-01 -7.7913e-01  7.8829e-01
  -8.9346e-01  8.5446e-01  2.7432e-01  8.9461e-01  7.0966e-01 -7.6720e-01
  -4.9767e-01  2.1066e-01  4.8139e-01  1.3585e-01 -7.1807e-01  4.4508e-01
  -5.8136e-01  8.6473e-01 -1.9469e-01 -2.9056e-01  7.4995e-01  2.2486e-01
  -8.8578e-01  1.5605e-01 -5.5422e-01 -8.3746e-01  4.9158e-01 -9.6896e-01
   9.2181e-01  6.8521e-02  2.7917e-03  7.1748e-01]
 [-8.2400e-02  5.8758e-01 -3.4576e-01 -2.4946e-01 -1.7902e-02 -2.9218e-01
  -1.8430e-02 -2.7013e-01 -9.1478e-01 -2.4626e-01  9.9227e-01 -5.4063e-01
   4.1799e-01 -9.3659e-01 -9.2785e-02  3.0101e-01  1.2720e-01 -9.8772e-01
   1.2593e-01  9.6639e-02 -5.3662e-01  5.4774e-01  1.7019e-01  5.9746e-01
  -3.2651e-01  9.5951e-01 -3.7153e-02 -6.6230e-01 -2.4515e-01 -7.7470e-01
  -1.1468e-01  7.6016e-01 -6.6729e-01 -7.3182e-01 -5.1403e-01  2.3527e-01
  -6.1754e-01 -6.6884e-01 -6.2235e-01 -1.8645e-01  2.9725e-01 -6.3816e-01
  -5.3362e-01 -8.6476e-01  2.9503e-01 -8.5072e-01 -6.3786e-01 -7.3118e-01
   8.4930e-01 -5.0803e-01 -7.1969e-01  5.8538e-01  7.3154e-01  9.8916e-01
  -1.9090e-01  1.6365e-01  5.3317e-01 -1.7267e-01 -3.6738e-01 -6.5534e-01
  -5.1857e-01  7.5596e-01 -5.6459e-01 -7.3406e-01]
 [ 4.4617e-01 -3.6318e-01  3.1002e-01 -2.9014e-01 -6.9779e-01 -7.0457e-01
   4.0539e-01  7.5057e-01 -1.2654e-01  6.7800e-02  6.4138e-01 -8.0483e-01
   2.0869e-01 -9.5794e-01  6.3388e-01 -3.6042e-01  6.3078e-01 -8.1593e-01
  -4.5804e-01  9.3762e-01 -4.5331e-01 -3.6098e-01 -7.1446e-01  4.2905e-01
   5.8674e-01 -2.7319e-01 -5.9847e-01 -3.9239e-01  6.5602e-02  8.5676e-01
   1.9419e-02 -3.7110e-01 -4.9641e-01  7.5067e-02 -7.4330e-01 -7.4302e-01
  -6.7747e-01 -1.1727e-01  8.0931e-03 -4.0038e-01  7.5228e-01 -9.4317e-01
  -6.1819e-01 -1.8811e-01 -7.4365e-01  6.4207e-01 -3.1282e-01  4.5886e-01
  -8.4750e-01  8.2704e-01  6.5611e-01 -3.7905e-01  2.0668e-01 -2.3410e-02
  -5.6782e-01 -8.6290e-01 -6.4597e-01  2.7182e-01  4.3947e-01 -3.7046e-01
   1.0807e-01  1.5466e-01 -2.8251e-01 -2.8680e-01]
 [ 1.9015e-01 -8.2621e-01  4.0465e-01  1.2192e-01 -9.5551e-01  1.1093e-01
   4.8189e-01  4.1664e-01 -9.1217e-01  4.8790e-02  1.9169e-01 -7.1830e-01
   8.3856e-01  7.0351e-01  7.3528e-01  7.2957e-01  8.1182e-01  9.2565e-01
   9.9983e-01  1.9789e-01  4.8105e-01  5.7383e-01 -6.6236e-01  7.3809e-01
  -4.5590e-01  1.4535e-03 -5.0896e-01  6.5645e-01  8.7642e-01  5.9235e-01
   4.5450e-01  9.4463e-01  3.9051e-02 -1.0133e-01 -7.1557e-01 -3.7451e-01
   8.5981e-01 -7.0648e-01 -6.2318e-01 -2.1059e-01 -5.5429e-01 -1.6699e-01
  -6.1869e-01  9.0661e-01 -3.7936e-01  1.4522e-01 -6.6204e-01 -6.4961e-01
   3.2436e-01 -9.3468e-01  8.0966e-01 -5.6652e-01  3.6497e-01 -6.0642e-01
   3.9253e-01  1.3816e-01 -2.7309e-01  1.8840e-01  1.3261e-02  9.9737e-01
   7.1868e-01 -8.9492e-01  2.8621e-01  1.4449e-01]
 [-7.2735e-01 -9.4552e-01  2.2505e-01 -2.4222e-01  9.0166e-01 -2.5987e-01
  -3.1300e-01 -5.5199e-01  7.1368e-01 -3.7419e-01 -9.9315e-01  4.2511e-01
   2.9362e-02 -5.7406e-02  9.7861e-01  1.5807e-01  9.3908e-01 -7.5367e-02
  -9.0505e-01  3.3245e-01 -9.3181e-01  7.2607e-01  2.3324e-01 -2.8541e-01
   7.6011e-02 -4.3142e-01 -9.2336e-01 -2.1406e-02 -2.7344e-01  9.0779e-01
  -6.1741e-01  2.9762e-01  4.7125e-01 -2.2560e-01  9.4736e-01  4.1528e-01
   9.0647e-01 -2.6334e-01  1.5176e-01 -9.7411e-01 -9.5210e-01 -6.0722e-02
   9.5046e-01 -1.0687e-01 -9.5679e-01  9.0583e-01 -1.6438e-01  8.2205e-01
   2.4638e-01  4.4398e-02 -6.8795e-01 -3.5226e-01  4.0553e-01 -4.2420e-01
   9.6823e-01 -7.0176e-01 -3.7127e-01  6.5270e-01  8.1281e-01 -2.4380e-02
   7.2033e-01 -1.0827e-01 -4.6841e-01 -7.1296e-01]
 [-3.5923e-01  8.1329e-01 -9.8344e-01 -3.4242e-01  9.0283e-01 -2.5878e-01
   6.5599e-01  1.1310e-01  6.0517e-01  4.0881e-01 -6.8929e-01 -7.5305e-01
   7.0040e-02 -7.9250e-01 -6.9476e-01 -8.0453e-01  2.1979e-01  2.6830e-01
   1.1770e-01 -8.3238e-02 -4.4844e-01 -1.4048e-01  2.0754e-01 -2.9530e-01
   7.3624e-01  5.1401e-01  9.5130e-01 -8.2713e-01 -1.8034e-01  7.2264e-01
  -3.3221e-01  9.1813e-01  6.6143e-01 -9.6545e-01 -7.4356e-01  1.2816e-01
  -9.1748e-01  2.5516e-01  3.6412e-01 -4.5503e-01  8.5997e-01  3.8299e-01
  -5.3574e-01 -6.7115e-01  4.5163e-01  9.9165e-01  8.5386e-01 -4.5232e-01
  -7.7196e-01 -5.7612e-01 -5.7922e-01  7.9582e-01  9.5250e-01 -7.9167e-01
   1.1558e-01 -2.2312e-01 -7.8245e-01  7.8763e-01 -3.7026e-01 -9.5967e-01
  -8.2303e-01 -3.7035e-01 -5.3578e-01  3.0758e-01]
 [-7.5877e-01 -4.1566e-01 -9.5354e-01 -2.4349e-01 -3.2020e-01 -8.6304e-01
  -9.1880e-01 -2.3089e-01 -1.0749e-01 -8.4847e-01  7.6398e-01 -3.3280e-01
  -8.7122e-01  7.6170e-01 -2.0956e-01 -1.3996e-01  7.8666e-01  7.2866e-01
  -8.2101e-02 -6.4574e-01  6.5284e-01  6.8862e-01 -7.4143e-01 -4.3538e-01
  -2.7402e-01 -9.0313e-01 -4.7206e-01 -3.4668e-01 -3.0697e-01  4.7111e-01
   7.3250e-01 -2.2043e-01 -5.0594e-01 -2.1879e-01  1.2986e-01 -9.7339e-01
   9.1745e-01 -1.6671e-01  4.9872e-02  4.8599e-01 -1.5286e-01 -4.1850e-01
  -6.3705e-01  1.7715e-01 -4.8457e-02  2.3336e-01  7.8981e-01 -6.4936e-02
  -3.6201e-01  7.0199e-02  5.3871e-01 -1.7558e-01 -7.4618e-01  7.1234e-01
  -6.5590e-01 -2.9202e-01 -7.2200e-01 -6.3211e-01  5.0139e-01 -5.0471e-01
   8.4282e-01 -2.6589e-01  8.4091e-01 -3.8232e-01]
 [-5.9811e-01 -4.6788e-01 -9.9028e-01  3.6958e-01  6.4188e-01  8.3599e-01
  -7.3080e-01  1.2223e-01 -5.4344e-01  8.8562e-01 -6.5809e-01 -4.9938e-01
   9.5329e-02  9.0563e-01  9.6749e-01 -9.7780e-01 -5.8333e-02  1.3087e-01
   8.5017e-01 -1.2745e-01 -3.3238e-02  1.1884e-01 -9.1709e-02  8.2797e-01
  -9.5388e-01 -4.3240e-01  1.4207e-01  5.8928e-01 -2.9513e-01  1.3928e-01
  -8.1948e-01 -7.8465e-01 -2.6500e-01 -1.7274e-01 -7.9265e-01  9.1881e-01
   2.3259e-01  7.6670e-01 -2.7094e-01  8.2338e-01 -3.4506e-01  4.7940e-01
   7.8436e-01  6.5194e-01  6.0332e-01 -4.4549e-01 -1.0619e-01 -2.5417e-01
  -4.4204e-01  6.8076e-02  5.2823e-01 -7.8322e-01 -1.9709e-02 -2.4963e-01
   1.6335e-01 -1.4615e-01  8.5482e-02  7.5059e-01  5.2824e-01  8.6794e-01
  -6.6237e-01 -9.9113e-01 -1.6981e-01 -2.2338e-02]
 [-8.1087e-01  3.3605e-01  7.1446e-01 -4.1768e-02 -1.6635e-01 -5.4150e-01
   7.1547e-01  1.5451e-01  1.4382e-01  6.7363e-01 -3.2641e-02 -3.1388e-01
  -1.9290e-01 -3.7275e-01  4.2005e-01 -5.8120e-01  6.5012e-01 -5.1318e-01
  -5.7475e-01 -2.9837e-01  9.6883e-01  5.0117e-02  1.1368e-01 -1.1215e-01
   8.6837e-01  1.8614e-01  9.6580e-01  3.4210e-01 -8.8460e-01 -8.2169e-01
   4.4838e-01  2.7521e-01  8.4611e-01 -1.2492e-01  5.2758e-01 -6.9242e-01
  -3.5002e-02  3.8274e-01 -9.9512e-01  3.4826e-01 -6.7954e-01 -1.0249e-02
   6.6165e-01  3.9030e-01 -6.6507e-01  8.4201e-01 -7.8480e-01  5.0458e-01
  -3.4076e-02 -4.2079e-03 -1.0312e-01  6.0489e-01 -8.6052e-01  3.3153e-01
   6.6846e-01  5.0227e-01 -5.3114e-01 -4.0271e-01 -8.3707e-01 -7.8475e-01
  -6.9288e-01 -9.4667e-01  2.7892e-01 -5.1503e-01]
 [ 2.7891e-01 -8.0884e-01 -5.5968e-01 -5.1920e-01 -3.5713e-01  2.1544e-01
  -9.9470e-01 -4.5563e-01  4.0743e-01  2.6395e-01 -9.4106e-01  3.0637e-01
   1.3692e-01  1.6693e-01 -4.7477e-01  3.9241e-01 -5.6927e-01 -7.1982e-01
  -2.0198e-01  5.8737e-01 -7.7025e-01  8.5281e-01  4.3049e-01 -8.9554e-01
  -9.8826e-01  9.2975e-01  5.9044e-01  2.6506e-01 -7.3227e-01  6.4569e-01
  -4.5730e-01 -1.6635e-01  6.2527e-01  9.3540e-01 -8.6373e-01 -6.7102e-01
  -2.2544e-01 -2.1943e-01  7.2644e-01  7.6395e-01 -4.5519e-01 -7.8278e-01
  -5.2900e-01 -1.3153e-01 -2.8335e-01 -9.3242e-01  5.9538e-01  5.5563e-01
   7.2354e-01  5.6545e-02 -8.9080e-01  1.5688e-01 -1.7764e-02  4.6585e-01
   7.9695e-01  7.1408e-01 -7.2228e-01 -8.3507e-01 -1.7920e-01 -3.6448e-02
  -6.2887e-01 -8.7584e-01 -9.8114e-01  4.5234e-01]
 [ 9.9283e-02 -8.5259e-01 -2.6983e-01  7.6178e-01 -9.7462e-01 -7.7135e-01
   8.3225e-01 -5.0294e-01 -1.2023e-01 -7.8613e-02 -5.9388e-01 -7.5320e-01
   4.6764e-01  5.6924e-01 -1.3740e-02 -4.9395e-01 -9.5309e-01 -7.0556e-01
  -5.6697e-01  3.2210e-01  4.3023e-01 -9.8412e-01 -2.5901e-01  4.8859e-01
   8.2851e-01 -3.1770e-01  7.7179e-01 -8.6769e-01  9.9184e-01 -2.2955e-01
   5.9808e-01  6.5149e-01  3.5554e-01 -9.1995e-01 -5.8302e-01  6.4912e-01
   8.6118e-02  9.1964e-01 -7.0229e-01 -3.7879e-01  1.1853e-01  7.3709e-01
  -8.3403e-02  8.4600e-01 -8.8924e-01  6.0092e-01  5.7073e-01 -7.4914e-01
  -3.2692e-01  5.8086e-01  4.5959e-01 -2.0405e-01 -7.8630e-01 -5.7748e-01
   5.8385e-01 -5.8685e-01 -8.1110e-01  9.9764e-01  1.6369e-01  1.5523e-02
   5.9301e-01 -1.0220e-01 -6.0896e-01  9.9014e-01]
 [ 7.6244e-01 -5.7904e-03  4.5379e-01 -8.9799e-01  8.4700e-01 -8.8177e-01
   9.9251e-01  8.4123e-01  7.5195e-01 -1.3440e-01  4.3808e-01 -3.6815e-01
  -7.4116e-01 -3.9153e-01  4.3287e-01 -7.5768e-01 -8.9583e-01 -8.2590e-01
   8.3279e-01  8.8461e-01 -4.8740e-02  4.4305e-01  1.2017e-01 -7.4357e-01
  -7.6424e-01 -5.4393e-01 -1.2315e-01  1.3877e-01 -7.8973e-01  7.4406e-01
  -8.1020e-01 -2.5549e-01 -5.7597e-02 -9.9095e-01  7.7421e-01 -2.0877e-01
   9.2494e-01  5.6866e-01  8.8636e-01 -6.9101e-01  9.2747e-01 -9.1539e-01
   3.2035e-01  1.5417e-01  9.9956e-01  1.8149e-01 -1.3865e-01 -8.8821e-01
  -7.2518e-01  4.9548e-01  7.8666e-01 -7.8359e-01 -4.7374e-01 -7.3379e-03
   3.8503e-01 -5.7304e-01 -6.7493e-01 -9.5524e-01 -7.6384e-01  7.9589e-01
   7.1810e-01 -9.3885e-01  4.9544e-01  7.6128e-01]
 [ 2.7616e-01 -5.4669e-01 -2.1377e-01  5.1937e-01 -9.7896e-01  5.8617e-01
  -1.2361e-01  6.6660e-02  7.5385e-02 -9.2603e-01 -4.2791e-01  9.8450e-01
   3.3705e-01 -8.4769e-01  3.0628e-01  3.1310e-01  7.0118e-01  7.2026e-01
  -7.3815e-01 -9.4608e-01  8.4299e-01  6.0146e-01  1.1930e-01  7.5693e-01
   5.9116e-01 -6.2719e-01  5.1273e-01  1.6162e-01 -4.7735e-01 -1.3232e-01
   1.9605e-01  8.6493e-01 -1.7426e-01  8.6951e-01 -1.2486e-01 -1.2273e-02
   6.5716e-01 -4.1084e-01 -2.7497e-01 -7.9576e-01 -2.8612e-01  3.5175e-01
   2.2946e-01  7.1940e-01  7.7096e-01  1.5555e-01 -2.8611e-01  4.7350e-01
   5.9792e-01  5.5972e-01 -3.1285e-01  9.4291e-01  3.6547e-01  2.9267e-01
   7.6003e-01 -2.8569e-01 -1.8618e-01  7.5349e-01 -7.0950e-01  3.6275e-01
   3.3367e-01  1.6889e-02  5.2575e-01 -7.8311e-01]
 [-7.6137e-01  5.7756e-02 -5.2777e-01 -2.1793e-01  6.0479e-01  5.0901e-01
  -4.0830e-01  1.1292e-01 -4.9777e-01 -1.8520e-01 -8.5341e-02  2.2576e-01
   2.6464e-01  5.8808e-02  1.9328e-01 -5.4418e-01 -5.7186e-01 -6.4467e-01
  -6.9151e-01  2.6037e-01  2.2549e-01 -2.3495e-01  1.6716e-02 -1.4546e-01
   2.4004e-01  8.6665e-01  7.8529e-01  4.4414e-01  4.1676e-01 -6.3181e-01
   4.8450e-01 -8.2592e-01 -1.5576e-01 -1.1658e-01 -2.3199e-01 -1.6755e-01
   9.7527e-01 -1.4545e-01  6.0613e-01 -7.3251e-01 -7.2773e-01  6.8754e-01
   5.7940e-01 -4.3066e-01  3.2425e-01 -3.6718e-01  7.8970e-03  8.5472e-01
   4.7341e-01  6.5081e-01 -2.5170e-02 -1.1165e-01  2.8282e-01 -8.6302e-01
  -8.1850e-01 -5.2007e-01  9.6357e-01  1.3385e-01 -7.2198e-02 -4.3464e-02
  -8.3666e-02  4.6153e-01  9.9218e-01  1.1451e-01]
 [-5.8881e-02 -4.0241e-01 -9.5610e-01 -8.9518e-01 -2.7989e-01 -5.7385e-02
  -3.5783e-01 -8.4601e-01 -7.6432e-01 -5.2393e-01 -1.7592e-01 -8.6276e-01
   4.0705e-01  4.7550e-01  5.4206e-01 -1.9810e-01 -6.3787e-01 -3.5481e-01
  -5.0240e-01 -3.6460e-01 -6.9419e-01  9.0251e-01  8.8218e-01  1.7311e-01
   8.3881e-01 -4.4861e-01 -9.1112e-01  4.0029e-01 -3.4671e-01 -3.0728e-02
   5.8745e-01 -2.2474e-01  1.8782e-01  1.8885e-01 -8.5633e-01  8.7721e-01
  -3.1391e-01  3.9411e-01 -6.9094e-01 -4.5811e-01  4.7769e-01  9.4880e-01
   6.9532e-01 -3.0145e-01  1.4404e-01  3.4650e-01  5.2632e-01 -3.1406e-01
   5.1469e-01 -1.4302e-01 -5.0161e-01  3.1263e-01  8.7566e-01  4.9485e-01
   7.0749e-01 -5.7548e-01 -4.4958e-01  3.8170e-02  1.3946e-01  4.8265e-01
  -9.4049e-01  2.4812e-01 -1.8244e-01 -2.3266e-02]
 [ 3.6136e-01  4.9223e-01 -4.7651e-01  5.5678e-02  1.3240e-01  4.8536e-01
   2.6406e-01  4.8434e-01 -8.4415e-01 -9.6378e-01  2.2850e-01 -5.3555e-01
  -4.9577e-01 -5.8409e-01  7.5503e-01 -2.3195e-01  3.8080e-01 -1.3259e-01
   8.2561e-01 -5.8060e-01  8.2289e-01  4.4213e-01  1.6763e-01 -8.0319e-01
   3.0134e-01 -6.2147e-01  4.9441e-01 -9.5607e-01  1.1776e-01  5.0359e-01
   6.6349e-01  8.7216e-01  2.8019e-01 -6.6917e-01  6.7915e-01 -4.3289e-01
   6.4929e-01 -2.7831e-02 -3.9774e-01  6.2824e-01 -2.7970e-01  5.2864e-01
  -5.5559e-01  1.5817e-01  7.3125e-01 -3.8860e-01 -5.3649e-01  4.0803e-01
   8.9896e-01  4.1687e-01  3.9143e-01  4.4275e-01 -8.9567e-01  8.0301e-01
   6.6634e-02  5.4226e-01 -3.2668e-01 -1.3191e-01  3.9980e-01 -2.0444e-01
  -6.0085e-01  5.0412e-01 -6.5102e-01 -7.9350e-01]
 [-8.7873e-01 -9.5236e-01 -2.5953e-01  2.0586e-01 -5.5232e-01  8.5888e-01
  -7.1887e-01 -1.6650e-01  4.2545e-01 -8.4185e-01 -3.7721e-01  3.3713e-01
   6.4886e-01  8.9489e-02  5.0353e-01  9.0194e-01  8.1027e-01  1.3844e-01
   9.0567e-01  6.7527e-01 -9.3762e-02 -2.0847e-01 -4.0774e-01  8.3071e-01
  -7.0976e-01  8.7209e-01  6.5357e-01  5.0702e-01  2.2311e-01  5.6483e-01
  -3.8394e-01  7.5223e-01  8.3655e-01 -2.0290e-01  6.6614e-01  9.9285e-01
   6.6739e-01  6.4129e-01  8.4288e-01 -1.1321e-01 -1.1641e-01  3.6016e-01
  -8.4609e-01  2.4032e-01 -1.2038e-01 -9.3657e-01  3.1104e-01  3.9697e-01
   1.2161e-01  5.0819e-01 -9.2661e-01 -5.4697e-01 -1.2900e-01 -4.8503e-01
   1.5591e-02 -8.1270e-01  7.1861e-01  4.6034e-01  3.8355e-01  5.3330e-01
  -3.9649e-01  8.6271e-01  6.0538e-01  4.8495e-01]
 [-8.1128e-01  6.3898e-01  4.7562e-02 -2.2660e-01 -1.3456e-01  3.2857e-01
   1.0885e-01 -5.8573e-01 -9.9615e-01  2.8130e-01 -7.5457e-01  1.9923e-01
   7.1997e-01 -8.9150e-01  9.9845e-02  7.5954e-01  9.6908e-01  4.7828e-01
  -3.5141e-01  9.1737e-01 -2.7335e-01 -7.3854e-01 -6.5078e-01 -9.3975e-01
  -5.1427e-01  4.1700e-01  8.4410e-02  6.2475e-01  8.1601e-02 -5.0658e-01
  -2.3282e-01 -7.5881e-01 -3.3442e-01 -9.4327e-01 -3.2935e-01 -1.4139e-01
  -6.0162e-01 -6.7460e-01 -3.3653e-01  3.3959e-01  8.9389e-01 -6.7734e-01
  -1.9295e-01 -6.5357e-02 -2.9293e-01 -1.8968e-01  7.4131e-02  9.5147e-01
   3.8431e-01 -2.2815e-01  2.4805e-01  5.0972e-01  5.3082e-01 -3.9659e-01
  -9.5521e-01  2.2422e-01  2.1274e-01  2.6329e-02  3.9357e-01 -9.2952e-01
   3.4132e-01  2.9459e-01 -6.8295e-01 -6.7804e-03]
 [-7.9464e-01 -1.7147e-01 -7.1686e-01  4.6958e-01  8.4890e-01  3.7094e-01
   8.8054e-01  1.4620e-01 -2.9055e-01 -1.9662e-01 -3.6570e-01 -4.3897e-01
   6.3004e-01  3.5120e-01 -8.4858e-01 -6.7677e-02 -4.0905e-01 -8.1551e-01
  -7.4629e-01  5.1943e-01  5.2316e-01  6.3076e-01  8.1823e-02 -1.6226e-01
  -5.8136e-01  8.9139e-01 -4.2425e-01  4.1997e-01  1.4362e-01  2.7611e-01
  -7.8372e-01  3.9079e-01 -9.1180e-01 -9.4527e-01 -1.9145e-01 -9.4182e-01
   9.9370e-02  9.9225e-02 -1.4237e-01 -2.0573e-02  5.0169e-01 -7.6602e-01
   1.5449e-01 -6.1291e-01 -3.3586e-01  6.1341e-01 -7.6944e-01  6.8034e-01
  -5.6769e-01 -8.2045e-01 -7.2171e-01  5.5950e-01 -5.0780e-01  8.5377e-01
  -2.5819e-01  1.8116e-01  5.8440e-01  6.0919e-01 -4.3415e-01  6.9903e-01
   5.4443e-01  4.3364e-01 -2.1371e-01 -1.5230e-01]
 [ 4.5965e-01 -5.8779e-01  2.8023e-01  7.4971e-01  6.8940e-01 -4.2848e-02
   3.0480e-01 -7.4206e-03  8.4886e-01 -8.8317e-01 -8.2735e-01 -4.9724e-01
   6.5745e-01 -6.2125e-01 -6.5821e-01 -9.2594e-01 -3.6511e-01 -1.0900e-01
  -3.9683e-01  2.5231e-01  4.0724e-01 -6.8067e-01 -5.7256e-01  8.5826e-01
   1.8722e-01  2.7279e-01 -5.2418e-02 -6.0889e-01  3.5818e-01  8.5839e-01
  -5.9305e-01 -7.0624e-02 -6.0506e-01  2.3256e-01 -4.3313e-01  7.5631e-01
   9.4120e-01 -7.5494e-01 -5.7204e-01  3.5518e-01  8.8832e-01  7.4669e-01
  -7.1175e-01 -9.2812e-01  8.7751e-01 -3.2640e-01  2.7576e-01  4.7940e-01
   8.9868e-01 -6.2057e-01  2.8365e-01  6.6859e-01 -9.6327e-01  7.0925e-01
  -8.5566e-01  8.9359e-01  6.4970e-01 -9.6831e-01 -1.6621e-01 -5.4805e-01
   5.9970e-01  9.9764e-01  7.9690e-01 -3.5671e-01]
 [ 4.7233e-01  1.1588e-02 -6.0567e-01 -8.4670e-01 -7.9886e-02  2.0499e-01
  -1.9733e-01 -7.8596e-01 -2.3056e-01 -7.9230e-01 -6.8964e-01  3.9999e-02
   3.6296e-03  6.6551e-01  5.8730e-01  7.6844e-01  5.3499e-01  8.9411e-01
  -1.8581e-01  4.8810e-01  9.1177e-01 -9.1856e-01 -4.5946e-01 -7.6420e-01
  -9.1721e-01  7.1639e-01  6.7708e-01 -1.8500e-01  9.8049e-02  3.3711e-01
   1.6386e-01  1.6042e-01  2.8896e-01  9.2752e-01  4.5957e-01 -3.1136e-01
   8.4910e-01 -9.4350e-01  1.2742e-01 -7.5833e-01 -7.7063e-01  7.4803e-01
   9.7714e-01  2.3848e-01 -9.6788e-01  9.9694e-01  9.0363e-01  3.0081e-01
  -2.6802e-01  1.8943e-01 -7.8388e-01 -6.9486e-01 -9.4798e-01  7.4025e-01
   8.1544e-01  3.9966e-01  7.8160e-01  2.1616e-01 -2.2020e-01  5.0913e-01
   2.9904e-01 -4.1071e-01  8.2184e-01  2.1159e-01]
 [ 2.0175e-01 -3.4432e-01 -8.5374e-01  2.6495e-01  7.6900e-01 -3.2625e-01
  -7.9134e-01 -5.7660e-01 -1.9583e-01  4.5934e-01  7.3113e-01  3.6335e-02
  -7.2183e-01 -5.8565e-01  7.2629e-01 -8.3984e-01 -9.1189e-01 -4.7677e-01
  -5.4325e-01 -8.8522e-01 -7.6104e-01  9.4593e-01  1.1604e-01 -2.3235e-01
  -1.5824e-02 -7.9137e-01 -2.5304e-01  7.8596e-01  4.8645e-01 -5.0159e-01
   3.3813e-01 -8.6702e-01  4.3866e-01  4.6237e-01 -4.1457e-01 -2.6274e-01
  -1.6332e-01  6.3991e-02  7.2193e-01  8.8516e-01  6.7911e-01 -5.8146e-01
  -3.5485e-01  4.0223e-01  6.3641e-01  7.9543e-01 -6.8602e-01  4.1096e-01
   5.2763e-01  5.0442e-01  1.2029e-01 -6.8991e-01  3.7334e-01 -8.7352e-01
  -8.1032e-01  7.3669e-01 -9.6431e-01  2.7264e-01 -6.8746e-01 -2.8547e-01
  -9.3734e-01 -6.7774e-01  8.9148e-01 -8.3725e-01]
 [-4.0388e-01  8.2695e-01 -3.4514e-01 -2.6058e-01 -3.4943e-01  6.2864e-01
   9.9076e-01  5.8266e-01  9.1485e-01 -4.1872e-01  3.3091e-01 -9.2663e-01
   6.2835e-02 -9.9451e-01  3.9928e-01  5.4436e-01  1.1301e-01 -1.4868e-01
   7.6311e-01 -6.6788e-01 -2.5946e-02  8.3893e-01  3.8538e-01 -6.0197e-01
  -4.2717e-01  2.1046e-01 -3.8915e-01 -5.3350e-01 -2.0163e-01 -9.6425e-01
  -7.9061e-01  7.2696e-01 -2.0503e-02 -4.2689e-01  2.6876e-01  1.4219e-01
   2.2378e-01 -7.8647e-01 -8.7455e-03  3.6413e-01  9.7913e-01  2.1183e-01
   8.1437e-01  7.5595e-01  6.6916e-01  1.8437e-01 -3.7965e-01 -3.7169e-01
   3.4385e-01 -6.9858e-01  2.7238e-01 -9.9576e-01 -1.5177e-01 -8.3687e-01
  -5.9345e-01  6.4293e-01  7.9930e-01 -3.4432e-01  2.9827e-01  2.4216e-02
  -8.4726e-01  8.8282e-01  6.2266e-02 -5.6214e-01]
 [ 7.7501e-01  7.5045e-02  3.2232e-01 -3.5195e-01 -3.1529e-01  7.0621e-01
  -9.2647e-01 -9.6934e-01  4.5803e-01  2.0030e-01  2.9467e-01  8.3517e-02
   7.0046e-01 -8.3137e-01 -3.2008e-01  2.3762e-01  8.5504e-02  3.8651e-02
   9.7102e-01  3.4086e-01  2.1480e-01  3.9933e-01 -1.4825e-01  9.1914e-01
  -4.4743e-01  8.2750e-01 -2.5672e-01 -1.7211e-01 -2.0877e-01 -4.8200e-01
   9.2248e-01 -6.0722e-02 -6.6906e-01 -3.5686e-01  6.6323e-01 -1.0372e-01
   2.4440e-01 -8.7864e-01 -7.9824e-01  7.2664e-01 -4.6435e-01 -8.8003e-01
  -7.3817e-01  1.7419e-01  7.1878e-01  5.8518e-01 -2.1537e-01 -7.8437e-01
  -5.9351e-02  7.2785e-01 -3.9890e-01 -5.9514e-01  5.8374e-01  8.3696e-01
   9.2977e-01  7.1695e-01 -4.9144e-01 -6.5887e-02  4.1146e-01  8.9011e-01
   5.9501e-02 -9.1786e-01 -5.5206e-02 -4.8608e-01]
 [-4.8665e-01 -8.2566e-02  2.4770e-01  1.1922e-01 -7.9200e-03 -2.6992e-01
  -2.0929e-01 -5.2463e-01  8.1042e-01  9.1401e-02 -1.8161e-01  3.9487e-01
   7.4538e-01  2.9541e-01 -5.5279e-01  1.1609e-01  4.2208e-03  9.0072e-01
  -1.0188e-01 -8.2319e-01  1.6374e-01 -7.8757e-01  2.7152e-01 -9.6687e-01
  -1.4579e-01  1.1329e-01 -6.4784e-01  7.2173e-01 -6.1989e-01 -1.2216e-01
   8.1325e-01 -2.9226e-01 -2.5176e-01 -9.0414e-01 -7.0528e-01  9.9077e-01
  -5.9120e-01 -7.9287e-01 -6.2223e-01  7.5604e-02  1.7343e-02 -6.1855e-02
  -8.9201e-01 -7.0481e-01  4.5232e-01  6.9250e-01 -7.4311e-02 -4.9386e-01
  -9.2754e-01 -2.0989e-01 -1.0326e-01  1.6583e-01 -4.4821e-01 -8.1805e-01
  -3.2342e-01  9.6481e-02  7.4386e-01 -2.4487e-01 -6.3738e-01  8.3900e-02
   4.4546e-01 -5.8920e-01  4.1809e-01 -2.6115e-01]
 [ 3.1328e-01  2.3309e-01 -2.4357e-01  7.9248e-01  1.8111e-01 -3.7785e-01
  -8.1760e-01  5.1054e-01 -4.5034e-01 -6.2730e-01 -5.0789e-01  7.1459e-01
  -7.9560e-01  9.0512e-01 -5.3948e-01  7.1089e-01 -2.4402e-01  7.4471e-01
  -9.1679e-01 -1.9093e-01  1.2512e-01 -2.5185e-01 -4.3330e-01  7.5568e-01
   5.1692e-01 -8.7912e-01 -3.6250e-01  6.6762e-02 -9.5206e-01 -6.4756e-01
  -5.1437e-01 -3.0604e-01  3.4438e-01 -5.5405e-01  6.8359e-02 -3.4489e-01
  -6.9553e-01 -7.7781e-01  8.9385e-01 -9.1646e-01 -2.5039e-01  3.4500e-01
  -3.4480e-01 -5.4613e-01  6.4353e-01  5.0585e-01 -9.4646e-01  4.3828e-02
  -5.8353e-01 -1.9657e-01  4.0968e-01  4.9531e-01  1.6322e-02 -2.4050e-01
   4.1226e-01  6.9497e-01  2.9548e-01  8.5293e-01 -4.1447e-01 -4.0538e-01
   5.4200e-01 -2.9243e-01 -5.2801e-01 -7.7330e-01]
 [ 1.2693e-01  2.7288e-01  9.3703e-01 -2.6298e-01  4.6008e-01  1.4000e-01
  -9.7317e-01 -2.8627e-01  5.0061e-01 -2.7179e-02 -5.2384e-01 -4.4222e-01
  -1.3273e-01  8.1515e-01  3.6800e-02 -7.7616e-01 -8.0790e-01 -5.0259e-01
   9.1662e-01 -7.3839e-01 -3.5776e-02 -9.4441e-02 -9.8174e-01 -9.6003e-01
  -7.0515e-01  4.5497e-01  4.4504e-01  7.1304e-01  8.8042e-01  4.8548e-01
  -8.7635e-01 -7.9233e-01  2.3152e-01  5.4477e-01 -8.5829e-01  5.5476e-01
   3.4472e-01 -3.4764e-01  6.0050e-01 -6.6172e-02 -3.1719e-01 -5.4340e-01
   6.9101e-01  6.7262e-01  8.4145e-01 -1.4823e-01 -5.3100e-01  9.5263e-01
   1.3145e-01  1.2643e-01 -8.5693e-01 -1.3629e-01 -7.9038e-01 -4.7475e-01
  -7.7359e-01 -4.9900e-01 -2.0126e-01 -6.5565e-01  4.8220e-01 -8.9112e-01
  -8.5859e-01  7.8720e-01  3.8437e-02 -6.8152e-01]
 [-6.2220e-01 -9.3347e-01  8.3710e-01 -2.3978e-01 -5.2961e-01  1.2756e-01
   2.5774e-01  7.3115e-01 -2.9622e-01 -5.4342e-01  8.8278e-01 -7.4093e-01
   2.9860e-01 -7.7510e-01  3.3488e-01  1.4420e-01 -1.0557e-01 -8.0785e-01
   3.2338e-01 -6.3969e-01 -3.4951e-01  3.8306e-01 -3.2991e-01 -9.1268e-01
   1.9456e-01  2.5955e-01 -9.9084e-01  2.8482e-01  1.3868e-01 -2.5596e-01
   8.9165e-01  6.8672e-01  2.1405e-01 -6.1856e-01  6.2717e-01 -3.1587e-01
  -3.6875e-01 -6.7505e-01 -8.2698e-01  4.9081e-01 -8.6096e-01  5.8495e-01
  -4.8982e-01 -6.5475e-01  3.9611e-01 -3.5163e-01  2.9661e-01  7.1426e-01
   9.0189e-02  3.2845e-01 -5.5975e-01 -6.2331e-02  5.0250e-01  5.5612e-01
  -4.3403e-01 -7.2574e-01  2.1992e-01  2.7657e-01  8.8725e-01 -3.5571e-02
  -5.5506e-01 -9.5363e-01  5.1333e-01 -9.3572e-01]
 [ 2.4929e-01 -3.8623e-01  1.1412e-01 -4.2257e-01  1.5504e-01 -5.8025e-01
   8.2139e-02  1.0148e-01  9.6074e-01  4.0898e-01 -3.1166e-01 -7.7985e-01
  -6.0779e-01  8.5898e-01  1.3961e-01  8.6465e-01 -2.8554e-03  8.3384e-01
  -8.0079e-01 -7.6948e-01  3.1418e-01 -4.7505e-01 -9.4401e-01 -4.6283e-01
   3.8154e-01  6.1274e-01 -3.3819e-01  2.1078e-01 -5.6508e-01  9.7680e-01
   5.1079e-01  9.7048e-01  3.3422e-01  8.5593e-01  1.7327e-01  6.7652e-01
   8.0943e-01 -6.7932e-01  5.5083e-01  3.5251e-01 -2.8315e-02  3.9839e-01
   7.7822e-01  2.1021e-01 -9.5552e-01  5.7284e-02  3.4030e-01 -3.9969e-01
   5.7885e-01 -8.1233e-01  9.4418e-01 -9.8611e-01  2.5674e-01  8.7171e-01
  -5.8542e-02 -9.6504e-01  2.4251e-01  6.1136e-01 -5.3566e-01  8.5423e-01
  -5.2380e-02  3.7534e-02 -4.9802e-02  2.2420e-01]
 [ 9.2547e-01 -2.6441e-01  5.9973e-01  9.4796e-01 -6.6754e-01 -7.1324e-01
   8.5546e-01 -1.1537e-02  7.0806e-01  7.4068e-01  6.6566e-01 -6.6409e-02
  -4.2434e-02  1.6063e-01  6.8520e-01  7.8074e-01  2.4643e-01 -3.4111e-01
  -3.2679e-01  1.8139e-01 -6.0466e-02  8.5419e-01 -8.5722e-01 -7.6577e-01
   1.8313e-01 -1.7087e-01 -1.2074e-01  9.5985e-01  3.6864e-03 -6.6475e-02
   7.2670e-01  7.5768e-01  4.1893e-01  7.2054e-01  5.3485e-01 -5.4764e-01
  -2.0298e-01 -5.9392e-01 -6.8892e-01  7.1583e-01 -4.6383e-02  6.1730e-01
   7.9180e-01  7.2860e-01  6.9105e-01 -7.5072e-01  1.9806e-01  6.5635e-01
  -1.2533e-01  5.9947e-01 -7.9269e-01  7.2982e-01 -4.9948e-01 -2.4295e-01
  -7.6237e-01 -3.0360e-02 -6.2395e-01  3.7360e-02 -3.4893e-01 -1.0944e-01
  -2.9340e-01  6.1999e-01 -5.8255e-01 -8.6138e-01]
 [-3.0570e-01  6.7554e-01  8.0352e-01 -5.5853e-01  6.2871e-01  8.7204e-01
  -8.1056e-01 -4.7654e-01 -3.8525e-02 -8.5034e-01  5.7641e-01  4.7248e-01
  -6.5187e-01 -5.8885e-01 -1.7840e-01  9.3347e-01 -4.9676e-01 -6.3092e-01
  -6.4654e-02  7.5803e-01  7.1797e-02  2.5277e-01 -4.2243e-01  8.7620e-01
  -9.3548e-01 -8.6713e-04  9.2194e-01  1.2240e-01 -5.8907e-01  4.1682e-02
   9.6080e-01 -7.1043e-01  7.8619e-01 -2.9340e-01 -9.8498e-01  6.7662e-01
   2.5454e-01 -5.5084e-01 -7.9583e-01 -5.6672e-01  1.5332e-01  6.1211e-01
   5.3834e-01 -3.5086e-01 -5.7980e-01  9.1745e-01 -7.2610e-01  4.3534e-01
  -4.3714e-01 -7.0971e-01 -7.3003e-01 -9.5762e-01 -6.1129e-01  5.2230e-01
   1.8449e-01  2.8893e-01  9.8757e-01 -4.6653e-01 -5.7130e-01 -6.4273e-01
  -9.0254e-01  8.3667e-01 -5.3899e-01 -8.4173e-01]
 [ 1.3016e-01  6.5421e-01  8.0703e-02 -6.8514e-01 -4.4892e-01 -7.0121e-02
  -6.9314e-01 -1.9846e-01 -9.4903e-01 -3.1796e-01 -3.8938e-01  5.1461e-01
   2.3071e-01 -7.6556e-01  3.4863e-01  2.3494e-01  6.5958e-02  6.5191e-01
   3.5661e-01  4.2521e-01 -2.4057e-01 -4.6282e-01  3.0993e-01  2.4606e-01
  -5.5158e-01  1.9538e-02 -3.2002e-01  2.4940e-01 -8.7115e-01 -3.1407e-01
  -3.3326e-01 -8.4729e-01  4.8510e-01  8.5462e-01  8.5067e-01 -6.2364e-01
  -6.5624e-01  5.2658e-01 -5.6232e-01  8.8929e-01 -7.0018e-01  9.3194e-01
   9.4394e-01  7.1156e-02 -8.4834e-01  2.8987e-01 -2.8191e-01 -1.9147e-01
  -5.2297e-01  1.2679e-01 -8.4687e-01  3.8934e-01 -8.8293e-01  8.1459e-01
   8.2162e-01 -5.6145e-01 -2.5166e-01 -9.4437e-01 -8.9710e-02 -1.3279e-01
   6.8715e-01  8.5540e-01 -6.0027e-01  8.2904e-01]
 [ 8.4554e-01  7.3543e-01  2.1904e-01  7.0983e-01 -8.6190e-01 -6.2978e-01
  -1.7005e-01 -1.1848e-01  7.2176e-01 -5.6511e-01 -1.0948e-01 -3.2219e-01
   6.2341e-01  1.5085e-01  2.6845e-01  2.7050e-01  6.7359e-01  9.2223e-01
  -5.3073e-01 -2.0664e-01 -6.1084e-01  2.1187e-01 -9.9248e-01 -9.8422e-01
  -9.2592e-02 -9.1822e-01 -4.1650e-01  4.3601e-02 -5.5656e-01 -2.0347e-01
  -5.0985e-03  7.0167e-01  7.3950e-01  7.4199e-01 -8.1189e-01 -9.5507e-01
  -9.7605e-01 -5.5022e-01  5.7850e-01 -3.1633e-01 -6.3663e-01  7.9280e-02
   3.4294e-01  3.6662e-01  8.9977e-01  9.7302e-01 -8.4337e-01  7.8414e-01
   5.6336e-01 -7.8556e-01  7.8746e-01  6.7458e-02  3.3350e-01 -4.7430e-01
   9.8566e-01  3.8305e-01 -8.9943e-01 -6.3265e-01  8.5619e-01 -6.9252e-01
   9.3029e-01  7.6701e-01  3.0317e-01 -4.8076e-01]
 [-4.3535e-01 -4.8113e-01  7.7447e-01 -2.7084e-01  5.8316e-01 -5.3036e-01
   3.2784e-01 -6.5748e-01 -4.7308e-02 -5.1232e-01 -9.3180e-01  2.6141e-01
  -1.7178e-01  1.9898e-01  6.4577e-01 -4.7597e-01 -2.4518e-01  3.2396e-01
  -9.0690e-01 -2.7353e-01 -5.4613e-01 -5.9872e-01  3.1683e-01 -1.0867e-01
   7.5489e-01 -6.3190e-01 -7.8261e-01 -7.2643e-01  6.1228e-01  5.7684e-01
   2.7924e-01 -2.1709e-01 -6.7711e-01  8.8393e-01 -4.9375e-01  6.0019e-01
   8.6780e-01  9.9176e-01 -4.9080e-01  2.7798e-01 -1.9741e-01 -3.4180e-01
  -1.6894e-01  9.4998e-01  7.9397e-01  8.7480e-01 -6.4195e-01  8.1136e-01
  -5.5759e-01  9.0675e-01 -9.7030e-02  1.5684e-01 -6.8479e-01  2.3331e-01
  -8.1574e-01  2.2698e-01  4.4455e-02 -4.5498e-01 -3.7048e-01  1.4043e-01
   6.4168e-01 -2.5322e-02  4.2788e-02 -1.8949e-01]
 [ 6.4109e-02  3.0437e-01 -3.7844e-01 -6.5623e-01  9.7725e-01  7.2074e-01
  -4.8767e-01 -9.9579e-01  1.7094e-01 -5.4037e-01 -4.0915e-01  2.0477e-01
  -3.5751e-01  4.2854e-01  7.6535e-01  3.4524e-01  3.0107e-01  9.7199e-01
  -8.3867e-01 -3.8414e-01 -4.6276e-01  3.9915e-01  9.2859e-02 -6.5012e-01
  -8.5423e-01  9.1455e-01  1.4789e-01  7.4081e-01 -3.4640e-01  1.8697e-01
   1.7817e-01 -9.3381e-01  6.2323e-01  7.4084e-01 -1.4087e-02 -8.0405e-01
   4.4152e-01  7.6192e-01 -3.2055e-01 -9.8397e-01 -2.1900e-01 -5.5381e-01
  -8.9215e-01 -3.8355e-01  4.0810e-01 -9.1157e-01  9.4160e-01 -2.8350e-01
  -5.3477e-01  8.1131e-01  6.9384e-01 -6.8572e-01  6.4341e-01  6.8680e-02
   9.5676e-01  2.7603e-01 -2.1233e-01  9.1393e-01 -8.4123e-01  1.0960e-01
  -6.4720e-01  9.0797e-01  6.6581e-01  4.7051e-01]
 [-9.2997e-01 -6.1348e-01 -6.7087e-01  7.2694e-01 -6.4019e-01 -6.6859e-01
   3.9507e-01 -7.6232e-01  5.2481e-01  5.5446e-01 -8.6928e-01  8.5303e-01
  -7.1002e-01 -4.7964e-01  1.8291e-01  1.6951e-01 -8.1423e-01  9.0485e-01
   8.3710e-01  3.4853e-01  2.7537e-01 -5.1404e-01 -1.3160e-01 -2.1166e-01
  -8.2670e-01 -4.2763e-01  2.7254e-01  4.2966e-01 -8.2638e-01  6.0716e-02
  -5.0339e-02 -7.8055e-01  4.1060e-01 -3.0869e-02 -4.3610e-01  2.7675e-01
   8.2324e-01 -3.9546e-02 -6.5433e-01  5.7536e-02 -7.3317e-01 -3.9019e-01
  -8.4908e-01 -8.4140e-02 -8.0109e-01 -8.3058e-01 -9.3806e-01 -6.2344e-01
  -9.0049e-01 -4.4192e-01 -3.4136e-01 -6.6631e-01 -5.4796e-02  5.6824e-01
   4.7905e-01  9.3876e-01  7.8551e-01 -5.6807e-02 -7.5505e-01 -3.2824e-01
   5.1937e-01  4.1338e-01 -6.9670e-01  9.0417e-01]
 [-7.5790e-01  9.8633e-01 -1.5001e-01 -1.5262e-01  5.2502e-01 -7.7954e-01
   6.0932e-01 -9.4782e-01  6.7165e-01 -3.8383e-01  1.9587e-01  2.7074e-01
   7.5312e-01  3.0733e-01  2.6129e-01 -5.2061e-01  8.7558e-01 -7.9104e-01
   9.1194e-01  2.2377e-01  9.2611e-01  2.1480e-01 -7.2424e-01  9.9327e-01
   2.7900e-02 -3.0033e-01  7.8350e-01 -5.0863e-01 -9.0440e-01  6.7633e-01
  -4.3480e-01 -5.1337e-01  4.9186e-01 -9.5591e-01 -2.7377e-01  3.5875e-02
   8.7614e-02  5.7906e-01  4.7731e-01  3.0985e-01 -7.3279e-01  2.2562e-01
   8.8224e-01  7.1832e-01 -4.3682e-01 -4.4021e-01  9.2800e-01  1.1327e-01
  -9.2394e-01 -8.7748e-01 -4.0652e-01  4.7442e-01  8.3361e-01 -1.4171e-01
  -1.9696e-01  3.9174e-02 -7.5143e-01 -9.8522e-01  7.8636e-01  4.1881e-01
  -6.9803e-01 -6.0939e-01  5.9175e-01  3.1368e-01]
 [ 1.7490e-01  3.9401e-01  4.0748e-01 -4.3386e-01  8.5459e-01  1.3127e-01
  -8.4349e-01 -6.5341e-01  6.5799e-01 -9.1321e-01 -5.8528e-01  7.2656e-01
  -6.3073e-01  5.5308e-01 -6.2523e-01 -8.9478e-01  8.9326e-01 -3.2151e-02
   1.8552e-01 -2.8411e-01 -7.5213e-01  5.2402e-02  3.5562e-01 -9.9087e-01
  -4.7366e-02  7.7893e-01 -8.5399e-01 -5.0421e-01 -1.6412e-01  3.0290e-01
   3.8946e-01 -6.8376e-01 -1.3205e-01  1.3217e-01 -2.5801e-01 -4.1837e-01
   6.9575e-01 -9.5421e-01  8.5552e-01  6.9866e-02  5.9861e-01  3.5516e-02
   1.6885e-01  9.2000e-02  4.4093e-02 -4.4349e-01 -7.3890e-01  2.5048e-01
  -5.5131e-01  3.9818e-01  4.7735e-01  2.0084e-01  1.2288e-01 -3.2005e-01
  -9.6956e-01  7.1398e-01 -1.0924e-01 -5.8557e-01  2.1146e-01 -2.8274e-01
  -3.1323e-01 -3.2096e-01 -3.8728e-02 -6.1259e-01]
 [-8.7346e-01 -1.1599e-01  2.2038e-01  8.6529e-01 -2.1465e-01  1.8275e-01
   1.1807e-01  2.5297e-01 -7.1574e-01  1.3394e-02  4.8597e-01 -3.7266e-02
  -9.7136e-01 -9.8947e-01 -6.6217e-01 -7.9795e-01  5.6667e-01 -9.4434e-01
  -1.1091e-01  1.1723e-02 -7.5691e-01 -8.1648e-01  1.5572e-02  6.2158e-01
   2.0577e-01  6.7078e-01 -9.8331e-01  5.4566e-01 -1.5302e-01  3.0195e-01
   2.5251e-01  6.1853e-01 -7.8790e-01 -5.0536e-01 -2.0276e-01  2.9685e-01
   2.8061e-01 -8.2114e-01  1.0402e-01 -1.6295e-01  6.0181e-01 -3.9278e-01
  -6.1991e-01  1.6480e-01  4.6694e-01  1.0143e-01 -7.1954e-01  7.4693e-01
  -6.2350e-01 -8.9307e-01 -7.9825e-01 -9.5620e-01  6.8009e-01 -1.3382e-01
  -5.3692e-01  2.1894e-01 -9.2303e-01  9.2282e-01  8.6051e-01  9.0114e-01
   2.0728e-01 -7.9129e-01  7.7475e-01 -7.1998e-01]
 [-5.0405e-01 -3.6435e-01 -2.9596e-01  7.6792e-02  5.6907e-01  6.2979e-01
  -7.5402e-01  5.8386e-01  7.8969e-01 -9.4202e-02  4.6262e-01 -7.9019e-01
   8.2861e-01  2.4036e-01 -5.5794e-01 -2.2394e-01  1.6039e-01  6.0840e-01
   8.4346e-01 -7.0906e-01 -4.9339e-01 -5.2476e-02  8.1099e-01 -1.8360e-01
   1.2743e-01 -5.3570e-01 -2.9380e-01  8.3549e-02 -1.1986e-01 -4.6248e-02
  -6.0494e-01  7.0151e-02 -2.0108e-01  7.7429e-01  1.2139e-01  8.4615e-02
   2.9371e-02 -6.4137e-01 -3.8447e-01  8.1952e-02  1.0245e-01  1.5836e-01
  -5.8016e-01 -3.7422e-01  2.3825e-01 -1.4526e-02 -1.4969e-01 -3.6896e-01
  -9.6703e-01  6.7426e-01 -9.0028e-01 -5.1918e-01 -4.7094e-01  2.2696e-01
  -9.7588e-01 -9.8756e-01  2.5706e-01  4.5700e-01 -6.6247e-01  2.0787e-01
   5.4148e-01  6.0434e-01 -8.2573e-01  8.4572e-01]
 [ 8.2127e-01 -5.8808e-01  3.2178e-01 -6.5713e-01 -2.2847e-01  6.5432e-01
  -3.9389e-01  8.7168e-01  9.7860e-01  8.6971e-02  3.9965e-01 -5.0516e-01
   2.1114e-01 -8.6052e-01  3.9215e-01  7.7617e-01 -4.0565e-01  9.2818e-01
   6.2089e-01  5.1615e-01 -6.4078e-01  2.4970e-01  8.8519e-01 -2.2165e-01
  -3.8508e-01  5.9748e-01 -6.8252e-01  7.4750e-01 -5.5046e-01 -1.5998e-01
   9.1534e-02  9.0728e-02 -1.0397e-03  3.5572e-01  5.4845e-01  6.5103e-01
   1.0054e-01 -8.1313e-01 -7.8303e-01 -1.7778e-01  6.5839e-01 -6.0852e-01
  -6.4894e-01  6.5429e-01 -2.2870e-01 -1.1449e-02 -6.0954e-01 -7.0485e-01
   8.8907e-01 -3.6898e-01  4.2966e-01  5.8417e-01 -8.6667e-01 -9.3908e-01
  -7.2433e-01 -5.0198e-01 -8.3824e-01 -5.9631e-01  6.9287e-01 -4.0966e-01
  -8.6156e-01  2.4070e-01  7.0901e-02 -3.5889e-01]
 [-2.6306e-01 -7.0469e-01 -2.0414e-01 -9.8827e-01  5.9378e-02 -5.2731e-01
   1.5941e-01  9.4429e-01 -9.1265e-01  1.8235e-01 -4.9550e-01  5.0181e-01
   2.0413e-01  9.9335e-01  1.9747e-01  6.8111e-01 -4.3017e-01  1.8635e-01
   6.9994e-01 -6.3225e-01 -1.5517e-02  5.2411e-01  8.0081e-01 -3.9345e-01
  -3.0830e-01 -5.7467e-01  5.9505e-01 -9.0239e-01  4.5739e-01 -8.5906e-01
   6.8668e-01  2.1583e-01 -1.2005e-01 -5.0848e-01  7.3991e-01  5.8885e-01
  -7.4537e-01  1.1727e-01  3.4520e-01 -6.9627e-01 -7.8014e-02  3.8255e-01
  -5.9106e-01  1.0427e-01  7.3895e-01 -6.2945e-01 -7.2093e-01 -3.4366e-01
  -5.2802e-01  2.8266e-01  6.2924e-01  9.4458e-01  6.2364e-01 -8.4506e-01
  -2.2391e-01  3.9663e-01  8.2692e-01  5.8784e-01 -9.5625e-01  9.2410e-01
   8.7566e-01  4.5649e-01  2.5783e-01 -8.0049e-01]
 [ 2.9746e-01  4.1042e-01  6.6314e-01 -9.4569e-01  6.0052e-01  4.4102e-01
  -6.1441e-01 -5.5521e-01 -2.1651e-01 -9.7918e-01 -2.4747e-01 -6.9879e-02
   2.1594e-01 -9.2398e-01 -3.8730e-01 -1.0480e-01 -3.4623e-01  8.2140e-01
   4.2791e-01  9.6486e-01 -3.6263e-01  3.4233e-01 -8.8844e-01 -4.2284e-01
  -8.5638e-01 -9.4023e-01  9.1590e-01 -2.9578e-01 -5.3068e-01  2.1292e-01
  -1.0511e-01  7.1199e-01  3.9167e-01 -7.6322e-01 -3.4608e-01 -7.9198e-01
  -7.2703e-01 -4.0870e-01  2.4640e-01 -6.8820e-01  2.6866e-01  5.8646e-01
  -8.5174e-02 -5.1271e-01  1.1132e-01 -1.4333e-01  6.0054e-01  1.7417e-01
   4.6200e-01  8.8079e-01  5.8318e-01 -5.8362e-01 -6.9859e-01  8.1587e-01
  -4.7329e-01 -9.5797e-01  5.8297e-01  4.0249e-01  9.9262e-01  6.0570e-01
   5.5440e-01 -6.7440e-01 -7.6286e-01 -9.9046e-01]
 [-3.0152e-01 -8.4970e-01 -1.0125e-01  1.0844e-01  5.2478e-01 -2.0169e-01
  -2.2852e-01  4.9161e-01  6.1491e-01 -9.1466e-01 -4.9518e-01  6.8994e-02
  -5.7305e-01 -4.9005e-02  7.5216e-01 -3.9928e-01  4.7812e-01 -5.0124e-01
   6.0506e-01 -8.1812e-01 -9.2754e-01  8.5483e-01 -8.4935e-01  7.2643e-01
