W1:
[[-5.2706e-01 -1.7796e-01  1.0374e-01  7.2835e-01 -8.6290e-01  8.0768e-01
   8.2110e-01 -9.3651e-01  9.7242e-01 -7.6804e-01  1.2926e-01 -7.4858e-01
  -8.1306e-01  8.3737e-01  1.3229e-01  7.4655e-01]
 [-8.2496e-01 -5.0651e-01 -9.8399e-01 -5.9652e-01 -9.7870e-01  9.6280e-01
   9.9135e-01 -8.0010e-01 -9.5257e-01  1.1381e-01  4.0026e-01  8.5839e-01
   6.8192e-01 -3.1703e-01  6.7908e-01  4.5571e-01]
 [-1.2358e-01  2.8325e-01  8.8505e-01 -9.9832e-01  1.5736e-01 -6.3850e-01
   9.7844e-02 -2.5736e-01 -4.6633e-01 -4.0306e-01  2.6356e-01  7.3244e-01
  -6.5284e-01 -7.5615e-02 -9.8965e-01 -3.5110e-02]
 [ 3.7785e-01  6.9065e-01 -6.3801e-01  6.9032e-03 -3.1648e-01 -4.6494e-01
   7.3536e-01 -2.6202e-01  6.5763e-02 -5.3137e-01 -9.1206e-02 -2.5247e-01
  -2.0344e-02 -1.7625e-01 -4.4207e-01 -1.7129e-01]
 [-8.9170e-01  9.2731e-01  7.7075e-01  5.9714e-01  5.3300e-01  8.8813e-01
   4.0605e-01  4.1418e-01  3.8191e-01 -1.8571e-01  4.6789e-01 -2.8054e-01
   3.9439e-01 -2.4320e-03  8.2162e-01 -5.3144e-01]
 [ 6.4063e-02  2.9818e-01  4.8345e-01 -9.3027e-01 -5.5843e-01  7.0782e-01
   1.8536e-01  1.5345e-01  9.8815e-01 -1.0152e-01  8.8342e-01 -1.1482e-01
   5.7322e-01  3.7823e-01  1.4508e-02  6.3943e-01]
 [ 1.0463e-01  8.0036e-01  8.6164e-02  8.6533e-01 -6.2485e-01 -8.8926e-02
   6.5292e-01  4.2844e-01 -8.7546e-01  4.6655e-01 -7.0154e-01  2.0982e-01
  -9.2952e-01  1.9719e-01  2.8727e-01 -1.5842e-01]
 [ 5.1405e-01  3.1546e-01 -1.7233e-01  7.7958e-01 -8.9888e-01 -8.1486e-01
  -5.7856e-01  6.3393e-01  7.0418e-01  2.6957e-01 -8.9387e-01  7.0940e-01
   3.8661e-01 -9.1986e-01  9.6888e-01 -7.6581e-01]
 [ 9.6551e-01  1.7211e-01 -8.8105e-01  3.5397e-01  4.7546e-01  9.0844e-01
   6.2180e-02 -1.1127e-01  8.6057e-01  7.8838e-01 -8.9481e-01 -8.0981e-02
  -1.7918e-01  9.6228e-01 -8.9361e-01 -7.6213e-01]
 [-3.7586e-01 -8.8533e-01  2.9556e-01  2.4920e-02 -7.8810e-01  5.8687e-01
   1.1961e-01  7.7868e-01 -9.2879e-01  6.7424e-01 -9.9822e-01 -3.0931e-01
   6.1892e-01  1.0030e-01  1.4611e-01  9.8521e-01]
 [ 2.2768e-01 -6.1029e-01  5.9063e-02  4.5232e-02 -3.3300e-02  6.8477e-01
   4.9939e-01 -7.3116e-01 -6.4936e-01 -6.1841e-01  4.2206e-01 -8.6747e-01
   2.8595e-01  7.3143e-01 -5.9178e-01 -4.1206e-02]
 [ 8.1276e-01  3.1837e-01  5.8433e-01  4.6167e-01  7.0294e-01  8.9373e-01
   3.9402e-01 -1.8579e-01 -7.8564e-01  2.7703e-01 -1.4579e-01  9.4257e-01
   2.1765e-01  9.4015e-01  4.1066e-02  3.7635e-01]
 [-3.7000e-01  5.7229e-01 -9.4649e-01  7.2213e-01  8.1912e-01 -7.2973e-01
   5.0294e-01  7.5664e-01  5.7378e-01 -4.2034e-01  9.9896e-01 -7.2086e-01
  -5.0628e-01 -7.5927e-01 -8.7514e-01  1.9185e-01]
 [ 6.5027e-01 -1.2026e-01  1.9740e-02  2.9444e-01 -2.2318e-01 -8.0998e-01
   1.9106e-01 -4.3856e-02 -9.1358e-01 -3.9451e-04 -5.1175e-01  4.2654e-01
   9.5877e-02  6.0344e-01  3.6599e-01 -6.0705e-01]
 [-5.5177e-01  7.3902e-01 -4.4017e-01  2.6463e-01  6.2124e-01 -4.2075e-01
   8.1253e-01 -2.5430e-02  7.3424e-01 -5.6374e-01  5.8937e-01 -7.6192e-01
  -9.1078e-01 -9.2331e-01  3.9306e-01  9.4490e-01]
 [-8.9018e-01 -7.8790e-02 -4.6166e-01  7.8637e-01 -6.3597e-01 -2.8772e-01
   5.5601e-01  3.9983e-01 -3.5733e-01 -9.1873e-01  8.2055e-03  4.6134e-01
   7.3288e-01 -4.3409e-01  7.6021e-01  3.6918e-01]
 [ 8.7707e-01 -9.6097e-01  9.8666e-01  8.7987e-01 -1.1914e-01 -3.8739e-01
   2.7437e-01 -9.4417e-01  5.8892e-01 -9.4995e-01  9.1443e-01  2.1761e-02
  -5.1807e-01 -4.3107e-01  7.7212e-01  9.3632e-01]
 [ 6.1947e-01  3.9861e-01  3.4653e-01 -2.4552e-01 -4.3585e-01  2.6721e-01
   1.9550e-01 -1.2948e-01  5.3331e-01  6.4815e-02 -5.7654e-01  2.7681e-01
   7.8786e-01 -7.9216e-02 -2.6891e-01 -7.0675e-01]
 [-6.4110e-01  2.7290e-01 -9.3711e-01 -1.6760e-01  2.5812e-01  3.3595e-01
  -9.8003e-01  4.9745e-02 -3.7855e-01 -1.3257e-01  5.6786e-01 -7.7990e-01
  -3.8647e-01 -2.6103e-01  5.6643e-01 -5.6272e-01]
 [-7.7712e-01 -2.4729e-01  9.5883e-01  9.3839e-01  4.5642e-01 -9.6088e-01
   6.6835e-01  7.5717e-01  5.6752e-01 -5.6046e-01 -6.2372e-01 -1.1722e-01
   8.2719e-01 -2.8833e-01  3.6869e-01  5.4203e-01]
 [ 2.3824e-01  8.2012e-01 -9.5529e-01 -9.9595e-01 -2.6380e-01  4.1795e-01
  -1.9914e-01  1.8662e-01 -3.0662e-01  2.3331e-01 -5.4717e-01 -8.9037e-01
   5.0239e-01 -4.6859e-01 -7.4972e-01 -4.3454e-01]
 [-6.0103e-01 -9.4336e-01 -5.4001e-01  3.1785e-01  5.4869e-01 -6.6491e-03
   5.4357e-02 -4.4880e-01 -7.3347e-03  3.5597e-01  5.0187e-01 -5.9400e-01
  -4.6392e-02 -4.5824e-01  7.8054e-01  6.9444e-01]
 [ 8.0401e-01  3.9308e-01 -9.5048e-01 -8.7709e-01  1.2132e-01  8.1841e-01
  -5.0670e-01 -7.7330e-01  7.0781e-02  6.5977e-01  9.4813e-02  4.1188e-01
  -5.6097e-01 -5.4509e-01 -8.3190e-01 -9.9888e-02]
 [-8.8546e-01 -4.6497e-01  3.5150e-01 -5.2839e-01  4.8013e-01 -3.3806e-01
  -6.1845e-01 -4.8688e-01  7.9080e-01 -1.3323e-01 -4.9351e-01  2.3444e-01
   1.7330e-01  1.1859e-01  3.2084e-01  7.8223e-01]
 [ 8.3546e-01 -6.7264e-01  2.9204e-01 -9.2099e-01 -5.3286e-01 -3.6205e-01
   5.4392e-01 -5.6330e-01 -3.8698e-01 -5.1782e-02  1.5330e-01  4.3589e-01
   9.6711e-02  1.7193e-01 -1.6792e-01 -1.8904e-01]
 [-6.5552e-01 -7.5462e-01  4.6592e-01  9.7496e-01  6.4070e-01 -7.7679e-01
   8.8332e-01 -6.7625e-01 -4.7567e-03 -5.4843e-01 -8.0336e-01  7.5822e-01
  -1.6113e-01  1.3127e-01  9.7503e-01 -8.5345e-02]
 [ 8.2372e-02  3.5939e-01  7.2099e-01 -9.9867e-01 -5.7632e-01  5.1643e-01
  -9.6591e-01  4.0046e-02  6.1731e-01  4.7535e-01  4.4371e-01 -4.7188e-01
   6.9499e-01 -1.7956e-01  1.0450e-01  2.0464e-01]
 [-8.3732e-01 -1.8222e-01  7.5614e-01 -1.9131e-01 -1.1415e-03 -2.7741e-01
   2.8267e-03 -1.6678e-01 -8.7663e-01  2.3484e-01  4.3611e-01 -3.3001e-01
  -9.9961e-01 -3.9244e-01  3.4725e-01 -6.7350e-01]
 [ 1.9881e-01 -5.2678e-01 -3.0042e-01 -7.5885e-01 -7.2974e-01 -6.6419e-01
  -2.2764e-02 -6.8623e-01  9.1931e-01 -1.0227e-01 -4.0810e-01 -4.2484e-01
  -5.7789e-01 -4.3881e-01 -1.7061e-01  9.8750e-01]
 [ 5.5271e-01 -8.1682e-01 -8.4552e-02 -9.7000e-01 -6.4411e-01 -8.1973e-01
   9.7078e-02  9.6492e-01  7.8719e-01 -1.0593e-01  6.4201e-01 -8.4389e-01
  -9.8949e-01  3.0796e-01 -5.5301e-01  3.4530e-01]
 [-8.0925e-01  1.9332e-01 -5.2313e-01  9.2319e-01 -9.6564e-01  7.1365e-01
   6.8441e-01 -2.3749e-01  9.5625e-01 -1.6361e-02 -4.5659e-01  4.1081e-01
   3.1745e-01  4.6080e-01  6.8839e-01 -2.3409e-01]
 [-6.9520e-01 -9.4446e-01  7.7371e-01 -2.3981e-02  4.8774e-01 -5.0452e-01
  -7.0177e-01 -1.2843e-01 -7.8141e-01 -9.6310e-02 -6.2802e-01  9.7321e-01
  -3.3655e-01  5.2103e-01  8.1556e-01 -9.0540e-01]
 [-3.2614e-01 -9.2683e-01  6.9359e-01 -3.8049e-01  1.1694e-01 -3.8195e-01
  -6.6344e-01  6.4943e-02  5.4782e-01 -7.7071e-01 -6.9665e-01  6.1434e-01
  -6.9271e-02 -3.9256e-02  3.1484e-01 -9.5570e-01]
 [-1.0069e-02 -7.8002e-01  4.6169e-01  3.7893e-01  4.5807e-01  3.8162e-01
   2.1601e-02 -3.2971e-01 -4.2543e-01  9.8419e-01  3.2262e-01  9.3315e-01
   7.7121e-01 -7.6612e-01  4.6987e-01 -2.7057e-01]
 [ 8.0726e-01  4.8933e-01 -3.9217e-01 -6.3050e-01  7.9832e-01  3.5921e-01
   8.4531e-01  3.1997e-01  5.5353e-01  7.9224e-01  2.7425e-01 -8.2886e-01
   4.8338e-01 -9.0043e-01 -6.4330e-01 -5.7958e-01]
 [-6.0908e-01  3.0165e-01  2.6227e-03 -2.4903e-01 -3.8997e-01  5.2848e-01
  -4.8305e-01 -8.7384e-01  1.7764e-01 -5.0877e-01  8.9272e-01 -3.3930e-01
   4.2404e-01 -4.2323e-01 -3.5345e-01 -8.6577e-02]
 [-5.1349e-01  1.6661e-01  3.4365e-01 -7.0101e-01 -2.9699e-01  3.6193e-01
  -8.0871e-01  5.6955e-01  3.1684e-01  8.8238e-01  5.6039e-01 -1.3333e-01
   2.5917e-01  3.8893e-02 -8.7085e-02  5.2545e-01]
 [-3.5752e-01 -1.0877e-01 -4.5625e-01 -4.4082e-01 -7.0572e-01 -2.6367e-01
  -4.5788e-01  4.4078e-01 -9.0501e-01  7.7116e-01  3.4770e-01  6.4994e-01
   6.6699e-01  2.2464e-01  6.6056e-01 -8.1222e-01]
 [ 2.1185e-01 -7.9839e-01 -1.6642e-02  8.1685e-02 -6.6099e-01 -9.1921e-01
   5.2171e-01 -1.1250e-01 -3.5062e-01 -2.6741e-01  7.9469e-02  2.4564e-01
  -6.5631e-01 -4.3285e-01 -6.3787e-01 -2.3164e-02]
 [ 3.9214e-01 -6.5058e-01 -5.0735e-01 -8.6772e-01 -5.6432e-01  1.7823e-01
  -6.6514e-01  6.7426e-01 -6.4813e-01  3.4171e-01 -8.4196e-01 -7.5895e-01
  -8.5965e-01  6.6825e-01  8.6894e-01  2.6651e-01]
 [ 6.5004e-01  1.9561e-01  8.7735e-01  9.0955e-01 -2.7954e-01  9.3818e-01
   2.5199e-01 -1.9970e-01 -1.3606e-01 -4.9417e-01 -7.1496e-01  6.7955e-01
   2.0162e-02 -7.0191e-01 -6.6406e-01  3.8589e-01]
 [ 7.6858e-01  7.2769e-01 -3.4761e-02  2.4842e-02 -4.1916e-02  1.4001e-01
   4.4615e-01  8.8244e-01  4.7670e-01 -7.5695e-01  3.2195e-01  5.6116e-01
  -8.9229e-01  6.0289e-01  5.6931e-01 -8.1639e-01]
 [-3.2798e-01  6.9541e-01  8.7553e-01 -3.3385e-01  2.4096e-01 -7.0621e-01
   2.7098e-01  2.5722e-01  4.4286e-01 -2.6868e-01 -7.0436e-01  6.6207e-01
   8.0394e-01 -6.4300e-01 -5.0012e-01 -3.4399e-01]
 [ 2.6901e-01 -1.4669e-01  8.2873e-01  1.4772e-01 -4.2509e-02 -5.2838e-01
  -5.3794e-01  5.0597e-01 -8.4833e-01 -2.7203e-01 -8.7052e-01 -9.8037e-01
   1.2167e-02  6.6844e-01  2.3633e-01  5.7450e-01]
 [-5.1726e-01  4.3864e-01  4.0390e-01  7.3631e-02 -3.8219e-01  5.4398e-01
  -9.7001e-01  8.0348e-01  4.6365e-02 -6.9485e-01  5.6424e-01 -3.9443e-01
   8.0493e-01  4.5137e-01  8.6478e-01 -4.1422e-01]
 [-3.2431e-01 -1.4645e-02 -5.0060e-01  7.5365e-01  3.8756e-01  5.9080e-01
   5.5618e-01 -9.7061e-01 -3.1215e-01  6.4249e-01  5.8745e-01 -1.3365e-01
  -4.4110e-01 -3.7822e-02  5.6388e-01  8.0262e-01]
 [-8.2282e-01  8.7391e-02 -7.7235e-01  3.9290e-01  8.3320e-01 -5.2816e-01
   9.8493e-01 -2.3904e-01 -7.7522e-01 -3.9451e-01 -4.3728e-01 -7.4604e-01
   4.4875e-01 -7.4433e-02 -2.6146e-01  6.9507e-01]
 [-5.3126e-01 -9.0109e-01  5.4352e-02 -8.4363e-01 -1.7221e-01  6.0755e-01
   4.3085e-01 -9.5115e-01  8.3157e-01  8.5565e-01 -4.7953e-02 -7.2139e-01
  -2.1626e-01  1.1674e-02 -1.1629e-01  7.2388e-01]
 [ 6.3409e-01  2.4213e-01  8.7376e-01 -6.1060e-01 -8.7441e-01  7.1767e-01
   4.5018e-01 -6.8295e-01 -6.7248e-01 -9.2017e-01 -8.9130e-01 -2.4133e-01
   4.0781e-01  1.2157e-01  9.1186e-01 -6.9500e-01]
 [-5.4815e-01  7.0794e-01  4.8979e-01 -8.5239e-01 -9.0318e-01  8.1043e-01
   8.1911e-01  4.5975e-01  6.3078e-01  8.8116e-01 -7.8131e-01  9.8474e-02
   5.1713e-02  2.8761e-01  4.0437e-01 -6.4135e-01]
 [ 6.8335e-01 -8.0789e-01 -2.1073e-01 -5.0991e-01 -1.5720e-01  1.1872e-01
  -5.4745e-01  9.6963e-03  3.1827e-01  4.0579e-01 -4.0133e-01  4.6772e-01
  -1.1384e-01  6.1432e-01  3.3429e-01  5.9990e-01]
 [-7.1821e-01 -3.2815e-01 -8.3200e-01 -8.8041e-01  7.4832e-01  6.2525e-01
   2.1984e-02  3.6188e-01  1.7796e-01  8.5030e-01  9.6698e-01 -8.8110e-01
   7.8391e-01 -1.0816e-01  6.8431e-01 -8.4871e-01]
 [ 7.4591e-01  1.8898e-01  7.8238e-01 -3.4895e-01 -2.6075e-02 -9.1862e-01
  -9.1125e-01 -8.4055e-01  2.1576e-01 -7.1003e-01  6.8913e-02 -4.3832e-02
   3.9037e-01  2.3625e-03 -7.8384e-01  5.4840e-01]
 [ 4.3831e-01  1.3449e-01 -3.5692e-01  4.7632e-01 -1.6361e-01 -6.3671e-01
  -1.5204e-01 -9.2473e-01 -8.8213e-01 -9.9328e-01 -1.9554e-01 -6.9433e-01
  -5.7119e-02  6.3179e-01 -9.1174e-01  6.7767e-02]
 [-7.0339e-01 -5.3161e-01 -2.7924e-01 -4.6841e-01 -2.5376e-01 -9.4485e-01
   5.4623e-01 -9.2571e-01  7.9612e-01  5.8783e-01  3.9394e-01 -1.4192e-01
   1.2805e-01  8.8239e-01 -3.7589e-01 -8.6567e-01]
 [ 1.6369e-01  5.1278e-01  6.3391e-01 -2.0981e-01  7.3988e-01 -3.3757e-01
   7.7437e-01 -2.2794e-01 -6.9788e-01  4.4836e-01  7.1325e-01 -3.7070e-01
  -5.0831e-01  4.2655e-01 -8.7239e-01  2.6736e-01]
 [ 4.3714e-01 -2.7741e-01 -8.2209e-01 -1.9266e-01 -2.3545e-01 -9.4820e-01
  -4.2898e-02 -6.9457e-01 -1.7281e-02 -1.2198e-01  3.8811e-02 -4.6490e-01
  -2.3295e-01 -7.4414e-01 -3.7224e-01  7.2414e-01]
 [ 5.7015e-01  8.4511e-01 -6.6375e-04  1.7177e-01  8.2582e-01 -2.0136e-01
  -3.6620e-01 -8.2867e-01 -2.0579e-01  7.0157e-01  3.5750e-01  6.6574e-01
  -1.1156e-01  6.1498e-02 -2.5017e-01 -8.5971e-01]
 [ 1.5850e-01  3.5703e-01 -5.7176e-01 -9.2581e-01 -5.8941e-01 -5.3430e-01
  -3.5515e-01 -8.8553e-01  6.3056e-01  9.3727e-01 -9.3274e-02 -7.9314e-01
  -2.6069e-01  4.8889e-02  3.2037e-01 -1.7654e-01]
 [-4.3796e-03  7.2766e-01 -6.1747e-01 -1.4769e-01  6.2676e-01 -8.0385e-01
   3.3192e-01  3.3353e-01 -6.8568e-01 -5.4590e-01  9.8522e-01  7.4623e-02
  -3.8792e-01  3.3264e-01  8.1250e-01  4.0790e-01]
 [-9.8688e-01 -4.7805e-01 -4.5539e-01 -6.1959e-01  3.0861e-01 -6.5320e-01
  -8.4754e-01  8.3572e-01  7.6683e-02  5.8880e-01 -8.7839e-01  5.1790e-01
   7.2114e-01 -7.8071e-01  3.3414e-01 -3.6450e-01]
 [-7.5667e-01 -9.2831e-01 -5.4120e-01  1.4787e-01  8.8032e-01  7.5804e-01
   9.2442e-01 -9.8568e-01 -5.8430e-01 -1.8189e-02 -5.3502e-01 -9.2646e-01
  -9.8167e-01 -7.6165e-01  2.6401e-01 -8.9364e-01]
 [ 5.4260e-01  5.7638e-01 -1.8355e-01  4.0598e-01 -2.1150e-01  8.8078e-01
   2.9223e-02  8.3965e-01 -2.0727e-01 -7.0638e-02  7.1435e-01 -7.9515e-01
  -6.4956e-01  9.7141e-01  3.9802e-01 -3.0846e-01]
 [ 5.9003e-01  5.0762e-01  2.8475e-01 -3.6690e-02  5.3737e-01  5.3122e-01
   4.0447e-01 -5.8302e-01 -9.0086e-01 -3.3789e-01  1.2356e-01  7.0276e-01
  -2.3028e-01 -9.3461e-01  2.9912e-01 -1.3690e-01]
 [-6.5886e-01 -3.3596e-01  8.3842e-01 -4.6494e-01 -3.7119e-01 -4.6358e-01
   5.1711e-01  1.9691e-01  9.1902e-01  4.6189e-01  6.1571e-01 -3.8423e-01
  -9.0171e-01  9.2575e-01  9.5862e-01  1.4689e-01]
 [-3.4555e-01 -2.6002e-01  5.3071e-01  9.7024e-01 -6.0031e-01 -6.3011e-01
   1.0719e-01 -4.8825e-01  4.4227e-01 -4.6917e-01  6.5160e-01  4.5010e-01
   3.2668e-01  9.0304e-01  1.7128e-01 -4.4743e-01]
 [-2.8650e-01 -6.1124e-01 -6.5883e-01 -3.8578e-01  3.1025e-02  3.7294e-01
  -9.3375e-01  1.4375e-01  7.0629e-01 -2.0557e-01 -2.1045e-01  4.0535e-01
   9.7224e-01  1.6091e-01  3.7622e-01 -8.0318e-01]
 [ 3.2848e-01 -5.3362e-01 -6.6201e-03 -9.9323e-01 -1.9527e-01 -5.2325e-01
  -4.0439e-01  1.5645e-01  2.6593e-01  6.5791e-02  3.3293e-01  7.1498e-01
  -8.8607e-01 -8.7171e-01 -6.5784e-01  5.7481e-01]
 [ 1.3331e-01 -3.5004e-01  3.5066e-01  1.6906e-01 -1.0738e-01 -5.4400e-01
  -3.0428e-02  3.9443e-01  4.0950e-01  9.6368e-01  8.0536e-02  8.0951e-01
   2.4866e-01 -9.1080e-01  6.9522e-01  1.4557e-01]
 [ 6.3441e-01 -6.9969e-01  5.1063e-01  8.8166e-01  3.8398e-01 -9.6588e-01
   3.0904e-01  2.4896e-02 -2.6343e-01 -7.5354e-01 -8.9979e-01 -4.8962e-01
  -3.1851e-01  5.6559e-01  2.0766e-01  4.4487e-01]
 [ 4.1270e-01 -7.1845e-01  3.2849e-01 -4.9843e-01  9.2493e-01 -4.1049e-01
   7.0240e-01 -6.7467e-01 -1.8502e-01  2.7918e-01  6.8988e-01 -8.5202e-01
   9.5738e-01 -9.5488e-01  4.7056e-01  1.7071e-02]
 [-5.4570e-01 -7.0122e-02  7.2457e-01 -2.9335e-01  1.8352e-01  8.7334e-01
   3.0897e-01  9.0734e-01  8.5872e-01 -5.0281e-01  3.4652e-01  4.4765e-02
  -8.8978e-01  4.0816e-01  6.1275e-01 -7.9682e-01]
 [ 8.9517e-02  3.3667e-01 -8.5069e-01  8.1871e-01 -5.5864e-01 -7.5187e-01
   2.7830e-01 -2.4213e-01  7.7023e-01 -7.3530e-01 -9.9293e-01  8.4220e-01
   6.8809e-01 -9.5648e-01  2.6926e-01  9.1243e-01]
 [-8.9004e-01  6.4976e-01 -1.2066e-01 -2.2150e-01 -5.4177e-01  4.8012e-02
   2.8480e-01  7.4396e-01  3.2851e-01 -2.5587e-01  1.9875e-01  2.9493e-01
  -4.0742e-01 -2.1957e-01 -4.7687e-01 -4.8853e-01]
 [ 2.2576e-01 -8.7428e-01 -5.3193e-01  9.4576e-02  4.0889e-01  4.9619e-01
  -8.8167e-01 -3.3018e-01  9.9123e-01  1.1613e-01  6.6593e-01 -3.7456e-01
  -9.5211e-01  5.0348e-01  6.5282e-01  8.0357e-01]
 [-3.4328e-01  6.1659e-02 -4.1221e-01 -3.9655e-01  4.9279e-01 -6.9543e-01
   9.2092e-01 -3.6055e-03 -3.3720e-01 -2.7080e-01  5.1678e-01 -1.6379e-01
  -1.3152e-01 -1.7507e-01  3.6979e-01  5.8080e-01]
 [ 8.4832e-01  9.4563e-01  8.3641e-01  9.3529e-01  4.1097e-01 -7.2969e-01
  -4.0543e-04  6.4707e-01 -1.3791e-01 -9.4400e-02 -2.2436e-01 -4.8439e-02
   5.7705e-02  9.0335e-01 -4.2224e-01  6.3932e-01]
 [-4.5905e-02  7.7174e-01 -2.6882e-01 -2.5218e-01 -2.3869e-01 -6.5384e-01
  -7.0370e-01  7.9525e-01 -2.7679e-01 -5.7138e-01  6.1540e-01 -1.3691e-01
  -1.6505e-01  1.5950e-01 -4.5899e-01  1.5026e-01]
 [-4.4930e-02 -1.5914e-01  1.9048e-01 -2.5420e-02 -2.0224e-01 -3.2238e-01
  -2.3950e-01  2.8742e-01 -3.2360e-01  5.8131e-01 -5.5912e-01 -2.6802e-01
   6.5529e-01  2.3552e-01  4.4724e-01  2.1841e-01]
 [ 5.9314e-01 -8.9292e-01 -4.1716e-01  5.6905e-01 -9.1220e-01  3.3132e-01
  -9.7360e-01 -9.4304e-01 -8.4796e-02 -8.1681e-01 -8.2258e-02  7.4718e-01
   3.9467e-01 -5.5761e-01 -8.7925e-01 -9.6469e-01]
 [ 7.4716e-01  8.6544e-01 -8.5425e-01 -2.2903e-01 -5.4805e-01 -7.7666e-01
  -4.5862e-01 -3.0219e-01  1.2672e-02  9.8948e-01 -3.0695e-01  5.7972e-01
  -6.3432e-01  6.9772e-02 -7.7733e-01 -7.5812e-01]
 [ 8.4194e-01  2.5133e-01 -3.3097e-01 -3.6928e-01 -2.4295e-01 -8.9163e-02
  -1.8494e-01 -4.5304e-01 -6.8325e-01  4.7355e-01 -8.3769e-01 -9.5606e-01
   8.2608e-01  5.9336e-01 -6.0455e-01 -3.2965e-01]
 [ 6.5307e-01 -3.5945e-01 -8.5385e-01  1.0647e-01  6.6943e-01  1.9585e-02
   1.1026e-01  2.4009e-01  5.2634e-01  9.0486e-01  1.7159e-01  2.5722e-01
   2.1214e-01 -2.2362e-01  1.8941e-03 -6.8556e-01]
 [ 5.9653e-01  3.7853e-01  9.1553e-02 -4.8692e-01  2.5125e-02 -6.9006e-01
  -5.3709e-01 -3.9880e-02 -8.8193e-01  4.9545e-02  3.6284e-01 -9.5904e-02
   8.6017e-02 -9.2174e-01 -9.5858e-02 -4.1337e-01]
 [-1.3286e-01 -5.0607e-01  2.5378e-01  9.3981e-01  7.7883e-01  8.7125e-01
  -5.5434e-01  3.4821e-01 -5.6093e-01 -2.8598e-01 -2.3887e-01 -8.8125e-01
  -7.0266e-01 -6.1821e-01  9.0202e-01 -1.6764e-01]
 [ 3.8802e-01 -7.3684e-01 -1.4792e-02 -8.8804e-01  4.6645e-02  1.7743e-01
  -4.8501e-01  6.4861e-01  2.4339e-02  5.0743e-01  9.6160e-01  1.4188e-01
   9.7403e-01  6.6803e-01  9.5547e-01 -5.6062e-01]
 [-3.2215e-01 -6.0441e-01  6.7359e-01  2.5843e-01  1.7242e-01  4.1352e-01
  -5.2988e-01  3.8842e-01 -8.0498e-01  3.0502e-01 -2.1231e-01 -1.7817e-01
   5.3643e-01 -1.9547e-01  8.9521e-01  6.9018e-01]
 [-8.5177e-01 -7.7237e-02 -5.2903e-01 -6.2054e-02 -7.8759e-01 -1.2086e-02
  -3.5649e-01 -6.0919e-01 -6.8580e-01 -4.4390e-01  1.4879e-01 -9.5252e-01
   2.6394e-01 -9.6505e-01  1.6850e-01  6.3553e-01]
 [ 7.0705e-02 -4.2174e-02  4.7421e-01  7.1322e-01 -9.1409e-01 -7.2091e-01
   1.2621e-01 -8.3503e-01  6.4671e-01 -8.2979e-01  2.5902e-01 -3.2460e-01
   6.7065e-01  9.1877e-01 -3.9532e-01  6.4332e-01]
 [-4.1933e-01  2.9368e-02  5.4856e-01 -1.5778e-01  8.4810e-01  3.6004e-01
  -6.5505e-01  2.2898e-01 -4.3922e-01  8.0906e-01  9.6508e-01  6.7067e-01
   1.4682e-01 -7.8930e-01  8.5536e-01 -3.1962e-01]
 [ 4.7457e-02  4.8138e-01 -5.4383e-01  6.6147e-01  9.7242e-01 -3.2565e-01
  -5.4384e-01  8.3163e-01 -3.1466e-01 -5.1876e-01 -9.5612e-01  2.4625e-01
   4.4195e-01  7.6897e-01 -8.4416e-01 -6.0967e-01]
 [ 5.0976e-01  7.3057e-01 -5.9710e-01  9.4083e-01  4.6716e-01  4.8298e-01
  -7.8321e-01 -7.7955e-01 -7.7905e-01 -3.1628e-01  9.8660e-01 -6.1519e-01
  -3.4440e-01  5.8199e-01 -2.3120e-01 -2.1012e-01]
 [ 2.0453e-01  2.0646e-01 -4.7327e-01 -9.5308e-01  9.1115e-01 -6.0252e-01
  -5.7413e-01 -8.5314e-03 -1.6268e-01  6.4463e-01  2.7437e-01  6.4446e-01
  -8.6674e-01  2.4722e-01 -4.8989e-01 -4.2394e-01]
 [ 7.7865e-01 -6.0987e-01 -8.7188e-01  2.1214e-01  9.7027e-01 -2.9733e-01
   9.9722e-01  7.3458e-01  1.2461e-01  1.3057e-01 -4.3616e-01 -5.3743e-01
   8.6786e-01  7.8034e-01 -5.8190e-02  6.5989e-01]
 [ 4.1421e-01 -2.1787e-01 -1.4428e-01  7.5236e-01  5.8644e-01  2.1234e-01
   7.8448e-01 -3.7118e-01  9.7690e-02 -3.9493e-01 -2.7296e-02 -5.9701e-01
   3.2027e-01  4.4935e-01  1.0111e+00  1.8879e-02]
 [ 4.0764e-01 -5.9262e-02  1.6597e-01  5.9993e-01  9.7043e-01  4.6592e-01
  -2.6216e-01  9.3718e-02 -1.3474e-01 -6.0407e-01 -1.4504e-01  1.8878e-01
  -2.8270e-01  6.4883e-01 -4.0675e-01 -4.3068e-01]
 [ 8.4159e-01  4.5107e-01  4.9033e-01 -6.8410e-01  6.9756e-01  8.9026e-01
  -2.6004e-01 -7.2603e-01 -8.2882e-01 -9.8596e-02  1.2820e-01  4.4866e-01
   9.1964e-01  5.6762e-01  8.3679e-01  8.2841e-01]
 [ 2.3277e-01 -7.8780e-01 -4.4119e-01  8.5938e-01  9.7134e-01  4.8295e-01
  -8.0915e-01  8.6661e-01 -3.8773e-01 -1.9314e-01  2.9792e-01  6.5509e-02
   7.3832e-01  3.4806e-01 -5.7718e-01  7.9201e-01]
 [ 4.2086e-01 -6.2545e-01  8.7519e-01  8.5473e-01 -1.5769e-01 -4.7343e-01
  -9.5327e-01 -1.6316e-01 -3.0798e-01  8.7268e-01 -7.3818e-01  7.5920e-01
   5.5489e-01 -6.7127e-01 -4.4587e-01  1.8820e-01]
 [ 1.8017e-01 -3.8574e-01  4.5491e-01  6.1784e-01 -7.5888e-02 -7.1768e-01
   4.4035e-01  5.9710e-01 -8.2059e-01  4.4413e-01  6.3360e-01  8.6233e-01
  -8.8824e-02 -4.4088e-01  7.8835e-01 -4.2753e-01]
 [-2.5573e-01  6.1446e-01  5.3386e-01  6.8101e-01 -6.0718e-01  6.6012e-01
  -5.6292e-01 -2.6332e-01  2.2882e-01 -9.7648e-03  8.8147e-01 -4.3468e-01
  -1.0800e-01  5.5368e-01 -3.6652e-01  5.3308e-01]
 [ 6.2215e-01  4.7657e-01  6.7609e-01  7.2474e-01 -5.3298e-01  3.7747e-01
   3.8423e-01 -3.1363e-01  5.6195e-01  8.0632e-01 -5.7285e-01  2.8892e-01
   5.5349e-01  6.3035e-01 -2.4784e-01  6.9348e-01]
 [ 9.1665e-02  1.4638e-01  1.3915e-01  5.5528e-01  5.2785e-01 -8.9683e-01
  -9.8408e-01  8.2675e-01 -6.6321e-01  4.9743e-01  9.6502e-01  2.4715e-01
  -4.3913e-01  3.5611e-01 -5.2553e-01 -1.5414e-01]
 [-5.7779e-01  1.0086e+00  2.0358e-01  3.0383e-01 -3.7616e-01  9.4933e-01
  -3.1596e-01  4.0356e-01 -3.0391e-01 -4.0635e-01 -1.1075e-01  8.1805e-01
  -3.6515e-01  7.4242e-01 -7.6710e-01  8.0649e-01]
 [-7.9684e-01  9.1239e-01  1.4962e-01 -6.0105e-01  8.1067e-01 -8.0663e-01
  -6.8168e-01  1.4314e-01 -7.0091e-02  6.3647e-01 -7.1055e-01 -9.1916e-01
   6.4389e-01  9.5266e-01 -6.2559e-01 -1.8932e-01]
 [-8.3611e-01  3.4880e-01 -2.6704e-01  3.5016e-01 -8.2000e-01 -1.0072e-01
  -1.3420e-01 -5.8242e-01  9.8415e-01 -4.7867e-01  1.5013e-01  7.1720e-01
  -5.4402e-01 -9.3704e-01 -8.9856e-01  5.4554e-01]
 [ 5.8360e-01  2.5550e-03  8.3168e-01  3.1851e-02 -6.2996e-01 -9.6695e-01
   6.1026e-01 -8.1437e-02 -2.1481e-01  6.8881e-01  7.7284e-01 -4.1538e-03
  -2.7410e-01  8.9319e-01 -3.7823e-01  3.9460e-01]
 [ 5.7403e-01 -2.6433e-01  3.5361e-01 -5.2854e-01 -5.5436e-01 -4.8160e-01
  -4.9749e-01 -7.5250e-01 -5.5712e-01 -2.5743e-01  1.9597e-01  7.0445e-01
   8.8957e-01 -1.0112e-01 -1.7413e-01  8.7018e-01]
 [-7.1006e-01  7.9664e-01 -9.7376e-01 -5.7142e-01  6.1213e-04  7.9138e-01
  -6.0579e-01  5.1826e-01  4.3931e-01  3.5300e-02  4.6790e-01  8.2328e-02
  -3.0321e-01  5.9143e-01 -5.3416e-02 -4.9113e-01]
 [-5.4419e-01  6.2015e-01  8.8861e-01  9.5238e-01 -2.4814e-01 -7.0367e-01
  -9.9751e-01 -7.1956e-01  5.8215e-01 -7.2240e-01 -1.1765e-01  9.3934e-01
  -3.0032e-01  9.2951e-02  1.1375e-02 -2.9565e-01]
 [-9.5030e-01  2.2462e-01  9.5219e-01  3.7523e-01 -9.5780e-01  7.6954e-02
  -6.2274e-02 -2.6771e-01 -4.1280e-01  7.9675e-01  1.6730e-01 -2.9546e-01
   7.8445e-01  7.5810e-01 -7.2261e-03  9.6762e-01]
 [-1.6936e-01 -3.8423e-01  5.6869e-01 -5.8182e-01 -7.6319e-01  7.4054e-01
   2.5028e-01 -9.3272e-01 -2.8929e-01  8.2300e-01 -1.8684e-01  9.4569e-01
   9.2037e-01  4.1218e-01 -6.6257e-01 -2.3282e-01]
 [-6.1665e-01 -8.0714e-01 -7.1174e-01 -2.1210e-01  7.1231e-01 -2.0183e-01
  -1.6244e-01  6.4993e-01  9.8403e-01 -8.7400e-01 -9.4020e-01 -5.4845e-01
   2.5308e-01 -3.9074e-01  7.2750e-01 -8.3760e-01]
 [-9.3921e-01  6.4600e-01 -8.6106e-01 -8.3588e-01  5.3294e-01  4.0934e-01
  -7.0845e-02  9.8919e-01 -5.3932e-01  2.8247e-01  3.3990e-01  3.5474e-01
  -7.4064e-01 -5.6470e-02  6.0257e-01  1.3994e-02]
 [-5.9594e-01 -4.5765e-01  6.0336e-01 -3.6359e-01 -4.6247e-01  3.2352e-01
  -2.4800e-02  3.2377e-01 -4.2651e-01  1.7131e-01 -6.2075e-01 -6.9354e-01
  -1.0955e-01  9.0572e-01 -4.1201e-01  7.9740e-01]
 [ 4.9717e-01  7.3516e-01  8.3718e-01  5.9657e-02  1.3796e-01 -6.8195e-01
   3.4218e-01 -4.0847e-02 -4.0038e-01 -7.7887e-01 -3.5741e-01  5.0668e-01
  -1.5767e-01  7.0732e-01  4.6232e-01  1.6021e-01]
 [-8.7676e-01  4.6323e-01  2.0776e-01  1.4969e-01 -3.9874e-01 -5.4629e-01
  -8.7733e-01  8.8859e-02 -9.9492e-02  1.6081e-03 -9.5616e-01 -6.2767e-01
  -1.1533e-01 -7.1074e-01  5.4988e-01  5.3019e-01]
 [-2.7218e-01  7.3740e-01 -1.1802e-01 -1.6809e-01  5.8282e-01 -1.1512e-01
  -9.0775e-01 -6.8625e-01 -5.5029e-01 -7.5514e-01  9.1188e-01 -4.5167e-01
  -3.1072e-01  5.1319e-01 -1.9440e-01 -3.4986e-01]
 [ 5.1444e-01  3.4455e-01 -4.4598e-01 -7.5245e-01 -8.9719e-01 -1.2304e-01
   3.9825e-01 -1.9781e-01 -8.0419e-01 -3.7221e-01 -6.6070e-01 -6.6152e-02
  -1.7516e-01  4.5292e-02  4.9172e-01  1.4651e-01]
 [ 4.9138e-01  1.8597e-01  4.8404e-01 -4.9065e-01  1.9235e-01 -1.3589e-01
   1.5622e-01 -3.7939e-01 -2.0770e-01  4.4067e-01  9.5644e-01  2.3591e-01
  -4.3705e-02  8.8386e-01 -3.8315e-01  9.5899e-01]
 [ 1.0463e-02  6.6139e-01 -9.5387e-01 -5.5750e-01 -2.5813e-01  5.6048e-02
  -5.8875e-01 -1.8663e-01  6.5801e-01  9.1851e-01 -8.6252e-01 -3.4629e-01
   8.3311e-01 -8.1336e-01  4.3310e-01 -7.0945e-01]
 [-3.2774e-01 -9.9877e-02 -5.3234e-01  7.3549e-01  3.3453e-01  8.7086e-01
   6.2121e-01  5.7446e-01 -1.3867e-01  7.5228e-01  5.1474e-01 -3.9453e-01
   7.8512e-02 -4.2590e-01 -5.0899e-01 -8.8070e-01]
 [ 3.6233e-01 -8.8547e-01  7.3036e-01 -6.7889e-01 -2.4754e-01  4.2254e-01
  -1.7936e-01 -1.3809e-01  3.5597e-01 -2.2228e-01 -4.5601e-01  2.6287e-01
   3.2603e-01  3.5266e-01  3.7572e-01 -8.5845e-01]
 [-6.0176e-01 -5.9709e-01 -8.7278e-01  6.1323e-01  9.5552e-01 -9.2907e-02
   9.8719e-01  1.0230e-01 -3.9991e-01  3.7397e-01  2.5451e-01  8.4484e-01
  -1.5756e-01  7.9002e-01  2.1817e-01 -1.2322e-01]
 [ 1.3620e-01 -5.6133e-01  7.3889e-01 -3.6694e-01 -3.1013e-01  3.3763e-01
  -2.6102e-01  3.2855e-01  2.8451e-01  4.3786e-01  9.5022e-01  2.5194e-01
   1.4137e-01  1.6122e-01  3.7062e-01 -8.2191e-02]
 [ 8.9496e-01  6.3651e-02 -8.8980e-01 -8.9057e-01  6.8455e-01  3.8088e-01
   5.3571e-01  4.2583e-01  1.0292e-01 -6.3118e-01  1.8819e-01  7.4148e-01
   4.4779e-01 -7.7488e-01 -6.9568e-01  8.3208e-01]
 [-6.9878e-01  8.2712e-01 -7.3421e-01  6.5718e-01  2.0872e-02 -5.2853e-01
   7.6992e-01  4.5775e-01  1.9771e-01 -6.2780e-01 -1.3933e-01 -4.7224e-01
   5.4536e-01  7.2470e-01 -8.4919e-01  6.1862e-02]
 [-2.8487e-01 -8.3065e-01  3.1977e-01  5.0805e-01  3.8495e-01 -5.1142e-01
  -5.1838e-01  9.1451e-01 -6.7674e-01 -1.3527e-01 -4.2703e-01 -1.1505e-01
  -2.7129e-01  3.8118e-01 -3.2108e-01  2.3891e-01]
 [ 8.3970e-01  9.8734e-02 -3.3288e-01  1.2112e-01  7.6460e-02  7.2759e-01
  -1.8418e-01 -1.3906e-01 -9.0379e-01 -3.5744e-01 -7.9697e-01 -8.7787e-01
  -5.9920e-01 -8.2900e-01 -1.4998e-01 -1.8660e-01]
 [ 6.2081e-01 -4.0512e-01  1.5409e-01 -3.5540e-01  5.4897e-01  4.3825e-01
  -6.8243e-01  7.8202e-01 -2.8633e-01 -9.1140e-01 -7.9892e-01 -5.7617e-01
  -9.8465e-01 -6.2678e-01  6.7828e-01 -2.7366e-01]
 [ 4.8918e-01  6.5410e-01  7.4367e-01 -1.1361e-01  7.8313e-02 -4.2659e-01
  -4.3707e-02 -2.9850e-02 -7.0327e-02 -1.3768e-01  5.8841e-01  7.3331e-01
  -4.7573e-02 -1.5420e-01 -3.5231e-01 -7.7319e-01]
 [ 8.0855e-01  4.0249e-01 -5.3760e-01 -2.2471e-01 -5.7582e-01 -7.0657e-01
  -2.9126e-01 -4.0391e-01  3.7753e-02 -2.8190e-01 -3.3794e-01  6.0541e-02
  -6.3774e-01  4.0122e-01  5.6154e-01 -5.8117e-01]
 [-6.2826e-01 -1.0486e-01 -6.1030e-01  5.5324e-01 -7.1249e-01  6.6939e-01
   8.4669e-01  9.9791e-02 -8.2931e-01 -2.1570e-02  7.2562e-01 -9.2467e-01
  -8.6031e-01  6.9684e-01 -2.5769e-01 -8.6012e-01]
 [-2.9997e-01  4.9775e-01  5.8736e-02 -5.6119e-01 -3.6936e-01  9.3593e-01
   2.1883e-01 -9.7393e-01  8.6020e-02 -6.7399e-01 -6.6983e-01  6.6439e-01
  -5.4907e-01  8.7883e-01  8.7337e-01  9.8982e-01]
 [ 5.9079e-01 -1.4109e-01  5.8780e-01  3.3705e-01  4.3721e-01  3.2613e-01
   6.7553e-01 -8.2556e-01 -7.4724e-01 -3.7307e-02 -7.1337e-01  7.4899e-01
  -1.7907e-01  9.1743e-01 -6.5291e-01 -8.9546e-01]
 [-4.5941e-01 -1.1706e-01 -4.1636e-01 -9.9422e-01 -7.1719e-02 -6.0138e-01
   4.9163e-01  3.7726e-01 -9.1852e-01 -4.8368e-01  1.3120e-01 -4.8499e-01
  -1.5821e-01  5.3648e-01  6.2543e-01  9.2908e-02]
 [-8.1978e-01  1.0037e+00 -6.4792e-02  4.6518e-02  8.5675e-01  8.9781e-01
  -6.8374e-01 -3.7912e-01 -7.5459e-01  6.2652e-01  2.4965e-02  1.1550e-02
  -8.4391e-01 -1.5698e-01 -7.6160e-01 -8.3732e-01]
 [-3.7036e-01  2.7492e-02  4.0727e-01  5.0757e-01  2.0706e-01 -1.7682e-01
   2.8797e-01 -4.7624e-01 -3.1598e-01 -6.7107e-01 -8.6177e-01 -6.6515e-01
   4.1113e-01 -6.9694e-01  3.7377e-01 -4.2200e-01]
 [-8.2230e-01 -2.8131e-02  5.0332e-02  1.8842e-01 -8.6908e-01  1.9972e-01
   3.9093e-01 -8.9331e-01 -7.7285e-01  4.4992e-01 -9.8238e-01  6.9237e-01
   6.7762e-01 -1.2708e-01 -4.4235e-01 -9.7186e-01]
 [ 3.2471e-01  4.7001e-01 -9.7663e-01  7.7229e-01  9.3483e-02 -1.0062e-01
  -7.8294e-01 -7.7631e-01  4.4138e-01  1.1118e-01  4.8467e-01  3.8924e-01
  -3.6371e-01  3.6827e-01 -7.9800e-02 -2.8069e-01]
 [ 4.5583e-01 -1.0107e-01 -3.3001e-01 -2.5572e-01 -2.7311e-01 -9.0328e-01
   3.5334e-01 -6.8950e-02 -7.9632e-01 -5.5188e-01  6.9568e-01  1.8148e-01
   8.2822e-01  6.3699e-01  2.5465e-02 -8.8003e-01]
 [-1.9566e-01 -7.9972e-01 -7.6800e-01 -4.7431e-01  5.7105e-01  6.9805e-01
   9.1143e-01 -3.7186e-01 -9.4899e-01  7.0351e-01 -4.0483e-01  8.3197e-01
  -5.2549e-01 -1.6958e-01  3.0546e-01  5.0933e-01]
 [-2.1948e-01 -1.3672e-01  4.6217e-01  9.8192e-02 -9.7792e-01 -2.7513e-01
  -3.4004e-01 -1.6648e-01  6.5089e-01  2.5952e-01 -2.1620e-01  8.6602e-01
   2.8869e-01 -9.8042e-01 -1.6804e-01 -2.8729e-01]
 [-1.3654e-01  9.8939e-01  6.5952e-01 -2.9648e-01  8.1047e-01 -2.5211e-02
   2.3225e-01 -5.8606e-01  3.5091e-02  5.8784e-01 -2.0954e-01  5.9027e-01
  -1.7489e-01 -7.6423e-01  8.3386e-01  7.8937e-01]
 [ 6.8134e-02 -5.7359e-01  5.3066e-01 -8.0350e-01 -1.5167e-01  6.0886e-01
   2.1027e-01 -3.3078e-01  6.2311e-01 -1.6237e-01  2.7170e-01 -5.5717e-01
   2.9692e-01 -1.6226e-01 -6.4752e-01 -6.8984e-01]
 [ 5.5731e-01  7.2107e-01  2.0878e-01 -8.1443e-01  2.2550e-01 -2.7547e-01
   9.1988e-02  1.5752e-01 -2.6604e-01 -3.8910e-01 -5.9241e-01 -1.2153e-01
  -5.9556e-01 -4.6430e-01  1.5336e-01  3.6796e-01]
 [ 2.1633e-01 -2.8897e-02 -5.1155e-01  6.2156e-02  4.7768e-01 -5.3603e-01
  -1.5556e-01  6.3102e-01  5.3731e-01 -4.3989e-01 -6.4169e-01  7.6882e-01
  -8.4046e-01 -4.8813e-01 -8.0240e-01  9.5842e-01]
 [-2.3932e-01 -4.0607e-02 -5.7467e-01 -9.7582e-01 -6.5126e-03  6.8423e-02
   3.7945e-01 -9.6131e-01 -8.4541e-01  2.4321e-01  6.4640e-01 -5.8810e-02
  -5.4289e-01 -1.4719e-01 -1.0765e-01  6.7940e-01]
 [-5.3020e-01  7.2742e-01 -8.0627e-01 -1.8063e-01  8.7802e-01 -3.7690e-01
  -9.9139e-01 -6.0870e-01  9.7315e-01 -8.7253e-01  3.1145e-01  6.1285e-01
   5.9435e-01  2.1202e-03  5.8111e-01 -9.9002e-02]
 [-6.3174e-01  7.2641e-01 -4.8787e-01 -3.4664e-01 -7.2957e-01  8.9131e-02
   8.3233e-01 -1.0903e-02  7.9996e-01  9.8001e-01  7.5414e-02  6.1570e-01
  -6.3363e-01 -3.4060e-01 -9.5641e-01  8.9125e-01]
 [ 6.4972e-01  8.6687e-01  6.7238e-01 -7.1021e-02  3.6309e-02 -1.2751e-01
  -8.0841e-01  3.0866e-01 -7.0240e-01 -5.0143e-02 -2.2273e-02 -2.4434e-01
   6.3327e-01 -1.8086e-02  7.2072e-01  2.5317e-01]
 [-7.1880e-02 -2.7422e-01  3.7348e-01  4.5211e-01 -2.9657e-01 -2.3620e-02
  -9.1251e-01  5.2237e-01  1.0175e+00 -8.3181e-01 -1.1072e-01  4.7379e-02
  -4.8817e-01  8.8073e-01 -2.7677e-01  6.7632e-01]
 [ 5.8852e-01  2.4643e-01 -1.7178e-01  8.4568e-01 -8.3192e-01  2.3539e-01
  -2.1693e-01 -4.1166e-01  2.7269e-01 -7.2851e-01 -6.7957e-01 -8.4889e-01
  -7.8735e-01  4.6243e-01 -5.7221e-01 -5.3180e-01]
 [-5.3067e-01  7.5316e-01 -3.7643e-02  1.0032e+00 -3.8208e-01  8.8489e-01
  -7.5387e-01 -4.1603e-01  5.3549e-01  4.0904e-01 -6.0273e-02  5.0367e-01
  -8.0838e-01 -7.4772e-01 -9.6495e-01 -9.0944e-01]
 [-8.4238e-01 -6.6565e-01 -1.5642e-01  6.0571e-01  9.3908e-01 -2.9705e-01
  -8.2714e-01  9.2435e-01 -8.4281e-01 -7.2003e-01 -9.2662e-01  3.5985e-01
  -5.7832e-01 -6.4229e-01 -3.9718e-01  8.6514e-01]
 [-8.4142e-01 -5.9128e-01 -2.8552e-01 -4.3275e-01  8.7181e-01  2.6890e-01
   6.6650e-01 -1.4942e-01 -8.1382e-01 -3.8967e-01 -7.4113e-01  3.5190e-01
  -2.9825e-01  2.2925e-01  7.7960e-01 -5.9898e-02]
 [ 5.1715e-01 -4.6059e-01 -7.2631e-01 -3.0086e-01  8.8966e-02 -4.9540e-01
   2.1797e-01  2.9159e-01  2.2140e-01 -3.9384e-02 -4.2585e-01 -5.5884e-01
  -3.5436e-01 -4.2660e-01 -3.2588e-02  5.2943e-01]
 [ 5.4586e-02  6.9542e-01 -8.0813e-01  8.4212e-02 -4.1546e-01 -1.4167e-01
  -1.6256e-01 -4.1890e-01  7.3476e-01  3.0408e-01  5.5843e-01  9.1403e-01
  -5.0801e-01 -6.5561e-01  2.8597e-01  6.8688e-01]
 [ 9.0578e-01  4.6831e-01  1.8352e-01 -8.2541e-01 -9.3064e-01 -6.5519e-01
  -7.0732e-01  5.5428e-01 -3.1981e-01 -2.8886e-01 -1.5446e-01  7.8004e-01
  -2.6436e-01  7.9517e-01 -2.3354e-01 -2.5049e-01]
 [ 8.4282e-02  1.0648e+00 -1.8956e-01  2.6283e-01  2.7240e-01 -9.6666e-01
  -4.8368e-01 -9.8103e-01  1.1956e-01  7.3417e-02 -9.8819e-01  1.1152e-01
  -9.0097e-01  1.4906e-01  1.0153e+00 -7.7109e-01]
 [-3.9055e-01 -2.7618e-01 -5.1568e-01  9.2866e-01  5.9072e-01  7.5261e-01
   3.6595e-01 -3.2883e-01 -2.6917e-01 -1.0596e+00 -3.0751e-01  3.1731e-01
  -2.4412e-01 -9.0395e-01  2.0770e-01  6.6980e-01]
 [-2.6120e-01 -6.0912e-01  9.3642e-01 -2.0249e-02 -6.7791e-01  6.2103e-01
  -8.5770e-02 -1.9380e-01  8.4426e-02  2.1884e-01  6.6683e-01 -4.6807e-01
  -1.0302e-01 -8.3045e-01  6.8740e-01 -3.7179e-01]
 [-6.8885e-01  4.4185e-01 -8.6788e-01 -3.4950e-01  7.1909e-01  1.8285e-01
  -5.8322e-01  2.0704e-01 -6.1872e-01  4.9648e-01  8.6388e-01  6.2979e-01
  -4.3732e-01 -2.2676e-01  7.0061e-01  3.4523e-01]
 [-7.1965e-01 -6.3232e-01  3.2572e-01 -9.8390e-01  8.8158e-01 -6.5921e-01
  -3.8313e-01 -9.5011e-01 -5.7407e-01 -3.6009e-01  3.4603e-01  8.5990e-01
  -8.3727e-01 -1.9461e-01 -4.4477e-01 -5.9767e-01]
 [ 7.7495e-01 -4.1384e-01  7.6876e-01 -3.3322e-01 -9.8418e-01 -9.8161e-01
  -9.3982e-01  4.0560e-01 -7.3559e-01  4.2918e-01 -2.8268e-01 -3.1230e-01
   6.6179e-01 -4.6811e-01  5.5243e-01 -3.6406e-01]
 [ 5.5874e-01 -8.4684e-01 -8.6543e-01  8.7325e-01  9.1496e-01 -2.3698e-01
  -1.8574e-01 -5.2307e-01  4.8329e-01 -6.7511e-01 -9.0931e-01  8.5060e-01
   9.0143e-01  4.5732e-01  4.1178e-01 -8.3278e-01]
 [ 7.6323e-01  1.5759e-01 -5.9591e-01 -1.0642e-01 -6.9921e-01 -3.8106e-01
  -8.4721e-01 -5.2197e-03  6.6355e-01  4.9739e-01  2.6144e-01  6.1918e-01
  -8.8845e-01  5.4622e-01  7.6959e-01  9.1928e-01]
 [-4.9939e-01  6.8323e-01 -3.6760e-01 -5.5687e-01 -9.1769e-01  1.3098e-01
  -3.8627e-01 -6.1377e-01 -5.6437e-01  8.6043e-01  4.9314e-01  3.4148e-01
   3.8342e-01  5.6935e-02  1.7775e-01 -7.0197e-02]
 [ 5.7715e-01  3.1849e-01 -5.8946e-01 -5.8292e-01  9.4355e-01 -5.9285e-01
  -3.0690e-01  9.5206e-01  8.5817e-01  4.8120e-01  5.0259e-01  8.4824e-01
   4.0868e-01  4.5134e-01 -6.3707e-01 -8.6708e-01]
 [-6.8237e-01  4.2641e-01 -5.3644e-03 -8.8181e-01  6.8063e-01  1.2189e-01
  -5.4101e-01  3.5029e-01 -3.3827e-01 -3.9649e-01  3.9809e-01 -1.5216e-01
   6.8293e-01  7.5933e-01  4.2486e-01 -1.3676e-01]
 [-4.1945e-01  7.5860e-01 -1.8465e-01 -7.2838e-01  2.5987e-01 -7.8483e-01
  -8.0326e-01  9.7954e-01  9.8848e-01 -6.2523e-01  2.8475e-02 -1.0596e-01
  -8.2886e-01 -7.5678e-01  5.6088e-01 -3.5754e-01]
 [-8.2109e-01 -4.7745e-01 -6.8724e-01  9.2581e-01 -9.7796e-01  7.3865e-01
   2.1202e-01 -5.6873e-01  7.7090e-01  2.7602e-01  9.0348e-01  2.6476e-01
   9.4394e-01  1.5062e-01  1.3734e-01  5.0098e-01]
 [ 7.5058e-01 -1.0914e-01  6.6661e-01  4.7325e-01 -6.4475e-01 -4.7800e-01
  -9.8503e-01 -2.6580e-01 -1.3949e-01 -5.1872e-01 -5.4643e-01  9.8710e-01
   1.8199e-01 -9.4358e-01 -1.3955e-01  4.7640e-01]
 [ 5.3827e-01  1.0133e+00  3.6370e-01  2.7445e-01  9.5403e-01 -2.4127e-02
   3.6860e-01 -1.0358e+00 -6.6519e-02 -4.4499e-01  4.5823e-01  7.5839e-01
  -8.0862e-01 -1.5033e-01  1.5538e-01  6.3601e-01]
 [ 2.4977e-01  4.5692e-02  7.4259e-01  2.0925e-01  3.1632e-01 -1.8618e-01
  -2.3179e-01 -4.8413e-01 -6.5349e-01 -1.1624e-02 -8.3638e-01  5.7285e-01
   2.4880e-02  2.8299e-01  3.0454e-01 -8.5109e-02]
 [-2.8418e-02 -5.5344e-01 -5.2798e-01 -2.5791e-01  9.8489e-01  5.6427e-01
   2.7867e-02 -2.1067e-02  1.1046e-03  9.5263e-01  8.4070e-01 -2.3192e-01
  -7.0689e-01 -2.3133e-01  2.1099e-01  7.7903e-01]
 [ 4.8222e-01  6.9901e-01  4.4956e-01 -9.4975e-01 -6.6360e-01  6.8619e-01
   5.0721e-01  4.3832e-01 -7.0132e-01 -3.0144e-01 -9.4696e-01  8.5794e-01
  -5.0174e-01 -1.3113e-01  2.8890e-01 -7.3094e-01]
 [ 9.1929e-01 -4.1927e-01  4.7232e-01  6.1640e-01 -9.0383e-01 -5.7690e-01
   2.4820e-01  7.8092e-01 -4.0860e-01 -2.0275e-01  3.7403e-01 -8.5868e-01
  -4.2334e-01  6.3211e-01 -1.2448e-01 -1.6731e-01]
 [ 7.1515e-01 -1.6640e-01  3.3520e-01 -9.5633e-01  5.9848e-01 -9.7282e-01
   6.2124e-01  1.0372e+00  8.5189e-01 -3.7093e-01 -8.4453e-01 -1.5654e-01
   6.0304e-02  8.5786e-01  1.2476e-01 -5.4859e-01]
 [ 6.0474e-01 -4.6736e-01  4.8265e-01  5.2053e-01  8.5346e-01  6.2572e-01
  -5.1362e-01  3.3046e-01  7.9121e-01  7.2795e-01  9.2488e-01 -1.0205e+00
   3.9897e-01  1.4341e-01  2.6171e-01  1.6035e-01]
 [ 6.9123e-01 -6.2046e-01 -1.2865e-01  5.1011e-01 -3.0557e-01 -2.2106e-01
   6.2417e-01  7.0416e-01  8.8047e-01 -2.5185e-01 -1.6348e-01  3.0503e-02
   3.6715e-01 -8.6720e-01 -4.7769e-01 -3.3083e-01]
 [ 4.0136e-01 -1.0497e+00 -2.3508e-01  7.9271e-01  8.4375e-01 -5.3757e-01
   2.3320e-01  8.3035e-01 -8.4548e-01  3.1228e-01  1.9285e-02 -5.9134e-01
  -6.8977e-01  4.8543e-01 -5.4970e-01 -1.0105e+00]
 [ 4.2056e-01 -1.9047e-01 -1.5157e-01  1.0472e+00 -3.1427e-01 -1.8694e-01
   3.9469e-01  4.3860e-01 -2.9877e-01  7.5591e-01  2.5569e-01  4.9109e-03
   3.4947e-01  4.0641e-01 -1.9438e-01  8.9670e-01]
 [ 6.7950e-01  5.5099e-01  6.8657e-01  6.1355e-02  8.7546e-01  7.9461e-01
  -7.0172e-01  9.4256e-01 -3.7314e-01  2.4136e-01  9.3161e-02  9.4037e-01
   5.4609e-01 -3.1691e-01 -5.4821e-01 -5.0219e-01]
 [ 3.3761e-01  4.6174e-01  2.5213e-01 -4.5825e-01 -8.8745e-01  4.8979e-01
   2.5441e-01 -4.7277e-01  5.9495e-01  2.3432e-01 -8.8323e-01 -6.5199e-01
  -3.1999e-01 -7.3470e-01  9.9911e-03 -5.0740e-01]
 [-9.2729e-01  5.3130e-01 -1.4510e-01  2.8335e-01 -1.0056e+00  7.5590e-01
  -5.5342e-01  8.9178e-01 -2.3961e-01  7.8769e-01 -6.3943e-01 -3.6615e-01
   8.6320e-02 -3.4085e-01 -1.6243e-01 -2.7551e-01]
 [-5.2899e-01 -4.6936e-01  8.2336e-01  2.9446e-01 -4.9164e-01  1.6039e-01
   6.3211e-01  5.7627e-01  6.2959e-01 -7.2368e-01  6.0460e-02  8.7045e-02
  -4.5657e-01  9.4578e-01 -5.9525e-01 -6.9221e-01]
 [ 5.3347e-01 -5.2628e-01  4.6942e-03  5.6650e-01  6.3341e-01  9.1554e-02
   1.2732e-01  5.3467e-01  5.0350e-01  7.2197e-01 -3.3400e-01  7.5938e-01
  -3.7711e-01  1.9800e-01  4.2078e-01  3.7128e-01]
 [-1.5832e-01  3.1223e-01  8.4035e-03 -6.4867e-01 -6.1150e-01  1.8751e-01
  -7.3496e-01  9.6900e-02  6.2667e-01  4.4514e-01 -1.8788e-01 -3.2938e-01
   4.9811e-01  1.2330e-01 -4.9041e-01 -8.1958e-01]
 [-8.6974e-01  5.6239e-01  5.1545e-01 -1.7617e-01 -4.5001e-01 -4.4362e-01
   8.3016e-01 -3.8627e-01 -1.5882e-01  1.3249e-01 -8.0350e-01 -5.3354e-01
  -1.0267e+00 -3.3347e-01 -1.1072e-01 -5.0348e-01]
 [-5.1124e-01 -1.6010e-02  9.3094e-01 -5.7096e-01  9.0674e-01  4.9557e-01
   1.5790e-01  1.4055e-01  9.3360e-01  4.0649e-01 -7.4448e-01  1.5711e-01
  -5.2829e-01 -3.9060e-01  3.8400e-01 -6.0110e-01]
 [ 6.8558e-01  9.7349e-01 -2.4266e-01  5.2453e-01 -3.7456e-01 -8.2313e-01
  -8.5169e-01 -4.6562e-02  7.7352e-01 -7.9169e-01 -5.5515e-01  8.8698e-01
  -1.9894e-01 -8.5992e-01 -2.8847e-01 -7.8293e-01]
 [-4.2556e-01 -6.0452e-01  7.1104e-01  3.5619e-01  6.8614e-01 -7.1459e-01
  -4.6206e-01 -1.6800e-01  3.1105e-01 -8.9166e-01  6.8317e-01 -7.9608e-01
   5.4447e-01 -6.0180e-01 -3.9153e-01  5.9239e-01]
 [-4.0937e-01  2.8224e-01 -3.9520e-01  6.4758e-01 -1.3599e-01 -1.4416e-01
  -4.8556e-01 -7.6090e-01 -6.3300e-01 -8.3561e-01 -9.8305e-01  5.2144e-01
  -4.3902e-01 -2.3558e-01  5.5099e-01 -9.9342e-02]
 [-6.2236e-01 -5.5421e-01 -7.4222e-01 -6.5821e-01 -1.5893e-02 -9.9753e-01
  -8.2507e-01 -4.9728e-01 -1.6761e-01  1.8713e-01 -6.3242e-01 -4.6312e-01
  -9.5732e-01 -3.6089e-02  5.6209e-01 -6.4025e-01]
 [ 3.7589e-01 -9.3809e-01 -8.9065e-01  8.1743e-01  1.2895e-01  9.7770e-01
   8.9229e-02  3.5282e-01  7.8267e-01 -5.5801e-01 -2.8440e-01  4.5475e-01
   1.3108e-01 -5.1949e-01 -9.8174e-01 -2.0199e-02]
 [ 4.3598e-01  8.7582e-01  6.2613e-01 -9.6850e-01  5.4690e-01 -1.4772e-01
  -6.1643e-02 -5.1880e-01 -3.2953e-01 -2.5057e-01 -6.0134e-01 -8.7281e-01
  -7.6015e-01  5.8210e-01  6.2744e-01  9.2355e-01]
 [-4.2313e-02 -5.7494e-01 -9.8683e-01  6.2664e-01  5.1729e-01 -8.8773e-01
   2.2548e-01  7.2965e-01  3.2826e-01 -8.0152e-01  1.4209e-01  2.2526e-01
  -2.6607e-01  7.6611e-01  6.6434e-01  9.9331e-01]
 [ 4.3259e-01  7.8439e-01  9.0684e-01 -2.0197e-01 -2.6548e-01 -2.8528e-01
  -7.0283e-01 -9.2470e-01  6.1138e-02 -8.4828e-01 -7.0493e-01 -9.8783e-01
  -5.8336e-01  4.3395e-01 -5.2636e-01  3.7752e-01]
 [ 8.4388e-01  7.8478e-01 -7.5088e-03  1.3209e-01 -8.6087e-02 -7.7627e-01
   4.0671e-01  7.1061e-01 -2.4306e-01  6.5600e-01  4.3443e-01 -6.7618e-01
  -3.4792e-01  1.8130e-01 -7.7569e-01 -7.3230e-01]
 [ 2.2127e-01 -2.1885e-01  2.0842e-01  3.8062e-01 -3.9487e-01  3.3286e-01
  -6.9745e-01 -9.2046e-01  2.2180e-01  1.6424e-01 -5.3409e-01 -5.6398e-02
   9.1055e-01 -5.4153e-01 -7.8851e-01  3.2681e-01]
 [ 8.9206e-02 -4.5901e-01  9.3906e-01 -7.8290e-01 -9.8727e-01  6.9680e-02
  -6.9050e-01  4.9246e-01 -4.4993e-01 -4.5949e-01 -4.4084e-01 -7.0860e-01
  -3.9110e-01  8.7354e-02  6.0757e-01 -6.7125e-01]
 [-8.0532e-01  8.6741e-01  7.3044e-01 -6.9565e-01  1.6841e-01  3.6749e-02
   9.5673e-01 -7.6957e-01 -1.9034e-01  1.0685e-01 -3.7691e-01  5.6477e-01
  -3.2614e-02  5.4344e-01  6.9046e-01  2.3477e-01]
 [ 5.0642e-01  5.9983e-01  6.3489e-01  8.6919e-01  3.1463e-01  2.7267e-01
  -3.5811e-01  1.1158e-01  8.7215e-01  2.8663e-01 -6.5350e-01 -1.3426e-02
   3.0007e-02 -8.7515e-01  5.8152e-01  2.6409e-01]
 [-1.7881e-01  8.6791e-01  4.0780e-01 -6.8411e-01  4.8501e-01 -4.0503e-01
   6.6644e-01  8.3272e-01  1.0070e+00  5.1101e-01  1.1518e-01 -9.2781e-01
   5.2775e-01  4.3215e-01  7.3789e-01  7.6432e-01]
 [-5.6983e-01 -8.9409e-01  6.5111e-01  7.0129e-01  2.9940e-01 -8.4420e-01
   4.0855e-01 -7.1805e-01 -4.9095e-03 -2.4831e-01  3.5995e-01  7.4245e-02
   7.2068e-01 -8.8923e-01 -7.6543e-01  7.0639e-01]
 [-3.4137e-01  4.4208e-01  5.1762e-01 -3.7602e-01 -7.6016e-01  8.6385e-02
  -6.5072e-01 -7.6275e-02 -6.3591e-01 -2.4112e-01  3.4764e-01  1.7657e-01
  -1.5768e-01 -1.0058e+00 -1.2935e-01 -4.5262e-01]
 [ 8.3186e-01  1.5086e-01  3.5673e-01 -5.8685e-01  8.7961e-01 -2.0257e-01
   3.2323e-01 -6.1333e-01  9.7892e-01 -6.4585e-01 -8.7034e-01 -3.2146e-01
  -7.7905e-02 -3.3506e-01  4.3462e-01  3.4450e-01]
 [-4.1405e-01 -1.2397e+00  1.4210e-01  8.4052e-01 -9.6170e-01  5.8491e-01
  -8.5793e-01 -2.0029e-02 -9.7847e-01  5.9761e-01  9.9207e-01 -4.3342e-01
   1.0895e+00 -2.1386e-01  4.3576e-01 -1.4132e-01]
 [ 2.4060e-02  6.4580e-01  5.8792e-01 -2.9309e-01  7.8607e-01  7.5200e-01
  -1.9232e-01 -9.0139e-01 -9.2877e-01 -6.4961e-01 -9.2266e-01 -8.8419e-02
  -3.3000e-01 -8.0170e-02 -4.0968e-01 -1.2969e-01]
 [-4.7763e-01 -1.1309e+00  5.8236e-01  9.6229e-01  3.9079e-01 -8.9764e-02
  -9.8208e-01 -5.0346e-01  4.8245e-01 -3.2232e-01  5.7152e-01 -6.5055e-01
  -2.3553e-01 -6.2349e-02  4.7599e-01  6.9608e-01]
 [ 2.8072e-01 -3.5434e-01 -3.1603e-01 -4.4163e-01  9.7554e-01  1.9195e-01
   8.0991e-01  9.0530e-01  1.9725e-01 -4.8593e-01  6.9343e-01  7.3600e-01
   2.3914e-02 -4.8178e-01 -1.9164e-01  3.7395e-01]
 [ 8.7872e-02  2.9349e-01 -6.4988e-01  9.5190e-02  4.5232e-02  8.7088e-01
  -8.0625e-01 -2.8029e-01 -3.9922e-01  9.0769e-01 -5.0672e-01 -2.0572e-03
  -8.8829e-01 -7.0014e-01  7.5291e-03  5.7877e-01]
 [-2.3845e-02  6.6096e-01  6.7220e-01  9.5537e-02  3.3929e-02  7.0230e-01
   1.9822e-01  2.3701e-01 -4.5146e-01  7.2159e-01  7.4802e-01  6.3032e-01
  -4.2430e-01  4.9433e-01  7.0180e-01 -2.0633e-01]
 [ 5.1597e-01 -8.6275e-02 -3.6608e-01 -8.0151e-01 -8.6264e-02  2.5482e-01
  -1.5462e-01  4.4554e-01  1.9302e-01  3.1570e-01  3.0050e-01  6.0329e-01
  -1.6872e-01 -4.7520e-01 -2.5169e-01 -9.1993e-01]
 [-9.7352e-01  7.2149e-01 -3.3834e-01  6.8375e-01  6.0915e-01 -6.2606e-01
  -8.3066e-01 -6.3962e-01  2.5706e-03 -6.7782e-01  4.9926e-01  6.2704e-01
  -2.6010e-01 -7.9519e-01  1.0243e+00  4.5557e-01]
 [-2.4077e-01 -1.2108e-01 -2.5595e-01  6.8580e-01  6.5230e-01 -7.1394e-01
  -3.8905e-01  1.6597e-01  7.5771e-01  2.4571e-01  5.2139e-03 -2.1592e-01
  -3.7862e-01  9.8982e-01  5.0976e-02  8.6380e-01]
 [-8.1322e-01  4.5522e-01 -7.0339e-02  2.5705e-01 -2.0461e-01  5.8924e-01
   1.4866e-01  1.2399e-01 -2.3240e-01 -9.5150e-01 -9.9928e-01 -7.2067e-01
   5.2162e-01  8.9733e-01  2.7014e-01  6.2294e-01]
 [ 4.2147e-01  3.7923e-01 -5.0440e-01 -9.5117e-01  8.6689e-01 -4.9932e-01
  -9.4783e-01 -5.3425e-01 -7.0991e-01 -1.1262e+00  5.2142e-01 -4.0134e-01
  -2.9247e-01  6.1198e-02  8.7177e-01  1.0889e-01]
 [-3.6735e-01  3.8498e-02  9.3315e-01  7.9624e-02  1.1870e-01 -3.4009e-02
  -1.2970e-01  3.8204e-01  8.5141e-01  9.1945e-01  5.6970e-01  8.1411e-01
  -1.1077e-01 -5.4307e-01  4.0830e-01  2.9053e-01]
 [-6.2166e-01  1.5865e-02 -9.5359e-01 -1.1860e-01  6.9533e-01  1.9094e-01
  -1.9228e-01  9.2978e-01 -4.8772e-02  6.1624e-01  6.9997e-01  4.0016e-01
  -4.7733e-01 -2.2115e-02  2.1187e-01  8.7584e-01]
 [-6.0714e-01  8.3030e-01 -9.4403e-01 -3.8594e-01 -6.5213e-01  6.4876e-02
   7.4321e-01  1.2245e-01 -4.0797e-01  6.1994e-01  1.5139e-01 -5.3992e-01
  -7.4191e-01  7.9377e-01 -6.6605e-01 -5.6782e-01]
 [ 9.6774e-01 -2.3734e-01  6.0478e-02  7.2024e-02 -3.3864e-01  3.8875e-01
   3.5390e-01  7.2742e-01  9.1023e-01 -4.5467e-01  6.2140e-02  1.5091e-01
   4.0893e-01  4.5513e-01  5.2364e-01  5.8138e-01]
 [-9.3934e-03  2.7214e-01 -3.4163e-01 -4.5293e-01  2.1718e-01 -8.3514e-03
  -2.1196e-01  3.2111e-01 -9.8447e-01 -9.0604e-02  2.4964e-01  8.8748e-01
   9.0682e-01 -8.1541e-01 -5.9093e-01 -3.3040e-03]
 [-5.9327e-01  1.3319e-01 -4.4890e-02 -2.9337e-02  6.2897e-01  2.0604e-01
   6.0181e-01 -4.8069e-02 -2.2963e-01 -4.1673e-01  6.7130e-01  8.3524e-01
  -2.9025e-01 -7.5196e-01  6.6905e-01 -2.9314e-01]
 [-9.8252e-01 -4.4536e-01  8.2934e-01 -6.5418e-01 -4.4565e-01  9.0733e-01
   8.3131e-01 -9.8532e-01  6.5337e-02 -3.4537e-01  7.2799e-01  5.5470e-02
  -3.5581e-01  2.8023e-01  9.3067e-01 -9.4358e-01]
 [ 6.3662e-01 -3.7954e-01  4.2550e-01  3.5841e-01  3.3981e-01  7.2617e-01
  -1.6608e-02  5.2544e-01 -9.5155e-01  3.2529e-01  1.9026e-01  1.4022e-01
   8.0430e-01 -9.1200e-01  2.5529e-01 -5.6766e-01]
 [ 7.5268e-01 -6.6791e-01  6.1788e-01  6.1247e-01  1.8443e-01  4.9744e-01
  -7.6443e-01  6.8041e-01  2.7623e-01  5.9437e-01  5.0699e-02 -1.3340e-02
  -9.4674e-01 -4.3607e-01 -4.3223e-01  4.6253e-01]
 [ 6.5865e-01  6.8718e-01  3.2312e-02  6.8836e-01  9.1137e-02 -3.2973e-01
   4.5256e-01  6.5133e-01  1.8400e-01  1.9464e-01  5.0852e-01 -1.3122e-01
   4.3172e-01 -5.0687e-01  7.0549e-01 -1.6903e-01]
 [ 9.0981e-02  8.3639e-01  1.4499e-01  7.8798e-01  3.1820e-01 -3.8678e-01
  -1.1871e-01 -1.0823e+00 -9.2024e-01  1.2230e-01 -6.2135e-01  2.9748e-01
  -6.9889e-01 -8.0464e-01  8.8303e-01  6.0283e-01]
 [-1.1670e-01  2.8814e-01  3.0440e-01  5.1405e-01 -9.9331e-02  7.2485e-01
  -2.3437e-01 -3.0382e-01 -3.7021e-01  8.0535e-01  6.4576e-01 -8.4778e-01
  -5.2769e-01 -6.9893e-01 -8.7380e-01 -8.0745e-01]
 [ 5.4500e-01  6.3190e-01  5.0585e-01 -9.3646e-01  7.0785e-01  5.0057e-02
   3.2981e-01  5.5006e-01  4.1439e-01 -7.2324e-01  6.8278e-02  2.3422e-01
  -1.0434e-02  7.6311e-02  2.4925e-01 -9.9503e-01]
 [ 6.9887e-01 -1.2326e-01  1.6437e-01  7.0816e-01  3.7665e-01  1.7035e-02
   4.3383e-01 -4.1473e-01  8.0582e-01 -8.8574e-01  1.0948e-02 -1.5528e-01
   8.1719e-01  9.8572e-01  8.3105e-02  4.8094e-01]
 [-5.4991e-01 -5.8074e-01 -4.7620e-01 -6.4350e-01  6.3109e-01  6.3124e-01
   1.0147e+00  1.1520e-01 -6.2980e-01  1.0148e+00 -3.5114e-02  2.5861e-01
  -4.8788e-01 -2.5476e-01 -8.5616e-01 -6.0032e-01]
 [ 6.4990e-01 -1.0811e+00  1.0970e-01  3.5934e-01 -5.8391e-01  7.8984e-01
  -8.0814e-01 -5.3783e-01 -2.3018e-01  4.1515e-01 -6.6727e-01 -1.1622e-01
  -2.9527e-01  8.2467e-01 -7.2409e-01  3.4495e-01]
 [-7.9073e-01  3.8909e-01 -9.0701e-01  1.3362e-01  4.3430e-01  6.9981e-01
   7.8794e-01  6.9907e-01 -1.2776e-01  5.0879e-01 -5.9918e-01  5.7022e-01
  -2.1987e-01  7.2400e-01 -3.8638e-01 -1.2728e-02]
 [-7.7019e-01 -8.5669e-01  3.7231e-01  8.3972e-01  9.2409e-01 -3.4396e-01
   3.5212e-01  5.1414e-01  3.7011e-01 -5.1960e-01 -5.0788e-01 -1.1066e+00
  -3.9152e-01  2.9484e-01 -4.8343e-02  4.4732e-01]
 [ 8.7694e-01 -7.4146e-01  1.7455e-02 -3.1568e-01 -2.5687e-01 -4.4716e-01
  -3.1751e-02 -4.2212e-03  3.2029e-01  8.0510e-02 -2.2022e-01 -5.5116e-01
  -1.9678e-01 -4.3955e-01 -3.4758e-01  5.0185e-01]
 [-9.3295e-01 -9.4974e-01 -8.8345e-01  5.4292e-01 -9.1843e-01 -7.6112e-01
   4.2561e-01 -8.9091e-01 -1.1978e+00  7.7902e-01  7.2684e-01 -2.6602e-01
  -3.5449e-01  2.4753e-01 -2.8399e-01 -5.5167e-01]
 [ 6.8468e-01 -5.1004e-01  6.3334e-01  6.0030e-02 -6.2240e-02  7.2908e-01
   5.6311e-01  1.3123e-01 -2.9308e-01  7.8292e-01 -2.9828e-01 -7.3815e-01
  -3.4818e-01 -8.9239e-01 -7.7882e-02 -6.9412e-01]
 [-2.4529e-01 -9.1736e-01 -5.3189e-01 -1.3170e-01 -9.1279e-02  4.6881e-01
  -4.0708e-01  4.3494e-01 -4.8719e-01  6.4915e-01 -4.4334e-01  3.3738e-01
  -5.6458e-01  1.0386e+00  5.2319e-02  2.9356e-01]
 [-2.2071e-01 -8.1079e-01  8.2197e-01 -9.1461e-02  3.4640e-01  1.0209e+00
  -3.9088e-01  5.7209e-01  3.3510e-01 -3.4136e-01  6.4354e-01  1.0540e+00
   1.4657e-01 -1.7750e-01  5.0871e-01 -6.6258e-01]
 [ 3.5249e-01 -6.7362e-01  3.2485e-02 -8.1104e-01  4.6233e-01 -4.8806e-01
   5.5184e-01  1.3194e-01  8.3300e-02 -1.0025e+00 -8.3053e-01  7.9073e-01
   3.0745e-01  8.7935e-01  8.6302e-01  4.7664e-01]
 [ 9.8649e-01  6.2459e-01  1.1397e-01 -9.3326e-01 -9.7586e-01 -2.0752e-01
   8.9806e-02 -5.3941e-01  4.9490e-01 -6.8543e-01 -6.8626e-01 -3.5928e-01
  -1.1447e-02  9.1832e-01  5.9921e-01  3.1416e-01]
 [ 9.0088e-01 -5.5939e-01 -4.6490e-01 -5.4733e-01  3.6306e-01 -1.4546e-01
  -8.2128e-01  9.0666e-01 -2.5953e-01 -8.7298e-01  1.4768e-01  3.0533e-03
  -7.6107e-01 -4.2634e-01 -4.0041e-01  3.1572e-01]
 [ 4.0687e-01 -2.2736e-01 -5.5217e-02 -3.6277e-01  8.1817e-01  6.1695e-01
  -4.9557e-01 -5.5374e-01  4.0635e-01 -5.1916e-01 -7.4548e-01 -3.2929e-01
  -6.9008e-01  2.0059e-01 -3.7138e-01  8.9170e-01]
 [-1.2001e-01  1.0684e-01  3.4436e-01 -1.3830e-01  9.6002e-01 -6.1627e-01
  -5.2089e-01 -1.7466e-01 -8.6357e-02 -8.7391e-01  1.7468e-01 -8.1270e-01
   1.8478e-01 -8.4908e-01  2.2788e-02  6.1096e-01]
 [-3.7067e-02  6.8515e-01  3.7417e-01 -1.9603e-01  4.8676e-01  7.8690e-01
  -9.9491e-01  8.8579e-02  7.2836e-02 -9.7847e-01 -5.1008e-01  3.2503e-01
   1.7398e-01  6.4962e-01  5.2181e-01  4.3207e-01]
 [-8.4214e-01 -8.9364e-02 -9.1489e-01  5.6046e-01  5.1375e-01 -6.1108e-01
   1.6164e-01 -5.2811e-01  1.0600e+00  1.0240e+00 -8.0879e-02 -6.4901e-01
   6.3412e-01 -1.3582e-01 -8.0910e-01 -4.6340e-01]
 [ 8.0805e-01 -2.7820e-01  6.7322e-01  3.0637e-01  6.1761e-01 -7.3560e-02
  -1.4386e-01 -6.4474e-02  2.0439e-01 -5.9005e-01 -3.5278e-01 -7.4234e-01
  -9.0745e-02  2.5418e-02 -7.8460e-01  7.8950e-02]
 [ 9.3508e-01  4.9208e-01 -3.7775e-01 -6.7490e-01 -4.4826e-01  1.5209e-01
   9.1757e-02  8.0655e-01  7.7731e-01  2.3558e-01  1.8042e-01 -5.2878e-01
  -8.4223e-01 -7.6547e-01 -9.8648e-01  6.9946e-01]
 [ 3.5844e-01 -8.8633e-01 -7.3092e-01 -9.3848e-01  7.8761e-01 -3.5473e-01
   9.4572e-01 -9.9587e-02  1.2994e-01 -8.3338e-02  8.3247e-01  4.6160e-01
  -6.3502e-01  6.8879e-01 -6.5410e-01 -2.7998e-01]
 [ 9.0371e-01  7.2269e-01 -6.3848e-01 -6.0477e-01 -9.6265e-01  1.3992e-01
   3.2402e-01  1.1620e-01  2.5146e-01  2.3629e-01  4.4704e-01  3.1835e-01
   3.1292e-01  7.6374e-01  5.7689e-01 -1.3496e-02]
 [-6.5983e-02 -9.2673e-01  5.9867e-01  2.3584e-02  5.1321e-01  8.2470e-01
  -8.1062e-01  8.4561e-01  4.5416e-01 -3.2623e-01  8.0381e-01  3.3496e-01
   7.5518e-02  5.4422e-01  1.0636e-01  5.3651e-01]
 [-4.5953e-01 -9.2011e-01  2.3658e-01 -2.1022e-01  6.5776e-01  8.0038e-02
   1.0911e-01 -6.5114e-01  6.5580e-01  1.0927e-01  4.0987e-02  2.7780e-01
  -6.1921e-01 -2.5855e-01  4.3320e-02 -2.3167e-01]
 [ 6.0385e-01 -4.0325e-01 -8.5788e-02  5.3221e-01 -8.6538e-01 -8.2926e-02
  -6.1809e-01  1.4416e-01 -1.6538e-01 -5.3649e-01  9.1267e-01  4.4293e-01
   7.3954e-02  4.7149e-01  4.1470e-01  9.2553e-01]
 [-6.6125e-02  1.8931e-01 -6.1181e-01  5.7796e-01  9.2879e-01  2.2729e-01
  -2.4652e-01 -3.5195e-02 -4.1196e-01 -3.5513e-01  9.1657e-01  3.0208e-01
  -6.9246e-01  1.4483e-01 -5.3664e-01 -9.7929e-01]
 [ 5.7983e-01  1.0583e+00  6.1798e-01  2.8325e-01 -3.8329e-01  3.0908e-01
   7.1978e-01 -1.3684e-01  4.5785e-01  5.0320e-01  4.1142e-01  9.6069e-01
   1.8893e-01  8.0832e-01  1.3409e-01  1.0441e-01]
 [-4.0481e-01  1.9004e-01  6.8060e-01  2.0819e-01 -8.3232e-01 -5.3206e-01
  -5.5682e-01  5.9858e-01  1.9666e-01 -8.3198e-01 -3.0799e-01  3.8522e-01
   8.9789e-02 -3.5549e-02  1.2579e-01 -9.4902e-01]
 [-5.9045e-01 -1.7380e-02  8.7215e-01  2.4183e-01 -4.7306e-01  5.4227e-01
  -5.7759e-01 -2.2804e-01 -2.0567e-01  7.0187e-01  4.8688e-01  6.2450e-01
   6.5566e-01 -7.0176e-01 -1.9691e-01  7.6925e-01]
 [-8.3605e-01 -1.9032e-01  8.7216e-01 -1.0497e+00 -4.3067e-01 -6.6476e-02
   5.8360e-01 -1.1490e-01  3.7166e-01  9.5474e-01 -2.3087e-01 -5.5692e-01
   9.6685e-01 -7.6526e-01  1.6760e-01 -4.7551e-01]
 [ 1.8223e-01 -2.1013e-04 -3.7036e-01 -1.1016e+00  9.4728e-01 -2.2893e-01
   2.1672e-01  9.2355e-01  3.5208e-01 -6.5017e-01 -8.8072e-01 -1.1203e-01
   9.0044e-01 -5.9748e-01  7.3745e-01 -7.9986e-01]
 [-5.5046e-01 -2.3602e-01 -1.0174e+00 -4.3424e-01  5.1754e-01 -9.1322e-01
  -1.0540e-01 -8.3945e-01 -3.9749e-01 -4.8149e-01  1.3257e-01  8.3506e-02
  -1.6280e-01 -1.9445e-03 -7.1747e-02 -3.5555e-01]
 [-2.5565e-02 -1.1074e+00  2.0920e-01 -7.1551e-01  3.8571e-01  5.4522e-01
  -6.4192e-01 -7.7835e-01  2.8842e-01  4.4646e-01 -7.4015e-01 -2.8893e-02
   5.6833e-01 -3.7260e-01  2.8903e-01 -5.7001e-01]
 [-5.3488e-02  2.0014e-02 -7.5909e-01  9.6350e-01 -6.6810e-01 -6.2260e-01
   3.4016e-01  5.4918e-01 -9.8876e-01 -7.0992e-02  1.1143e-01  3.7614e-01
   7.3627e-01  6.0644e-01  4.2493e-01  1.7210e-01]
 [-8.5907e-02 -3.6261e-01 -9.1946e-01  4.8597e-01 -5.0429e-01  9.4430e-01
   7.0758e-01 -1.7208e-01  5.2874e-01 -9.1050e-01 -3.8126e-01 -9.2009e-02
   2.0274e-01 -5.0728e-02  7.7441e-01 -5.1730e-01]
 [ 4.6754e-01 -1.0796e-01 -9.0905e-01 -2.6306e-01  5.9200e-01 -8.2811e-01
   8.0126e-01 -5.6117e-01 -3.0806e-01  2.2180e-01  7.0212e-01  1.5699e-01
  -7.1228e-01  1.6236e-01 -4.2143e-01  7.9116e-01]
 [ 5.3944e-01 -1.9203e-01  5.7699e-02  6.1345e-01 -3.4381e-01  5.3944e-01
   2.7313e-01  5.9260e-01 -6.3055e-01  6.2451e-01 -3.7594e-01 -2.9614e-01
  -1.0031e+00 -3.6851e-01  1.6753e-01 -9.8622e-01]
 [-7.1201e-01  5.2115e-03  1.0780e+00  6.8625e-01  7.6058e-01  2.7618e-02
   2.5591e-02  5.4827e-01  1.1377e-01 -7.6717e-01 -1.7803e-01  7.3908e-01
   4.2167e-02  1.9486e-01 -8.0706e-01 -9.3407e-01]
 [ 1.6608e-01 -5.2232e-01  5.1888e-01  2.7369e-01 -1.0116e+00  1.3053e-01
   5.1771e-01 -4.8149e-01 -7.1240e-01  1.7494e-01  2.0987e-01  7.0497e-01
   2.3964e-01  2.0554e-01  6.4577e-01  3.3382e-01]
 [ 1.6210e-01  2.3154e-01 -5.2657e-01 -7.0546e-01  6.5271e-01 -3.8897e-01
   8.2905e-01 -3.9456e-01  1.1572e-01 -4.8067e-01  6.9552e-01  9.5763e-01
   9.9123e-02  4.8452e-01  1.6311e-01 -3.8144e-02]
 [ 6.3913e-01  6.3249e-01 -5.5218e-01 -1.0653e+00  3.4474e-02 -3.3880e-01
  -4.2720e-01 -6.4381e-01 -6.3843e-01  5.5815e-01 -4.9744e-02  8.2762e-01
   7.0527e-01  9.5875e-01 -4.8371e-01 -9.7127e-01]
 [ 2.4375e-01 -3.8665e-01 -8.0058e-01 -9.8833e-01 -5.6877e-01  3.8606e-01
  -9.2644e-01 -1.8611e-01  6.2235e-01 -2.9049e-01  7.9772e-01 -2.1382e-01
  -9.5909e-02 -1.2230e-01  7.7852e-01  4.9403e-01]
 [-5.6928e-01  1.4021e-01 -1.4544e-01 -8.7576e-01  2.8856e-01 -2.9868e-01
   9.1464e-01 -3.8505e-01  7.8272e-02  1.3461e-02  3.1363e-02 -8.4040e-01
  -3.1261e-01  4.3380e-01  6.8017e-01  1.0054e+00]
 [ 8.9846e-02 -3.3165e-01 -6.9711e-01 -5.1614e-01  6.6565e-01  1.6489e-02
   6.0537e-01 -1.3622e-01 -2.4229e-01 -7.9207e-01  5.7571e-01  1.4535e-01
  -5.9908e-01 -1.2018e-01 -4.4725e-01 -3.4258e-01]
 [ 6.0904e-01 -8.6570e-01 -9.2726e-01  1.8668e-01 -1.6404e-01 -3.2288e-01
   7.8025e-01 -3.9894e-01  3.3157e-01 -2.6851e-01 -6.0132e-01 -2.4130e-01
  -8.0480e-01 -9.5357e-01 -9.5884e-01  1.2212e-01]
 [-7.3819e-01  5.5162e-01  8.6790e-01 -4.5595e-01 -5.1628e-01 -4.2589e-01
  -1.4324e-01  8.2762e-02 -6.6246e-01  4.6902e-01  4.9621e-01  4.8114e-01
   1.0508e+00  9.1651e-01 -6.2165e-01  2.6927e-01]
 [-3.8308e-01 -5.3511e-01  4.2789e-01 -3.1775e-02 -7.1807e-01 -9.7125e-01
   9.5619e-01  3.5616e-01  8.5029e-01  2.8203e-01 -8.8214e-01  8.7113e-02
   2.7229e-01  2.4052e-01  2.2166e-03 -4.1172e-01]
 [ 4.9369e-01  9.2384e-01  7.7210e-01 -8.2178e-01 -7.5797e-01 -1.0122e+00
  -3.4979e-01 -7.0049e-01 -5.5302e-01 -3.0969e-01  7.9917e-01  6.8930e-01
  -4.4105e-01 -6.6340e-01 -2.1881e-01 -5.0908e-01]
 [ 3.4011e-01 -8.7376e-01  3.4357e-01  1.3167e-01 -1.8135e-01  1.3155e-01
   8.1989e-01  1.2517e-01  6.4394e-01  2.4705e-01  4.3236e-01 -9.0981e-02
  -4.8514e-01 -8.5658e-01 -2.2754e-01  2.6594e-01]
 [-8.3107e-01  6.8476e-01  7.8389e-01 -8.5202e-01  3.1445e-01 -7.0908e-01
   6.2872e-02  7.8573e-01  8.2053e-01 -9.1039e-01  8.9898e-01 -6.1568e-01
  -2.1326e-01  6.5228e-01  3.7372e-02 -4.8589e-02]
 [-9.6048e-01 -7.6225e-01 -2.5726e-01  7.3959e-02  3.9876e-01 -6.5053e-01
   2.6527e-01  4.4346e-01  2.3782e-01 -5.2378e-01 -5.3020e-01 -7.8973e-01
   5.8264e-01 -4.4131e-03 -5.3572e-01 -4.0957e-02]
 [-3.3433e-01 -4.3035e-01 -2.6014e-02 -9.7480e-01 -1.2565e-01  9.5839e-01
   4.3294e-02  3.7866e-01 -3.7416e-01  2.2285e-01 -1.4530e-01 -7.1328e-01
   6.4757e-01 -8.9108e-01  9.1025e-01  1.0311e-01]
 [-6.2611e-01 -6.1523e-02 -1.9060e-01 -1.7848e-01  3.4888e-02  8.3622e-01
   2.8949e-01  8.6324e-01 -1.8001e-01 -8.4768e-01 -3.6317e-01 -7.2801e-01
  -7.3486e-01  8.4399e-01  2.7403e-01 -8.9544e-01]
 [ 9.7996e-01 -5.5995e-01 -9.5909e-01 -7.4842e-01 -5.2733e-01 -5.7007e-01
   5.8260e-01  6.0595e-01  3.2911e-01 -8.4309e-01 -2.8129e-01 -6.3396e-01
  -7.6083e-01  4.9554e-01 -9.3833e-01 -7.2797e-01]
 [ 9.7131e-01  9.1397e-01  9.6111e-01 -5.8529e-01  7.5734e-01  7.1353e-01
  -4.4406e-01  5.4757e-01 -2.6900e-01  8.0443e-01  2.3830e-01  8.3390e-01
  -4.4356e-01 -6.8119e-01 -8.7906e-01 -4.8280e-01]
 [-2.8826e-01 -1.2565e-01  1.0077e+00 -4.6269e-01  3.0235e-01 -4.7847e-01
   2.7547e-01 -1.8084e-01  1.9606e-01 -5.7103e-01 -5.1688e-01 -5.0401e-02
   7.3694e-01 -8.7556e-01 -4.9224e-01  1.6979e-01]
 [ 9.4089e-01 -1.7199e-01 -9.8893e-02  4.8095e-01 -3.3762e-01  2.9405e-01
  -8.3588e-01  6.4404e-01 -4.1434e-01  1.2241e-01  1.0007e-01 -7.5023e-01
  -6.4876e-01 -3.4933e-01 -8.2533e-01 -1.4671e-01]
 [ 4.5433e-01 -1.5184e-01 -8.3555e-01  3.8980e-01  8.2583e-01  4.9369e-03
  -8.9569e-01  8.4956e-01  1.0085e+00 -4.3914e-01 -6.3041e-01 -4.1154e-01
   4.7443e-01 -1.8372e-01  5.2279e-01  5.6957e-01]
 [-2.4161e-01  6.2250e-01  5.9726e-01  4.5621e-01  3.2693e-01  5.5302e-01
   3.2332e-01  9.4670e-01 -6.5811e-01  6.4082e-01 -1.0013e+00  6.7162e-01
  -5.0126e-01 -6.9481e-01  7.0392e-02 -8.8651e-01]
 [ 2.7443e-01  4.4025e-01 -8.5422e-01 -2.3535e-01  5.4966e-01  5.8298e-01
   1.6212e-01 -7.2029e-01 -8.4014e-01  8.5679e-01  1.5605e-01 -8.2923e-01
   1.3793e+00  9.8694e-01  2.2500e-01 -9.9278e-01]
 [ 2.2182e-01 -3.7475e-01  3.7902e-01  7.4884e-01  3.8735e-01  6.3925e-01
   9.3251e-01 -5.0888e-01  9.8288e-01 -5.4765e-01 -8.6333e-01 -7.4721e-02
   4.7236e-01 -6.6586e-01  7.4958e-01  3.2329e-01]
 [ 4.6546e-01 -3.6160e-01 -5.6087e-01  5.6912e-01 -8.3161e-01  4.1199e-01
  -9.0467e-02 -3.6384e-01 -1.7876e-01  7.6120e-01  6.6871e-01  7.8795e-01
  -2.8431e-01 -5.9559e-02 -3.3921e-01 -9.3628e-01]
 [-9.9222e-02 -1.0579e+00 -4.8922e-01  5.1156e-02 -4.4828e-01  1.7189e-01
  -4.0780e-01 -7.0059e-01 -3.7474e-01 -2.8190e-01  5.1435e-01 -3.8190e-01
   5.1031e-01  8.5659e-01 -5.8287e-01  6.5337e-01]
 [ 6.8693e-01  5.5965e-01  1.5722e-01 -6.0219e-01 -5.4390e-01 -4.3972e-01
  -9.1951e-02  6.5839e-01 -7.4886e-01  3.2665e-01 -2.7050e-01  5.6571e-01
  -3.2021e-01 -4.8641e-01  6.5601e-01  5.5341e-01]
 [ 3.9702e-01 -1.2313e+00 -3.9050e-02  3.8973e-01 -3.4948e-01 -6.5809e-01
  -1.0593e-01  6.9715e-01 -1.2979e-01  6.9119e-01 -4.6844e-02 -6.7051e-01
   3.5693e-01 -8.1080e-01 -8.4859e-01 -7.2784e-01]
 [ 4.1782e-01  4.7242e-01  7.3396e-01  1.9137e-01 -2.0229e-01  3.2975e-01
   2.6932e-02 -6.9279e-01  5.4004e-01  6.0608e-01  8.8241e-01  2.4796e-01
  -4.2363e-01 -4.8779e-01  9.2884e-01 -1.0828e+00]
 [ 2.3753e-01 -6.8210e-01  1.7451e-01  6.0976e-01 -3.9389e-01  8.2465e-01
  -9.1150e-01 -4.5956e-01 -5.6480e-01 -3.2369e-02  1.4492e-01  3.0175e-01
  -2.0432e-01  8.4729e-01 -9.2184e-01 -4.9087e-01]
 [ 8.1189e-01 -9.4406e-01  7.9717e-02 -3.7533e-01  7.1403e-02 -1.2549e-01
  -9.6449e-01  9.8193e-01 -4.9539e-01 -4.8914e-01 -1.5854e-01  8.3999e-01
  -3.7716e-01 -7.0206e-01 -6.5518e-01 -9.7686e-01]
 [-2.9166e-01 -4.3600e-01 -1.7362e-01 -9.1995e-01 -4.7461e-01  6.4905e-01
   8.1795e-01  2.7265e-01 -1.4271e-01 -8.9261e-01  6.6730e-01  6.7206e-01
   7.4814e-01 -6.4891e-01 -6.6564e-01 -7.6967e-01]
 [ 4.3254e-01 -8.8213e-01  7.3669e-01  2.5762e-01  2.6644e-01  1.0051e+00
   2.9032e-01  1.0826e+00 -3.0566e-01 -2.4202e-01  5.4709e-01  1.1800e+00
   3.3870e-01  1.4780e-01  8.3371e-01  1.9101e-01]
 [ 4.8938e-01  8.4204e-01 -8.5308e-01  1.1183e-01 -9.0551e-02  9.0353e-01
   5.4743e-01  2.9407e-01  8.5986e-01 -1.9619e-01 -5.6529e-01 -8.5131e-01
   1.6626e-02 -8.8966e-01 -7.5820e-01 -5.3668e-01]
 [-8.6669e-02 -7.1336e-01 -4.1152e-01 -4.7800e-01 -8.7042e-01  7.9767e-01
  -6.5316e-01  2.2965e-01  1.5833e-02  3.5618e-01 -3.8366e-01  6.7628e-02
  -4.6927e-01  5.4465e-01  5.8025e-01 -1.2727e-01]
 [-4.5382e-01 -8.5136e-01 -3.3906e-01  3.3037e-01  6.9113e-01 -4.8281e-01
  -4.8079e-01 -1.4618e-01 -1.2814e-01 -5.1221e-01 -2.3088e-01  9.8598e-03
   1.9681e-01  8.1731e-01 -7.1492e-01  1.1728e+00]
 [ 5.6887e-02  6.1314e-01  1.4827e-01 -7.9889e-01  1.1611e-01  1.7561e-01
   5.3862e-02 -5.9629e-01  9.2423e-01  1.5291e-01  3.8327e-01 -3.7077e-02
  -2.6765e-02 -5.5768e-01  6.9122e-01  3.4698e-01]
 [ 2.1951e-01 -5.5526e-01  9.3653e-01  2.1025e-01 -4.8039e-01 -7.5022e-01
  -3.7332e-01  6.9739e-01  6.2446e-02 -1.8670e-01 -8.4157e-01  6.3536e-01
   4.4356e-01 -9.6177e-01 -1.5477e-01 -8.3628e-01]
 [ 2.4906e-01  7.0459e-01  7.2973e-01 -3.9761e-01  4.4972e-01  1.9054e-01
   3.0047e-01  1.3730e-01 -8.0378e-01 -4.7750e-01  4.4741e-02 -9.4816e-01
  -3.3254e-01 -5.7190e-01  4.5506e-01  2.6085e-01]
 [ 8.6181e-02 -3.7562e-01  1.0477e-01 -1.3125e-01  7.3106e-01 -5.1389e-01
  -5.7625e-01 -8.2835e-01 -7.4680e-01  3.0180e-01  8.1067e-01 -5.7071e-01
   5.8055e-01 -9.6818e-01  9.2518e-01  4.0597e-01]
 [ 7.4943e-01  2.6220e-01 -7.2820e-01  3.5391e-01  8.9313e-01 -3.0208e-01
  -4.9943e-01 -8.3653e-01 -6.2898e-01  2.7241e-01  1.6749e-04 -8.2444e-01
  -9.3327e-01 -2.8811e-01 -5.9374e-01  3.2365e-01]
 [-8.8050e-02  7.5382e-01  5.9572e-01  5.5256e-02 -5.2539e-01  1.2964e-01
   2.9914e-01 -9.4134e-01  5.8363e-01 -7.4776e-01  3.1300e-01  4.3757e-01
   7.5546e-01  4.4806e-01 -1.6178e-01 -4.8738e-01]
 [-6.3464e-01  1.7548e-02 -4.4364e-01  5.5881e-01  3.3505e-01  4.0574e-01
   1.7433e-01  1.3912e-02  4.7424e-01 -7.2577e-01  9.7468e-01  8.5472e-01
  -2.2440e-02 -6.7587e-01 -4.4221e-01 -2.8543e-01]
 [-6.7799e-01  3.0296e-01  5.2943e-01 -9.2747e-01 -1.7538e-02  8.4142e-01
   9.8507e-01  5.6197e-01 -6.4644e-01 -3.7971e-01  9.5566e-01  5.2063e-01
   3.3040e-01 -7.1766e-01  7.4946e-01  3.4660e-01]
 [-3.8725e-01 -6.1645e-01  8.4375e-01 -1.5146e-01 -5.0877e-01  9.0306e-01
  -3.2640e-01 -2.6475e-02 -3.2167e-02  9.2467e-02 -8.9302e-01 -7.9331e-01
  -2.5040e-01  3.5531e-02 -4.3286e-01  4.4361e-01]
 [-3.2484e-02  9.0289e-01  9.7035e-01  7.1141e-01 -5.8566e-01 -2.8829e-01
  -4.7307e-01  2.7606e-01 -7.6443e-01  5.3157e-01 -3.4105e-01  8.2666e-01
  -1.0414e+00  5.6174e-01  3.4560e-01 -3.8025e-01]
 [-3.5505e-01  1.1202e+00 -3.3261e-01 -7.6109e-01  2.7445e-02  7.0722e-01
  -3.9672e-01  6.4359e-01 -5.6606e-01  6.1189e-01  5.6195e-01 -2.7340e-01
  -9.3874e-01  5.5527e-02  7.0732e-01  7.1078e-01]
 [ 3.4285e-01 -1.9247e-01  2.8462e-01 -3.8122e-02  3.7899e-01  4.4632e-01
  -2.6697e-01  1.1487e-01  7.3676e-01 -1.5141e-01 -6.3489e-01  8.7442e-01
  -7.3298e-01 -5.0432e-01 -9.7778e-01 -3.9579e-01]
 [-8.0758e-01 -8.4938e-01  4.1092e-01 -5.0350e-01 -2.6728e-01 -2.5597e-01
   8.4448e-01  6.8627e-01  3.8476e-01 -2.1610e-02 -5.0344e-02  3.0759e-01
   1.0414e+00  1.3075e-01  3.0352e-01  4.6675e-01]
 [-6.1778e-01 -1.3683e-01  6.8635e-01 -4.8774e-01 -7.6728e-01  3.6851e-01
  -5.4440e-01  8.3654e-01  3.7492e-01  4.5315e-02 -7.7948e-02 -9.2801e-01
  -3.7110e-01 -2.6278e-01 -3.6542e-01  5.1624e-01]
 [-7.5391e-01 -8.0967e-01  5.1785e-02 -4.6893e-01 -8.7982e-01 -9.5571e-01
  -6.8154e-01  6.6257e-01  4.4571e-01  2.1750e-01 -2.2136e-01 -3.0929e-01
  -8.3363e-02  5.1134e-01 -1.1196e-01  5.5383e-01]
 [ 2.8847e-01 -5.7501e-01 -1.4879e-01 -5.1309e-01  5.1254e-02  1.9194e-01
   5.5365e-03  8.1401e-01  3.0740e-01  1.1255e-01 -3.6697e-01 -4.5515e-01
  -2.8376e-01 -2.3838e-02 -8.1910e-01 -3.2437e-01]
 [ 6.8389e-01 -5.3820e-01  8.9496e-01  8.8151e-01 -8.4987e-01  6.0606e-01
   4.5452e-01 -8.8795e-02  9.1866e-01 -2.2028e-01 -8.2685e-01 -2.8167e-01
   4.5682e-01  7.3354e-01 -7.1321e-01 -1.1792e-01]
 [ 9.8865e-01  4.7941e-01  3.8565e-01  7.8877e-01 -2.9510e-01  4.8209e-01
   5.1940e-01  6.1690e-01  1.3249e-01 -6.0113e-01  4.1261e-01  8.7562e-01
   2.9543e-01 -6.1860e-01  5.0677e-01 -9.0817e-01]
 [-9.9665e-02 -5.6762e-01  9.7224e-01 -5.1496e-02  1.7484e-02 -8.2783e-01
   6.3824e-01 -9.0620e-01 -7.5940e-01  3.0808e-01 -2.0184e-01  3.0365e-01
   5.3505e-01 -4.4318e-01 -8.9401e-01  8.6328e-01]
 [ 2.0168e-01  1.8751e-01  6.2300e-01  6.1751e-01 -1.0026e+00  9.4286e-01
  -1.4168e-01 -2.8171e-01 -3.2514e-01 -1.6244e-01  9.0770e-02 -6.8441e-02
   5.6500e-01  3.8560e-02 -5.5677e-01  3.5297e-01]
 [-5.5122e-01 -5.9602e-01 -3.7205e-01  2.9765e-01  6.8224e-01 -5.4909e-01
  -1.8560e-01 -3.4940e-01 -7.2557e-01  5.0315e-01  7.4576e-01  4.5425e-01
  -6.1386e-01  3.6491e-01 -4.2939e-01 -2.0236e-01]
 [ 5.9337e-01 -1.1198e-01  9.4958e-01 -4.2206e-01 -2.5584e-01  3.9283e-01
   5.7167e-01  7.8262e-01 -5.9121e-01 -1.6347e-01  6.7374e-01  8.7705e-01
  -7.0780e-01  6.9539e-01  3.4323e-01 -8.9379e-01]
 [ 8.0701e-01 -6.5658e-01 -3.7034e-01  4.5496e-01  3.1366e-01 -2.1322e-01
  -8.0399e-01  3.7727e-01 -6.5822e-01  2.5963e-01  8.9528e-01  2.2878e-01
   5.2446e-01 -2.1057e-01  4.3040e-01 -4.0307e-01]
 [-7.2114e-02  6.0343e-01  8.1797e-01  3.9318e-02 -7.3913e-01 -1.9254e-01
  -7.2523e-01  1.1980e+00  4.1478e-01  3.7875e-01  9.2609e-01  9.7726e-01
  -1.7048e-01  6.8672e-01 -2.9725e-01 -2.8013e-01]
 [-4.4692e-01 -6.5657e-01 -7.3839e-01  5.0485e-01 -4.3018e-01  9.6949e-01
  -8.9435e-01  1.9326e-02  5.5919e-01 -8.3269e-01  1.0126e-01 -8.4476e-01
   2.2710e-01  5.7675e-02  4.3567e-01 -9.6573e-01]
 [ 6.2447e-01 -4.0313e-01 -1.9721e-01 -4.5887e-01  2.7413e-01  4.0968e-01
   9.9490e-01 -3.2134e-01 -6.1901e-01  8.5116e-02 -1.6380e-01  6.2207e-01
   3.5411e-01  4.2432e-01 -3.3214e-01 -3.4110e-02]
 [ 6.7229e-02  1.2100e-01  7.1131e-02 -7.4358e-01  5.8827e-01  8.3555e-01
   9.4559e-01  4.6135e-01  6.8318e-01  8.2543e-01 -6.2479e-01  4.8370e-01
   2.5911e-01  7.1273e-01  2.8110e-01  5.1172e-01]
 [ 8.4022e-01  7.9530e-01  7.5388e-01 -5.2473e-01 -4.1295e-01 -9.3544e-01
   4.7401e-01 -1.0364e+00  9.3529e-01  6.4664e-02 -1.1139e+00 -9.7779e-01
   8.2269e-01  7.1587e-01  9.0137e-01 -1.8391e-01]
 [ 1.0992e-01  6.5227e-01  8.6227e-01 -6.8189e-01 -9.8691e-01 -8.7168e-01
   8.9562e-01 -2.8743e-01 -2.6292e-01  6.7638e-01  3.0468e-01  1.8665e-01
  -6.2384e-01 -8.3114e-01  5.0110e-01 -2.0821e-01]
 [ 3.5466e-01 -7.3209e-01 -5.8290e-01  4.7721e-01 -3.7167e-01 -4.6289e-01
  -2.0023e-01  9.3419e-01 -8.9745e-01  6.3976e-01  9.2831e-01 -9.1291e-01
   3.5696e-01 -7.3423e-01 -1.2773e-01  9.8875e-01]
 [-9.0321e-01 -8.6465e-02 -4.4886e-02 -3.5235e-01  5.6641e-01 -2.5470e-01
   2.3436e-01 -6.3669e-01  4.6326e-01  2.0979e-01 -8.8915e-01 -9.3269e-01
  -2.5480e-01 -8.5248e-01  6.7220e-01  3.9398e-01]
 [ 5.4051e-01 -2.5025e-02  3.9351e-01 -7.5225e-01  1.5385e-01  9.4079e-02
   7.4946e-01 -5.8658e-01 -6.3558e-01  9.4230e-01  7.9059e-01  2.3169e-01
   6.7302e-01  2.6453e-01  2.2554e-01 -5.0009e-01]
 [-9.3977e-01  1.6026e-01  3.5723e-01  6.8594e-01  6.6371e-01 -9.2310e-01
  -3.2849e-01 -8.2945e-01 -2.0046e-01  2.0270e-01 -3.0882e-01  6.4222e-01
   1.2697e-01  7.5200e-01 -8.1673e-01  7.4788e-01]
 [-5.9321e-01 -2.9296e-01  2.8536e-01 -2.4442e-01 -3.9479e-01 -1.2096e-01
   1.8670e-02  2.5547e-01 -9.2785e-01  7.4459e-01 -8.6226e-02 -3.3349e-01
  -2.5551e-01  3.6057e-01 -4.2718e-01 -8.8512e-03]
 [ 4.2224e-01 -8.3818e-01 -9.1183e-01  6.2444e-02 -1.7815e-01 -6.4049e-01
  -5.6981e-01 -7.1428e-01 -3.9366e-01 -1.3104e-01 -1.5567e-01  9.6699e-02
   2.1496e-01 -9.5243e-01 -5.5983e-01 -7.8266e-01]
 [ 3.8912e-01  8.1726e-01  1.7360e-01 -2.2142e-01  6.7789e-01  9.4622e-01
   6.1116e-01  3.0194e-01 -8.6512e-01  7.1683e-02  4.9590e-01  4.7512e-01
  -2.1267e-01  6.4310e-01  9.8307e-01  6.7300e-01]
 [-3.4788e-01  9.7954e-01  2.8173e-01 -4.1337e-01  8.6898e-02  4.4554e-01
  -6.9748e-01 -7.3794e-01 -3.8733e-01 -2.7100e-01  1.3506e-01 -8.8198e-02
  -2.7195e-02 -9.3647e-02 -6.6024e-02 -4.1727e-01]
 [ 8.5141e-01 -1.2897e-01 -3.0253e-01 -1.5355e-03 -5.4969e-01  1.0252e+00
   6.9680e-01  1.4688e-01 -4.3443e-01 -3.2384e-01 -1.4760e-01 -2.5562e-01
  -8.3296e-01 -8.0694e-01 -8.6155e-01  4.5550e-01]
 [-3.5114e-01  4.0973e-02 -2.2260e-02  3.5201e-01 -8.8829e-01 -5.7020e-02
   7.1928e-01 -7.5811e-01  7.2569e-01 -6.5666e-02 -5.1267e-01 -1.5502e-01
  -1.0926e+00 -2.1067e-01 -2.0094e-01  2.3875e-01]
 [-8.9038e-01 -1.6011e-01 -7.6368e-01 -7.2964e-01  9.6704e-01 -6.4344e-01
   1.3624e-01 -6.5887e-04 -2.8981e-01 -8.2456e-01 -5.7376e-01  1.6211e-02
   2.4085e-01 -6.6948e-01  4.7409e-01 -3.8871e-01]
 [ 4.4561e-01  3.1542e-01 -7.9586e-01 -7.1285e-01  5.3815e-02 -7.1951e-01
   3.5534e-01  5.3300e-01 -4.1154e-02  1.1978e-01 -9.5991e-01  5.2037e-01
  -5.1757e-01  4.6635e-01 -3.1377e-01  5.6980e-01]
 [ 8.6918e-01 -9.4040e-01  4.3061e-01  3.4880e-01 -9.0466e-01  6.1255e-01
   3.4650e-01  9.2656e-01  3.2387e-01 -7.8020e-01  6.7413e-02  1.1148e-01
   1.3332e-01 -8.4794e-01  2.4757e-01 -8.0639e-01]
 [-7.5533e-01 -4.9529e-01  1.3663e-01  4.1539e-01 -9.5472e-02 -2.8371e-01
  -6.9973e-01 -7.9448e-01  1.1684e-01  1.6393e-01  4.1940e-01  9.7695e-01
   1.2734e+00  3.0527e-01  1.1836e-01  8.9095e-01]
 [ 7.0217e-01 -2.3750e-01 -4.9805e-01  6.4397e-01 -9.8253e-01  3.4862e-01
   4.7722e-01 -7.0924e-01 -3.8863e-01 -9.7691e-01 -4.8929e-01 -4.8215e-01
   2.3999e-01  1.0738e-01 -7.5072e-01  6.9986e-02]
 [ 1.7740e-01 -4.4141e-01 -7.5231e-01 -2.0265e-01 -5.0967e-01  4.0277e-01
  -1.3636e-01  3.2744e-01  8.6888e-01 -3.0506e-01 -6.6817e-01  9.2411e-01
   6.1599e-01 -7.2766e-01 -7.9372e-01 -1.0348e+00]
 [ 7.0128e-01 -7.9958e-01  1.0522e-01  4.6136e-01 -9.5867e-01  1.0687e+00
  -1.3356e-01 -2.1603e-01  4.9717e-01 -8.2856e-01 -9.7379e-02  4.8284e-01
  -3.8819e-01 -9.6422e-01 -1.2323e-01  8.8947e-01]
 [ 1.1176e-01 -3.2391e-01  9.4712e-01  2.7808e-01  4.6450e-01  7.8778e-01
  -9.6280e-01 -1.0687e+00 -8.8162e-02  1.4375e-01 -9.2109e-01 -3.7464e-01
   7.5210e-01  8.0679e-01 -3.1473e-01  8.0297e-01]
 [ 5.6841e-01  6.7846e-01  7.7803e-01  8.3855e-01  2.9601e-02  7.5077e-01
  -4.0546e-01 -1.1591e+00  2.6427e-03 -2.1008e-01  3.5665e-01  1.0622e+00
  -4.6208e-03 -1.3709e-01 -1.0091e+00 -2.2293e-01]
 [-3.9785e-02 -1.0719e-01  4.0355e-02  9.7037e-01  5.4488e-01 -7.3200e-01
   7.5291e-01 -7.6280e-01  5.0717e-02 -1.4269e-01 -3.8812e-01  6.1507e-01
  -6.7902e-01  1.0084e+00  3.5026e-01 -8.0880e-02]
 [-6.0287e-01 -7.0708e-01  7.5385e-01 -9.2021e-01  7.4962e-01  1.0141e+00
   7.0016e-01 -9.4420e-01 -6.9981e-01 -8.7127e-01 -6.1803e-01 -8.5423e-02
   2.4400e-01 -6.0192e-01 -6.8880e-01 -5.9578e-01]
 [ 3.1144e-01  7.3696e-01  4.7339e-01  5.6292e-02 -7.8424e-01 -6.4416e-01
  -1.7734e-01  1.2844e-02 -5.0351e-01 -1.0386e+00  3.3584e-01  1.2109e-01
   3.1953e-01  3.7313e-02  5.7964e-01 -3.5899e-01]
 [-8.0460e-02 -6.4539e-01 -1.0838e+00 -9.4221e-01  1.0250e+00  5.7036e-01
  -9.6154e-01  2.4955e-01 -7.3181e-01  8.9256e-02  1.2333e+00  1.0161e+00
   7.0807e-01 -2.5449e-01 -8.2984e-01 -1.6863e-01]
 [-9.1400e-01  5.3116e-01  5.2800e-01  7.7089e-02 -2.7380e-01  2.4431e-01
   2.3964e-01  5.3977e-01 -3.8259e-02 -1.1793e+00  1.5797e-01  1.6357e-03
   6.9643e-01  7.0714e-03 -7.6263e-01  7.8852e-01]
 [ 1.9283e-01  3.1264e-02  5.6407e-01 -2.1775e-02 -3.0255e-01 -8.3923e-02
  -9.7049e-01  8.7081e-01  5.5578e-01  1.7670e-01 -6.4342e-01  6.1048e-01
  -6.0978e-01 -1.6626e-01 -2.1269e-01 -9.0988e-01]
 [ 6.5752e-01  1.9416e-01 -4.5925e-01  8.3202e-01 -4.0420e-01  5.7901e-01
   5.7509e-01 -2.3353e-01 -5.5335e-01 -2.2367e-02 -2.0521e-02  8.2048e-01
  -3.6250e-01  9.6243e-01 -6.7563e-01  8.0138e-01]
 [-7.1310e-01 -1.0517e+00 -3.3353e-01 -9.9381e-01  8.9305e-01  1.2943e-01
  -7.2397e-01 -3.8262e-01  1.0516e+00 -2.4104e-01  6.2577e-01  3.7331e-01
   8.3495e-02 -6.0174e-02 -9.5171e-02 -3.7638e-01]
 [ 8.2809e-01  9.0991e-01 -8.3792e-01  1.8097e-01 -5.9263e-01 -1.5956e-02
   7.3995e-01  6.2818e-01  4.5649e-01 -4.9488e-01 -3.9146e-01 -1.6648e-02
   1.5815e-01 -5.3204e-01  1.9686e-01  2.6607e-01]
 [ 7.1264e-02  1.1163e+00 -3.9007e-01  2.8217e-01 -3.8577e-01 -7.0701e-02
  -8.4402e-01 -8.4631e-01 -4.7703e-01 -6.6834e-01 -5.2162e-01  4.4870e-01
   7.2261e-01 -6.2183e-01 -9.0656e-01 -3.7647e-01]
 [-7.1495e-01 -7.9915e-01 -9.5187e-01  6.6700e-01  6.3709e-01 -8.4997e-01
  -9.8078e-01  2.9427e-03 -5.2054e-01 -6.4365e-02 -4.5302e-02 -8.8159e-01
   8.7965e-01  5.1089e-02  6.3554e-01  8.3756e-01]
 [ 9.6880e-01 -8.2012e-01  2.2996e-01 -1.6176e-01 -1.7852e-01  2.1097e-02
  -2.4227e-01 -2.7792e-01 -5.9442e-01 -2.3901e-01 -7.2342e-01  4.5349e-03
   5.1985e-01 -4.1629e-01  5.2606e-02 -8.5545e-01]
 [-3.1612e-01 -9.0931e-01 -4.8944e-01 -9.5739e-01  1.6436e-01  2.2637e-02
  -5.2901e-01 -4.4339e-01 -2.8237e-01 -6.5178e-01  8.3326e-01  5.9955e-01
  -4.9117e-01  9.3774e-01  3.1841e-01  1.4049e-01]
 [ 2.3551e-01  8.9329e-01  5.3566e-01 -1.0990e-01 -8.5640e-01 -9.1893e-01
  -8.6256e-01 -6.1839e-01  8.6398e-01  1.8957e-01 -4.9343e-01 -2.8493e-01
   2.0200e-01  2.6525e-01  5.7799e-01  3.3111e-01]
 [-9.6543e-01 -6.3921e-01  6.1757e-01  3.0515e-01 -7.3113e-01  3.5470e-01
  -6.4271e-01  6.9406e-01 -4.0583e-01  5.6537e-01 -1.8814e-01 -3.7468e-01
   2.2923e-01 -4.5522e-01 -8.9444e-01 -8.8537e-01]
 [-3.4371e-01 -5.8430e-02  8.3342e-01  7.1389e-01  8.9815e-01 -2.9669e-01
  -6.4659e-01  6.3033e-01 -4.9621e-01 -2.9604e-01 -2.3243e-01  2.4564e-01
  -2.3328e-01  1.6532e-01 -3.7523e-01 -3.1320e-01]
 [ 7.3326e-01  8.3590e-01 -3.7661e-01  2.5675e-01  7.8998e-01 -3.7086e-01
   1.7721e-01  1.9905e-01  7.5874e-01 -8.9373e-01  2.4857e-02  4.2610e-01
  -9.8462e-01  1.8423e-02 -3.4941e-01  1.0549e+00]
 [ 4.9737e-01  1.8623e-01  9.6748e-02  6.6458e-01  6.0558e-01  3.4154e-01
  -1.5210e-01 -7.4709e-01  5.0628e-01  4.3912e-01  1.9792e-01  9.4283e-01
  -8.3480e-01  3.4792e-02  1.7789e-01 -4.0255e-01]
 [-1.1083e-01 -3.7336e-01  4.6152e-01 -9.3791e-01  9.1716e-01  4.1352e-01
  -6.2418e-01 -2.8669e-01  2.0614e-01 -5.1159e-01  6.5239e-01 -4.9572e-01
   1.8571e-02 -6.1149e-01  9.7754e-02  3.6193e-01]
 [-4.3026e-01  1.0290e+00 -1.9976e-01 -6.3921e-01 -2.5830e-01  4.5015e-01
  -2.4293e-01 -2.6663e-01 -3.9087e-02  4.1549e-01  6.1151e-01  4.6074e-01
  -4.9979e-01 -8.2849e-01 -9.4116e-01  1.0358e+00]
 [ 3.1325e-01  2.8117e-01 -5.9412e-01  9.2755e-01  4.6388e-01  2.0318e-01
  -8.1148e-02 -2.1697e-01  2.7396e-01  1.2849e-01  1.6868e-01 -7.2635e-01
   2.2987e-01 -5.4329e-01 -7.2238e-01 -4.2339e-01]
 [ 9.3910e-01  6.5941e-01  5.9343e-01  6.5476e-01  7.8268e-01  9.8656e-02
  -9.6629e-01  1.1980e+00  2.0426e-02  1.0377e+00 -9.4072e-02 -1.2518e+00
   7.9053e-01 -9.5421e-01  8.7952e-01 -6.1652e-01]
 [ 8.6624e-01 -5.7515e-01 -7.8115e-01  3.9140e-01 -4.3897e-01  5.0132e-01
   7.7245e-01  2.6917e-01  9.5084e-01  7.0824e-01  7.5661e-01  2.3999e-01
   2.5562e-01 -8.5316e-01  7.5174e-01  7.6950e-01]
 [ 8.6336e-01 -1.0240e-01  7.9953e-01 -2.1604e-01 -7.4484e-01 -3.9504e-01
  -8.5264e-01  8.0207e-01  3.7139e-01  8.8466e-02 -6.5858e-01 -2.0225e-01
   1.2661e-01  9.7249e-01 -1.5902e-01  3.2355e-01]
 [-2.6556e-01  4.7638e-01 -3.0396e-01  5.0449e-01 -4.4693e-01 -3.7440e-01
   9.4659e-01 -6.8140e-01  5.3059e-01 -7.6170e-01 -6.1880e-01  2.7836e-01
   7.6604e-01  1.4610e-01 -1.0747e+00 -7.5592e-01]
 [ 8.5552e-01 -2.4823e-01 -2.6189e-01 -3.6658e-01  1.4655e-01  1.0749e+00
   9.5292e-01  3.6934e-01  1.1966e-01  3.9440e-01 -1.9298e-01  8.6251e-01
   4.7432e-02 -8.5609e-01  2.4102e-02  7.7297e-01]
 [-6.2593e-01  6.6874e-01 -5.7257e-01 -4.9411e-01  9.0237e-01  6.0078e-03
   2.1623e-01 -1.4060e+00 -7.8320e-02 -4.1457e-02 -2.5976e-01  8.5502e-01
   4.1847e-01  4.2864e-01  9.3262e-01  1.0550e+00]
 [-9.1405e-01  2.1307e-01  1.5941e-01 -2.8605e-02 -8.7433e-01 -4.1887e-01
   4.1325e-01  4.5381e-01 -1.2904e+00  1.5272e-01  7.6282e-01  5.5369e-03
  -5.7053e-01  5.7609e-01  7.0999e-01  5.2879e-01]
 [-8.9825e-02  4.2924e-01  6.4453e-01 -6.3308e-01 -5.7980e-02  5.9824e-01
  -6.2726e-01 -8.1248e-01  3.2392e-02 -3.1701e-01 -3.6709e-01  5.4274e-01
   1.0868e+00  4.4905e-01 -6.6621e-01 -3.3421e-02]
 [-3.4539e-01 -7.3774e-01  6.5250e-01 -7.5420e-02 -3.5147e-01 -7.7299e-01
  -8.2862e-01 -5.6446e-01 -1.1598e+00  5.5454e-01  1.2002e+00 -2.9988e-01
   7.3970e-01 -7.2509e-01  6.2929e-01  1.9780e-01]
 [ 5.1355e-01  8.9146e-01 -4.9932e-01 -2.1660e-02  3.3357e-01  6.5903e-01
  -8.5691e-01 -7.7584e-02 -3.4696e-01 -2.0403e-01 -5.8976e-01 -6.2144e-01
  -1.4320e-01  7.0314e-01  1.4699e-01 -6.7795e-02]
 [ 2.3821e-01  2.8687e-01  1.3031e-01 -1.4544e-01 -7.6562e-01 -5.2950e-01
   4.1423e-01  1.1603e+00 -4.2153e-01 -5.2635e-01 -6.8801e-01  1.0292e+00
   5.1422e-01  5.0475e-01  2.6280e-01  6.1819e-01]
 [ 2.0950e-01  1.3387e-01  4.7545e-01  2.3491e-02 -4.6066e-01  3.1437e-01
  -2.8882e-01  2.7089e-01  2.6092e-01 -1.1750e+00  9.7749e-02 -5.2547e-01
  -5.6292e-01 -8.4550e-01 -2.7959e-02  4.6023e-02]
 [ 1.5192e-01  1.2049e-01 -3.1573e-01 -7.8767e-01 -9.1487e-01  6.1915e-02
   7.5815e-01 -5.9541e-01 -8.0217e-01  6.0284e-01  1.1743e+00 -4.6849e-01
   6.9407e-01  1.0099e+00  9.7911e-01  3.0924e-01]
 [-3.5457e-01  6.4042e-02  6.3089e-01  1.5599e-02 -9.2983e-01 -8.2305e-01
  -7.4643e-01 -2.6080e-02  1.1586e+00 -6.6734e-01 -7.6064e-01 -7.1068e-01
  -8.0436e-02 -6.6279e-01  3.2601e-01  2.9917e-01]
 [ 6.8297e-01 -3.3925e-02 -9.6038e-01  4.3232e-01  3.7369e-01  7.1307e-01
  -7.4354e-01  5.2984e-01  6.8351e-01 -2.9026e-01  1.0011e-02  3.8289e-01
   4.5426e-01  4.4305e-01  8.9632e-01 -3.8841e-01]
 [ 9.0313e-01 -2.9411e-01 -8.9126e-01  6.9238e-01  6.1100e-01 -4.0822e-01
  -7.9771e-01  5.2311e-01  9.8327e-01  8.5825e-01 -8.0579e-01 -4.2368e-01
  -5.6744e-01 -9.0095e-01 -3.0502e-01  1.1887e-01]
 [ 1.4322e-01  3.6379e-01 -7.6514e-01  1.5533e-01  7.8258e-01 -5.8682e-01
  -7.5211e-01  5.9448e-01 -3.4850e-01  8.0362e-01  2.4144e-01  2.5481e-01
  -3.5830e-01  2.8637e-02 -7.9897e-01  4.2101e-01]
 [-7.7048e-02 -2.5133e-01 -1.3310e-01  6.1448e-01 -7.9541e-01  5.1753e-02
  -3.1660e-01 -6.6389e-01 -4.0776e-01 -4.0322e-01 -4.5325e-01  5.4082e-01
   6.8786e-02 -5.1819e-01  1.0287e+00 -3.7670e-01]
 [-4.8774e-01  1.2858e-01  4.5033e-01 -7.3629e-01 -6.1685e-01  6.9735e-01
  -2.6451e-01  1.9544e-01 -5.3715e-01  8.5484e-01 -5.5167e-01  7.3236e-01
   9.1947e-01 -4.8518e-01 -3.5172e-01  2.5631e-01]
 [-8.6712e-01  2.8583e-01 -8.6775e-01  4.6781e-01  9.0620e-01  3.3163e-01
   3.1078e-01 -1.9512e-01  2.2583e-02  3.1964e-01 -4.6572e-01 -7.7324e-01
   9.0682e-01  8.7754e-01 -5.2803e-01  2.7269e-01]
 [ 1.5486e-01  9.8246e-01  1.9628e-01  3.8222e-01 -3.1834e-01 -6.7594e-02
   5.5658e-01 -7.7851e-01 -7.8303e-01  3.1729e-01  1.1889e-01  7.3069e-01
   4.2832e-01 -4.8841e-02  1.3698e-01 -1.0678e-01]
 [-2.8273e-01 -9.7730e-01 -2.6078e-01 -5.9040e-02  3.1652e-01  5.2227e-01
   3.7790e-01  4.4764e-01 -8.2184e-01  5.3721e-01 -6.3402e-02  1.5532e-01
  -8.2788e-01 -9.3178e-01  4.5659e-01  1.6636e-01]
 [ 5.3727e-01 -4.7708e-01 -3.6576e-01  8.4889e-01 -2.3546e-01  1.1611e-01
  -1.7087e-01  5.8941e-01 -6.4831e-02 -2.7714e-01  1.0464e+00  2.8275e-01
   3.9431e-01  1.0077e+00  4.3498e-01 -6.0673e-01]
 [-5.9755e-01 -4.6923e-01  9.6125e-03 -4.8554e-01  5.2486e-01  2.6475e-02
   5.1541e-01  9.2188e-01 -4.8709e-01  6.1774e-01 -8.7969e-02 -6.6273e-01
   6.3181e-01 -8.2685e-02  5.3639e-01  1.5753e-01]
 [-1.7084e-01  2.2187e-01  7.4470e-01  8.0829e-01  9.3111e-01  6.9321e-01
   2.2860e-01  6.3795e-01 -4.6658e-01 -2.5744e-01 -7.3656e-01  1.4809e-01
   3.8050e-01 -8.0435e-01 -2.0550e-01 -6.7895e-01]
 [-7.9006e-01 -6.9130e-01 -4.4920e-01  4.6585e-01 -7.2771e-01  5.5460e-01
   8.6457e-01  6.4837e-01  3.3602e-01 -3.9388e-01  2.0340e-01  5.4794e-01
  -5.3755e-01  7.7302e-01 -4.4004e-01  1.7279e-01]
 [-1.1968e-01 -6.8587e-01  3.9821e-01 -8.8839e-01  4.1865e-01  8.6527e-01
  -8.0579e-01 -1.9417e-01 -5.0156e-01  4.8451e-01  6.7262e-01 -1.0368e+00
  -6.0758e-01 -8.1193e-01  6.0617e-01  5.0942e-01]
 [ 4.8378e-01 -2.1980e-01  3.6297e-01 -3.7259e-01  9.8358e-01  3.7041e-01
  -8.4672e-01  3.1673e-01  7.3255e-01 -3.8195e-01 -8.6047e-01 -1.0519e+00
  -6.8884e-01  9.0952e-01  6.6812e-01  1.8247e-01]
 [-6.2877e-01  7.7923e-01 -1.7952e-01 -9.4960e-01  1.4002e-01  2.2360e-01
   3.7184e-01  2.0154e-01  1.6485e-01  1.4454e-01  4.2577e-01  4.4718e-01
  -2.7190e-01 -6.8099e-01  9.5164e-01 -5.9173e-01]
 [-9.9171e-01  8.7249e-01 -6.7743e-01 -6.7445e-01 -6.3889e-01  5.9270e-01
   2.6817e-01  4.7077e-01 -3.5497e-01 -8.8251e-01  3.5756e-01 -2.7346e-01
   2.7230e-01  9.1398e-01  3.7916e-01  3.9096e-01]
 [ 8.2756e-02  1.2413e-01 -7.0351e-01 -8.3981e-01 -3.7942e-01 -5.7657e-01
   5.2155e-01 -4.6929e-01  7.9804e-01 -4.7448e-01  9.8792e-01  2.6342e-01
   3.9738e-02 -7.1648e-01 -1.0451e+00  5.3476e-01]
 [-3.8974e-01  1.2179e+00 -2.3340e-01  3.7131e-04  3.7601e-01  3.7822e-02
   8.2228e-01 -1.0894e+00  1.2834e-01  6.1609e-01 -6.5361e-01 -3.0041e-01
   6.7074e-01 -4.2576e-02 -8.9264e-01 -4.8908e-01]
 [ 7.7199e-01 -4.8648e-01 -1.3940e-01  4.1660e-01 -7.1870e-01 -6.6215e-02
  -6.4168e-01 -8.8638e-01 -6.8985e-01 -6.2946e-01  1.0181e+00 -1.1494e+00
   1.0355e+00 -8.1802e-01  1.5613e-01  1.0134e-01]
 [-4.2961e-01  1.8694e-01  2.7033e-01 -5.4457e-01  8.8175e-01 -4.4734e-01
  -7.3797e-01  4.0942e-01 -1.4849e+00  4.5224e-01  1.0880e+00  6.6565e-01
   5.5762e-01  8.2631e-01 -7.4432e-01  1.1349e+00]
 [ 8.9020e-01 -6.1041e-01 -2.3682e-01 -9.3362e-02  1.5498e-02 -6.1423e-01
  -2.1696e-01 -6.1813e-01 -6.2147e-01  2.0904e-03 -3.3457e-01  9.4638e-02
   4.3760e-01 -3.1068e-01 -7.3731e-01 -4.6150e-01]
 [-2.4849e-02 -8.7060e-01 -9.8048e-01  4.5935e-01 -9.1645e-01  1.5781e-01
  -6.0572e-03 -5.7708e-01 -1.1483e+00 -7.1938e-01 -2.7825e-01  6.8670e-01
   6.0839e-01 -8.1097e-01 -7.6687e-01 -6.4812e-01]
 [ 7.2586e-01 -2.7471e-01  1.8213e-01 -7.7513e-01  9.2013e-01 -2.3304e-01
  -2.4942e-02  4.0853e-01 -3.2879e-02  1.9534e-01  1.1738e-01  3.5416e-01
  -5.9457e-01 -1.3914e-01  8.1352e-01  4.7984e-03]
 [ 3.5246e-02  1.6791e-01  5.9768e-01  6.7137e-01  4.0547e-01 -6.7757e-01
  -9.0123e-01 -4.2384e-02 -1.1141e+00  7.0869e-01  9.2861e-01 -4.7857e-01
   5.2736e-01 -2.7370e-01 -4.5448e-01 -1.7745e-01]
 [-4.6426e-01  5.8871e-01 -9.3178e-01  1.3961e-02  3.2804e-01 -7.1977e-01
  -6.3578e-01 -4.7162e-01  7.3910e-02  7.3625e-01  7.7939e-01  3.2678e-02
  -3.6222e-01  6.7139e-01 -5.5611e-01  5.6940e-01]
 [-7.8996e-01  5.3658e-02 -6.6881e-01  1.4036e-02  8.4224e-02 -6.0768e-01
   7.9108e-01  5.9393e-01 -5.4463e-01 -5.7190e-02  9.7799e-01 -7.3015e-01
   2.8276e-01  7.7835e-01  8.6520e-01 -2.8719e-01]
 [-4.2534e-01 -9.5898e-01  9.1714e-01 -9.0191e-01  6.3260e-01  1.1245e-01
  -2.4522e-01 -4.8357e-01  9.0906e-01 -3.0236e-01 -3.0689e-01 -3.2780e-01
   8.4904e-01  7.1371e-01  1.0323e+00 -2.3160e-02]
 [ 9.9831e-01 -1.0677e+00 -6.4672e-01  4.5922e-01 -6.4507e-01  2.2216e-01
  -5.1551e-01  5.3467e-01 -7.1437e-01 -7.8584e-01 -1.0710e+00  3.1080e-01
   5.2096e-01 -1.0788e-01  1.7366e-01  3.6687e-01]
 [ 9.0706e-01  8.1435e-01 -7.0779e-02 -9.9863e-01 -4.9621e-01  4.7322e-01
  -6.4654e-01 -1.0215e+00  5.0122e-01 -7.8785e-01 -8.4309e-01 -2.7727e-01
  -3.9062e-01  1.2783e-01 -3.4746e-02  3.8604e-01]
 [-3.6214e-01 -6.5016e-01  8.4489e-01 -7.6146e-01 -9.2697e-02 -3.6603e-01
   3.2047e-01 -1.9205e-01  8.8912e-01 -4.1073e-03  2.8747e-01 -8.4626e-02
   8.1130e-01 -5.2740e-01  7.2327e-01 -1.1894e-01]
 [-3.4499e-02  7.9265e-01 -4.5934e-01 -6.9973e-01 -2.1520e-01 -9.3457e-02
   4.5749e-01 -2.8689e-01  6.2863e-02  6.9391e-01 -5.1907e-01  7.2731e-01
   3.3669e-02  2.7510e-01 -2.0824e-01 -2.6418e-01]
 [ 6.0172e-01  7.4127e-01 -7.4574e-01 -3.1657e-01 -1.1472e-01 -2.3813e-01
  -8.3171e-01  2.3846e-01 -3.6765e-01  7.7164e-01  2.6641e-01 -5.4245e-01
   6.7794e-01  2.5822e-01 -4.3436e-01 -8.9008e-01]
 [ 2.6336e-01 -2.1987e-01 -1.7328e-01 -1.9011e-01 -7.1379e-01 -7.0342e-01
   8.9801e-01 -4.7424e-01  9.2469e-01  8.2181e-01  7.8333e-02  9.4556e-01
  -5.5434e-02  5.2986e-02 -5.1315e-01  2.4257e-02]
 [ 9.8874e-01  2.5021e-01  3.6006e-02 -4.8866e-01  1.0950e-01  6.4145e-01
   3.6192e-01 -6.0885e-01  4.9672e-01 -6.1285e-01  5.2397e-01 -5.9565e-01
   1.2535e-01  2.7195e-01 -7.7837e-01 -3.4032e-01]
 [-8.1413e-01  4.9711e-01  9.1638e-01  7.2454e-01  1.2385e-01  1.5869e-01
   6.6862e-01 -4.4967e-01 -6.9800e-01 -4.3825e-01  4.4772e-01  8.0519e-01
   2.4169e-01  3.7435e-01  8.2146e-01 -4.9730e-01]
 [-2.0261e-01  2.6408e-01  1.9094e-01  1.4357e-01 -8.5799e-01  1.1688e-01
   2.4889e-01 -2.2231e-01 -7.9482e-01 -9.7149e-01 -4.1426e-01  7.8301e-01
  -1.3683e-01 -2.0741e-01  4.8700e-01 -6.7457e-01]
 [ 6.7525e-01 -8.5854e-01 -2.8081e-02 -4.8972e-01  3.2633e-01  9.4422e-01
  -5.7974e-01  7.2348e-01  6.4636e-02  1.8801e-01  8.4233e-02  8.3380e-01
  -3.0039e-01  6.2413e-01  7.6806e-01 -8.9065e-01]
 [-3.7700e-01  6.8869e-01  3.0048e-01  5.2478e-01  9.4669e-01 -7.4563e-01
   3.2270e-01  4.2551e-01 -1.0290e-01  1.0967e-01 -5.3793e-01 -6.1034e-01
  -9.1244e-02  4.8930e-01 -8.9865e-01  6.3509e-01]
 [ 7.9359e-01  4.6075e-01  2.0720e-01 -3.4361e-02  2.3591e-01  4.1727e-01
   3.7383e-01 -7.7672e-01 -9.4953e-02 -7.6086e-01  5.6129e-01 -6.3263e-01
  -5.5073e-01  9.4596e-01  3.3696e-02  5.0654e-01]
 [ 8.7853e-02  1.9581e-01 -4.6419e-01  5.0038e-01  7.0257e-01  6.6489e-01
   6.0932e-01 -7.3429e-01 -1.1319e-01  6.3782e-01 -4.5858e-02 -9.3580e-01
  -9.6625e-01  8.0138e-01 -8.7265e-02  8.1160e-01]
 [-1.7123e-01  2.6573e-01  7.0149e-01  4.3930e-01  7.3162e-01 -3.4122e-01
  -2.7046e-01  7.4277e-01 -3.1437e-01 -7.9633e-01  7.3487e-02 -1.9968e-01
  -7.0417e-01 -8.2507e-01 -7.4229e-01  1.0080e+00]
 [ 9.9034e-01  2.7623e-01 -9.9755e-01 -3.7756e-01  3.3509e-01 -1.4499e-01
   8.9849e-03 -7.6620e-02 -1.3655e-01 -2.9663e-01 -6.7783e-01 -4.2826e-02
  -3.1062e-01  8.4401e-01 -3.8672e-01  2.8332e-01]
 [-3.6393e-01  3.5832e-01 -8.0996e-01 -9.2986e-01  3.7074e-01 -8.9509e-01
   5.5184e-01 -2.0778e-01 -2.4276e-01  9.8133e-01  1.3785e-01 -1.4401e+00
  -3.8407e-01  6.8604e-01 -4.0896e-01 -6.5426e-02]
 [ 2.4075e-02 -4.1148e-01  6.3748e-02 -4.9352e-01  4.9583e-01  2.9598e-01
   1.4521e-01  5.4388e-01 -6.3304e-01  2.1971e-01  9.6732e-01 -6.4639e-01
  -9.8555e-02  3.6621e-01  1.7497e-01  4.2591e-01]
 [-4.5241e-01  3.5499e-01 -1.1119e+00 -2.9533e-01  4.9515e-01  9.7515e-01
  -2.1322e-01  5.4417e-01  3.8537e-01 -6.4506e-01 -3.3544e-01 -5.0939e-01
   7.2014e-01  5.2969e-01  4.8538e-01  1.1085e-01]
 [ 1.5247e-01 -5.0749e-01 -7.7534e-01 -8.2434e-01  6.8586e-01  2.4623e-01
  -3.5439e-01 -1.1267e+00  3.7969e-01  7.7868e-01 -5.0756e-01 -3.9156e-01
  -6.2130e-01 -6.6046e-01  4.7479e-01 -1.3265e-01]
 [ 1.1117e-01 -6.2368e-01 -6.8824e-01  4.0460e-01  6.6983e-01  2.5060e-01
   2.1387e-01 -1.0712e+00  2.0871e-01 -8.2595e-01  5.3342e-01 -2.7506e-01
  -4.6583e-01 -2.5715e-01 -1.0697e+00  6.2252e-01]
 [ 1.9137e-01  9.9543e-01  3.3451e-02 -5.7221e-01  9.3433e-01  5.5958e-01
   7.4316e-01 -1.5168e-01  2.7175e-01 -5.1490e-01  8.1588e-01  4.0330e-01
   2.9055e-01 -3.1242e-01 -1.4504e-01 -7.3970e-01]
 [-3.4671e-01  4.6743e-02  5.9937e-01 -2.9870e-02 -3.4703e-01  8.4631e-01
  -7.4592e-01 -5.7956e-01  5.7555e-01 -7.8155e-01  1.0282e-01 -4.1257e-01
   6.5421e-01 -2.4716e-01  5.9315e-02 -6.7910e-01]
 [ 6.7266e-01  3.3145e-01 -5.1652e-01  3.1201e-01  6.3476e-01  3.3323e-01
  -8.1793e-01 -1.7058e-01  7.6776e-02  9.3221e-01 -5.0928e-02  1.2644e-01
   8.9541e-01 -4.2855e-01 -9.8861e-01 -1.1014e+00]
 [ 5.5031e-01  4.6849e-01 -5.7246e-01  1.3809e-01  5.3591e-01 -9.4859e-01
   2.9225e-01  3.1407e-01 -5.9345e-01  5.9925e-01 -1.5267e-01  4.3842e-01
   3.3332e-01 -5.0827e-01  6.6690e-01 -8.9150e-01]
 [-1.6789e-01  1.8226e-01 -5.0630e-01 -2.4043e-01 -3.7922e-01 -6.7597e-02
   2.2727e-01  6.5642e-01 -2.3839e-01 -6.5103e-01 -5.0254e-01  2.9246e-01
   1.4787e-01 -5.4318e-01 -2.3959e-01 -9.1606e-02]
 [-2.8984e-01 -3.2541e-01  8.0508e-01 -6.4098e-01 -4.5578e-01  4.9988e-02
  -2.7695e-01  4.4073e-01 -2.1457e-01  7.2888e-01  9.5635e-01  3.7923e-01
  -6.9464e-01 -9.7278e-01  4.3638e-01 -5.9239e-01]
 [ 4.9909e-01  7.6881e-01  8.0743e-02 -1.5061e-01  7.7641e-01  6.9795e-01
  -1.4701e-01  1.0273e-02 -4.5701e-01 -1.1224e+00  4.3033e-02  5.4703e-01
   4.1617e-01  5.9509e-01  9.7527e-01  5.6299e-01]
 [-4.0901e-01  2.7861e-01  4.8036e-01 -4.7011e-01  1.2149e-01 -9.2755e-01
  -8.4760e-01 -4.9705e-01  5.5048e-02 -3.1838e-01 -2.1916e-01 -7.8284e-03
  -7.9348e-01  9.0131e-01  2.0753e-01 -1.8497e-01]
 [ 5.2090e-01 -4.9962e-02 -8.4301e-01 -1.0497e+00  5.8806e-01 -3.2157e-01
  -2.3198e-01  7.9826e-01  2.1683e-01 -5.1453e-01 -3.9499e-01 -3.4454e-02
   9.0156e-01  6.1730e-01  9.3896e-01  1.0621e+00]
 [-4.7934e-01 -5.3272e-01  8.7368e-01 -3.6162e-01 -2.3283e-01  4.9629e-02
   5.2766e-01  7.2994e-01  1.2674e-01  4.9153e-01 -9.4879e-01  2.7099e-01
  -5.6273e-01  3.7568e-01 -8.1877e-01  7.7540e-01]
 [-1.9575e-01 -3.8793e-02 -2.8249e-01  3.8213e-01 -8.6891e-01  1.0728e-01
   7.4987e-03 -7.8192e-01  4.6760e-02  8.8012e-01 -3.4264e-01 -5.5816e-02
   5.0474e-01 -8.6278e-01  5.5559e-01  2.6438e-01]
 [ 8.4322e-01 -5.6083e-01 -2.9158e-01 -3.7455e-02  1.5639e-01 -6.2295e-02
   6.7065e-01 -3.4877e-01 -4.6006e-01 -6.0351e-01  8.8717e-01  1.2328e-01
   2.7801e-01 -2.1972e-01 -5.3313e-01 -8.7742e-01]
 [-5.5051e-01  6.9261e-01 -6.7860e-01  4.5858e-01  2.7591e-01 -9.1169e-02
  -3.1392e-01  7.2567e-01  8.8017e-01  1.3225e-01  6.4604e-01  1.7575e-01
   6.1901e-02 -7.9972e-01  5.6857e-01 -5.3515e-01]
 [ 7.1403e-01  8.1436e-01 -8.2998e-01  2.3589e-01 -8.6659e-01 -6.7373e-01
  -3.4301e-01  2.7174e-01 -7.7045e-01 -8.5820e-01  6.5089e-01 -7.0981e-01
  -3.5583e-01 -5.5096e-01 -6.9211e-02  8.5875e-01]
 [-8.1259e-01 -7.0183e-01  1.7287e-02 -6.8004e-01  7.6332e-01 -8.8300e-01
   3.3287e-01 -6.7213e-01  5.6603e-01  9.8656e-01 -5.4834e-01 -1.3345e-01
   3.0879e-01 -2.8845e-01  5.0012e-01  5.9950e-01]
 [-1.0079e-01  4.4601e-01 -4.2152e-01  8.8536e-01  2.0564e-01 -3.9558e-01
  -1.9776e-01  1.4544e-01 -1.9243e-01 -8.5484e-01  7.2194e-01 -8.6491e-01
  -1.0006e-01  7.6992e-02  8.0304e-01 -6.1868e-01]
 [ 3.4741e-01  4.0599e-01 -6.3675e-02  5.8657e-01 -4.6370e-01  4.6537e-01
   7.2465e-01 -3.6593e-01  5.0704e-01 -4.9395e-01 -7.6342e-01 -6.7608e-01
  -3.6989e-01  8.9224e-01 -6.6913e-01  1.1615e-01]
 [-6.1192e-01  1.0386e+00 -1.5294e-01 -2.0140e-01 -5.6710e-01 -4.3688e-01
  -7.3499e-01  1.0280e+00  1.2166e-01  6.7444e-01 -6.9595e-01  5.3335e-01
  -1.7364e-01 -5.3966e-01 -2.1326e-01  4.8889e-01]
 [-2.6043e-01  7.0594e-02  6.7211e-01  5.3529e-01 -2.3037e-01 -3.3701e-01
   3.2950e-01  1.0821e+00 -6.8566e-01 -4.5175e-01  9.8050e-01 -4.5006e-01
  -9.2025e-01 -8.3334e-01 -2.1585e-01  3.6610e-01]
 [ 3.3923e-01 -1.2389e-02  3.6810e-01 -2.0046e-01  3.4720e-01 -5.7395e-01
  -9.6330e-01 -2.2673e-01 -4.2350e-01 -9.6334e-01  4.1418e-01  1.1701e+00
   3.4267e-01 -6.1453e-01  6.7004e-01  3.4435e-01]
 [-4.3120e-01  7.5794e-01 -7.8200e-01 -2.9939e-01  1.1190e-01  8.7845e-01
   5.0442e-02 -3.0860e-01  8.9054e-01 -8.0353e-01 -7.0537e-01  3.5413e-01
   1.2685e-01  3.3328e-01  9.5393e-02  6.0035e-01]
 [ 8.0652e-01  8.3824e-01  4.5337e-01  3.7133e-01 -3.8806e-01  8.0616e-03
  -7.0486e-01 -1.3706e-01  3.6684e-01  7.4844e-01 -1.6602e-01 -1.0075e+00
  -1.0872e+00  5.0200e-01 -1.8167e-01 -5.7587e-01]
 [-7.2815e-01 -5.9007e-01  6.7170e-01 -5.7057e-01 -9.0948e-01  5.0650e-01
  -1.7220e-01 -6.3286e-03 -5.1433e-02  6.7234e-01  1.7773e-01 -5.1802e-01
   4.4908e-01  2.5842e-01  6.2990e-01 -5.4494e-01]
 [ 4.3374e-01  4.3036e-01 -8.3846e-02 -7.2846e-01  6.2071e-01  1.9176e-01
  -7.0608e-01  3.0456e-01  7.8529e-01  2.4384e-01 -9.5516e-01 -1.4156e+00
  -8.5822e-01 -3.2125e-01 -9.1206e-01  3.2643e-01]
 [-5.7504e-02 -1.0866e-01 -1.6065e-01  7.8215e-01  6.4987e-01  3.6547e-01
  -9.8585e-01  8.5351e-01 -1.0421e-02 -1.7808e-01  4.1788e-02 -4.1751e-01
   1.9960e-01 -6.5521e-01 -8.8565e-01  1.0440e+00]
 [ 9.7713e-01  9.7000e-01  7.6942e-01  2.3194e-01 -5.8513e-01 -3.2570e-01
  -6.4686e-01 -1.5262e-01 -6.3920e-01  4.2363e-01 -1.0977e-01 -9.1979e-01
   1.6270e-01 -9.3214e-01 -4.3196e-01 -8.5974e-01]
 [-9.6848e-01 -1.8588e-01 -5.0310e-01  5.6254e-01  8.9931e-01 -9.5814e-01
  -8.7516e-01 -6.6272e-01  6.4605e-01  8.7482e-01  3.8857e-02  8.2941e-01
  -1.9665e-01 -8.7669e-01 -6.0475e-01  9.0999e-01]
 [-1.4290e-01  5.5769e-01 -5.5485e-01  8.3257e-01  6.9962e-02 -8.4386e-03
   7.6260e-01 -7.2807e-01 -1.6580e-02 -3.3621e-01  3.7895e-01 -8.6119e-01
   5.8477e-01 -6.4528e-01 -1.0878e+00 -1.5479e-01]
 [ 2.9572e-01 -4.9067e-01  8.5578e-01  7.2678e-01  2.1254e-01 -3.1127e-01
   4.5099e-01  4.7398e-02  3.5726e-01  7.2169e-01 -2.8456e-01  3.1638e-01
   2.6646e-01 -9.5308e-01 -6.7963e-01 -9.4354e-01]
 [-6.7544e-01 -2.7755e-01  1.2338e-01  5.0112e-01  6.2071e-01 -9.3969e-01
   3.2794e-01 -9.2338e-01 -7.1055e-01  5.8902e-01 -2.2070e-01 -6.8999e-02
   9.1981e-01 -3.5692e-02  1.1781e-01  2.4809e-01]
 [-3.9801e-01  9.3230e-01  1.5413e-01  1.7487e-01  4.4641e-01 -3.0075e-01
   7.6392e-02  7.0861e-01 -7.5023e-01  2.6306e-01  4.9081e-02  7.3317e-02
   1.4373e-01 -7.4018e-01 -7.1001e-01 -7.1780e-01]
 [ 4.9668e-01  1.0625e-01  1.1967e-01  5.7550e-01 -3.8655e-01  8.1598e-01
  -6.0522e-01  2.4981e-01  5.9951e-01  6.3172e-01 -7.4074e-01  1.8397e-01
  -7.4572e-01  7.1729e-01  8.0827e-01 -5.9478e-01]
 [ 4.8512e-01 -5.8972e-01  9.1582e-01 -1.6784e-01 -5.4567e-01 -7.0222e-02
   9.8273e-01 -6.9951e-02 -6.0128e-01 -4.9482e-01 -7.8580e-01  1.7618e-02
   8.0033e-01  7.4254e-01  2.2937e-01 -7.8547e-01]
 [ 5.9623e-01 -1.4720e-01 -6.0178e-01 -2.7271e-01 -3.0070e-01  3.5413e-01
  -5.1496e-01  1.7861e-01 -2.6617e-01  3.3250e-01  8.6901e-01  8.7446e-01
  -7.5792e-01  1.3433e-01  5.9748e-01 -2.8614e-02]
 [ 6.7404e-01  1.1932e-01 -5.6199e-01  7.3508e-01  9.8769e-01 -9.5275e-01
   8.4423e-01 -6.0254e-01 -4.1611e-01  3.6090e-01 -4.8554e-01 -4.2710e-01
   6.2280e-01  2.5610e-01  5.3408e-01  4.9805e-01]
 [-6.4506e-01 -3.7816e-01  9.0698e-01 -3.1742e-01  1.9625e-01  7.4514e-02
   6.3399e-02 -8.0075e-02 -4.9101e-01  1.5685e-01  9.8477e-01 -8.0235e-01
   6.8932e-01 -6.7649e-01 -3.0988e-01 -2.3178e-02]
 [-4.0103e-02  7.1835e-01  5.5723e-01  4.9770e-01  6.5438e-01 -9.1532e-03
  -9.2944e-01 -8.2311e-01  8.5081e-01 -9.2698e-01  6.9663e-01 -1.8189e-01
  -3.2139e-01 -3.2324e-01  3.2901e-01  4.8763e-02]
 [-1.0346e-01 -5.9733e-01  8.5544e-01 -2.2219e-02 -6.8090e-02 -7.0259e-01
  -1.0303e-01 -1.0559e+00  4.5189e-01  2.9960e-01 -4.8380e-01 -2.3812e-01
   3.3361e-01 -9.6480e-01 -2.5743e-01 -2.7477e-01]
 [-1.4495e-01  1.9526e-01 -8.4081e-01  1.9677e-01  9.5655e-01  1.1882e-02
   1.6278e-01  5.9105e-01  8.1479e-01  1.0882e-01  3.1408e-02 -9.7273e-01
  -3.6789e-01 -6.6777e-01  7.4863e-01  3.3659e-01]
 [ 2.5437e-01  8.7047e-01 -9.0444e-01  1.5568e-01  4.1658e-01 -6.4818e-01
  -4.4160e-01  2.7902e-02 -6.6245e-01  2.2335e-01  6.8417e-01 -5.4239e-01
  -2.0634e-01 -2.8806e-01 -8.4802e-02 -7.0944e-01]
 [-7.4349e-01 -2.0949e-01 -2.3365e-01  1.7881e-01 -6.9524e-01 -1.0239e+00
   9.8176e-01  3.4851e-02  4.6559e-01 -8.8781e-01  5.4181e-01 -7.9976e-02
  -2.8513e-04  5.9663e-01 -5.4835e-01  3.2116e-01]
 [-4.2987e-01 -9.6233e-01 -6.8339e-01  5.2351e-01 -5.1405e-01  9.3130e-01
  -9.1337e-01  2.6623e-01 -5.4089e-01 -3.5646e-01 -4.2791e-01  2.8309e-01
   4.3089e-01 -5.8166e-01 -3.1694e-01  3.1053e-01]
 [-8.0150e-01  8.0362e-01 -9.2199e-01  1.7297e-01  2.0070e-01 -7.8487e-01
  -8.5344e-01 -3.8958e-01 -1.9615e-01 -9.7758e-01 -4.8060e-01  8.9035e-01
  -1.6563e-01 -1.7238e-01 -2.3897e-01  3.3656e-01]
 [-2.5321e-02 -2.7512e-01 -3.7177e-02  4.6973e-01 -8.6955e-01 -5.3732e-01
   1.4090e-01  3.0993e-01  7.5345e-01 -4.6325e-02  3.2176e-01  8.2781e-01
  -4.4599e-03  4.2139e-01  4.6351e-01 -6.5700e-01]
 [-6.3289e-01 -8.6909e-01 -4.7908e-01  5.6398e-01  8.1059e-01  1.4131e-01
   5.2604e-01  4.2282e-01  4.1055e-02  3.7203e-01 -6.5348e-01  3.8550e-01
  -3.3283e-01  2.5933e-01  8.0880e-01  4.5588e-01]
 [ 1.3157e-01  3.4062e-01  8.3432e-01  5.8934e-01 -4.2995e-01  7.0555e-01
   2.8339e-01  3.5307e-01 -6.4090e-01  6.2480e-01  7.9435e-01 -6.6665e-01
   1.9248e-01 -9.7293e-02 -9.3632e-01 -9.3838e-01]
 [-6.7457e-01  7.2148e-03 -5.4651e-01  7.4710e-01 -7.8830e-01  2.2982e-01
  -9.8919e-01  1.2918e-01  4.3805e-01 -7.2517e-01 -1.9600e-01 -4.2096e-01
   8.5673e-01  6.4297e-01 -8.7380e-01  5.4426e-01]
 [-4.7421e-01  3.3627e-01  5.5269e-01 -3.0667e-02  8.5904e-01  7.5088e-01
  -8.7678e-01  1.1800e+00 -5.8613e-01 -6.0248e-01  3.7996e-01  7.1758e-01
  -6.7141e-01 -4.0411e-01 -7.6938e-02 -4.3114e-02]
 [ 6.1195e-01 -9.3639e-01  6.0634e-01 -6.9093e-01  2.7901e-01  8.6593e-01
  -5.0120e-01 -4.1726e-01  7.1035e-01  2.3106e-01  7.6397e-01 -2.0837e-01
  -7.6972e-01 -9.3076e-01  3.0379e-01 -2.3102e-01]
 [ 1.3370e-01 -5.5286e-01  3.6563e-01  4.0250e-01  5.3975e-01  3.3951e-01
   4.2809e-01  3.9649e-01 -5.6598e-01  5.8257e-01 -2.9304e-02 -1.2574e+00
   4.1437e-01  2.2089e-01  8.6508e-01  7.4771e-01]
 [-2.7660e-01  7.7983e-01  8.4652e-01  6.7243e-01  4.6969e-01 -4.3277e-01
  -1.0198e+00 -1.9635e-01  8.5788e-01 -4.1090e-01  9.0112e-01  1.8744e-01
  -4.9207e-01 -9.8883e-01  9.4315e-01 -2.0046e-01]
 [-8.3648e-01 -2.5012e-01 -9.0968e-01  5.6039e-01  4.4963e-01 -8.9175e-01
  -7.4645e-01 -6.7862e-01  4.6918e-01  6.6632e-01 -7.3582e-01  7.0229e-01
  -7.4100e-01 -7.9935e-01  3.5219e-01 -4.1034e-01]
 [-9.2929e-02  9.1580e-01 -8.3378e-01 -8.0644e-01 -7.1550e-01  1.7074e-01
  -8.7287e-02  1.0251e+00  2.0459e-01  2.1483e-01 -2.2211e-01 -8.7757e-01
   5.2629e-01 -9.5564e-01 -6.7961e-03 -5.5596e-01]
 [ 2.6950e-01 -4.1298e-01  2.7120e-02  2.9231e-01 -8.5715e-01 -4.3840e-01
  -7.3167e-01 -4.6179e-01 -1.0307e+00  1.0070e-01 -7.3369e-01  2.1906e-01
  -8.1420e-01 -5.6991e-01 -5.0573e-01 -2.6419e-01]
 [ 5.2786e-01  8.7673e-01  5.8560e-01  8.6635e-01  6.6395e-02 -8.2189e-01
  -8.0911e-01 -4.4480e-01  6.1182e-01  9.3402e-01  7.1284e-01 -8.2582e-01
  -3.0827e-01 -3.7479e-01 -5.2285e-01  7.4860e-01]
 [-6.1515e-01 -9.1629e-01  8.3003e-01  1.0147e+00  5.9839e-01  7.0950e-01
  -6.1084e-01 -2.6118e-01 -4.7001e-01  3.7144e-01 -9.5529e-01  3.2646e-01
   5.4778e-01 -2.0169e-01 -3.5728e-01 -3.0881e-01]
 [ 8.3017e-01  2.6841e-01  9.5652e-01 -5.5589e-01  4.8428e-01  6.5424e-03
  -3.7144e-01  8.0253e-01 -8.3851e-01 -5.3794e-01 -4.8561e-01 -8.0661e-01
   2.4282e-01  1.6470e-01 -1.0253e+00 -1.0168e+00]
 [-2.7377e-01  7.6168e-01 -2.1562e-01 -3.2486e-02 -5.1830e-01 -6.3933e-02
  -2.9073e-01 -9.5419e-01  4.1606e-01  1.1798e+00 -7.5091e-01 -7.8020e-01
  -7.8275e-01 -6.1337e-01 -7.4075e-01  1.9702e-01]
 [ 6.5453e-01 -4.7411e-01  9.2790e-01  8.4506e-01 -4.1290e-01  7.9136e-01
   6.1087e-01 -9.9293e-01 -4.7548e-01  6.0584e-01  3.3666e-01  4.7372e-01
  -1.5965e-01 -3.8658e-01  9.5336e-02 -3.2762e-01]
 [ 4.6085e-01  3.8438e-01 -1.0754e-01 -4.3289e-01  3.7500e-01 -7.0593e-01
   6.5976e-01 -4.4347e-02 -1.3896e-01  1.4707e-01 -4.2637e-01  4.3258e-01
  -2.5233e-01  4.9733e-01  9.4994e-01  7.4463e-01]
 [-9.4587e-01  9.2931e-01 -7.2655e-01  1.1311e-01  6.9949e-01  3.9355e-01
  -9.5479e-01  6.2445e-02  2.5161e-01  9.0956e-01 -6.1934e-01  7.7748e-01
   3.0174e-01  6.8265e-01 -3.0659e-01 -4.2105e-01]
 [-6.3253e-01 -1.8121e-01  1.0516e+00  2.8615e-01 -7.2396e-01 -7.4837e-01
  -4.0961e-01  2.6659e-01 -3.5901e-01 -3.4964e-01 -8.9025e-01 -5.6707e-01
  -5.8734e-01  6.8881e-01 -9.1772e-02  4.2672e-01]
 [ 5.9779e-01 -4.3037e-01 -4.9255e-01  8.8218e-01  8.8321e-02 -2.2891e-01
   4.8249e-01 -2.1165e-01  6.6189e-01 -9.1281e-01  7.9569e-01 -3.5349e-01
  -7.1853e-01 -5.7820e-01  7.7567e-01 -6.3501e-01]
 [ 2.1517e-01  6.6204e-01 -1.3202e-01 -1.9286e-01  4.7372e-01  7.8158e-01
   6.8233e-01 -8.1920e-01  8.5769e-01 -7.6784e-01  8.5020e-02 -3.8271e-01
   4.1855e-01  1.5468e-01 -8.4666e-01 -7.2000e-01]
 [ 5.7753e-01 -5.5814e-01 -8.4144e-02  2.2959e-01  3.5542e-01 -5.9322e-02
   7.0834e-01 -2.4343e-02 -6.2860e-01 -8.0014e-01 -7.5120e-01  5.3434e-01
  -5.8415e-01  3.6817e-01  6.1341e-01 -5.1715e-01]
 [ 9.4951e-01  5.5431e-03  7.0717e-01  3.7910e-01 -1.2517e-01  7.3532e-01
   4.3789e-01 -6.9863e-01  2.9563e-02 -4.1880e-01  6.0864e-01  6.1247e-01
   1.9948e-02  9.5749e-01  3.8354e-01 -3.7266e-01]
 [ 8.2947e-01 -6.0020e-01  6.3399e-01  5.6068e-01  2.3544e-01 -6.6685e-01
  -6.3525e-01  3.5545e-01 -3.0200e-01  8.1405e-01  3.8958e-01  7.9445e-01
  -4.5042e-01  9.7499e-01  6.1944e-01  6.7950e-01]
 [-9.3377e-01 -9.2304e-01  6.2400e-01 -7.9664e-01  9.0084e-02  8.7617e-01
  -6.1451e-01  3.4837e-01 -5.1490e-01  3.5565e-01  2.2740e-01 -8.3424e-01
   5.3364e-01 -7.9428e-01 -4.1742e-01  4.7603e-01]
 [-4.1027e-01 -9.3140e-01 -2.1775e-01  9.4962e-01 -2.1846e-01  9.5072e-01
